316 200
and -0.13665517 -0.07804037 0.011626588 -0.054303326 0.063045494 -0.045437455 -0.14776403 -0.009227565 0.020049503 0.0011188475 0.08951006 -0.1242169 -0.048159324 -0.05933965 0.11275564 0.06261188 0.12865876 0.050201274 -0.08982909 -0.06673936 0.022778787 -0.034427926 -0.07199387 -0.022566522 0.08341198 -0.11498207 0.013028243 -0.05206346 -0.17478463 -0.09973172 0.046792153 0.0851926 0.0045646294 0.049414676 0.07218791 -0.021619996 0.021522839 -0.13888612 0.0053680404 0.0058326907 0.00015956073 0.020126622 0.13015825 -0.010521501 0.032187182 -0.043053668 -0.043868553 -0.17261834 -0.04635979 0.06507114 0.1308223 0.057821624 -0.2747136 -0.12156664 0.10289101 -0.028136037 -0.07291439 -0.023193475 0.30827746 -0.035005856 -0.054916713 -0.06704597 0.22073457 0.032071196 0.0371197 -0.09736881 -0.18417005 0.104558714 0.08968128 0.14558545 -0.061819557 0.11538828 -0.037419792 0.008510737 0.041239303 -0.061278854 -0.028275793 0.09290259 -0.006445995 0.035586536 0.20295532 -0.016978888 -0.13239262 0.099694416 0.098469965 -0.10538724 0.064915255 -0.09095759 -0.14264531 0.020485433 -0.020859698 -0.1413126 -0.019266468 -0.0011159237 -0.042019237 0.03798582 0.0056954776 -0.10973083 -0.102644354 0.02556914 -0.021619732 0.054202653 0.08852682 -0.02787862 0.045722503 -0.11319295 0.10707782 0.0009418034 0.042788796 0.06969461 0.0029365073 -0.019059712 -0.07931751 -0.03481258 -0.20960905 -0.05393197 -0.15644658 0.03378499 -0.04460043 -0.09541063 -0.059086673 -0.12506965 -0.00923067 -0.16167843 0.075213 0.0724387 -0.23740602 -0.06683701 0.02474495 0.0331786 -0.092250705 0.060733754 -0.09226076 -0.027098445 -0.0055925343 -0.08977239 0.14189352 -0.023712428 0.061715234 -0.044941854 -0.04332697 0.06893954 -0.011612154 -0.07200522 0.035045028 0.035235614 0.08934301 -0.031367313 0.1328557 0.09886 0.031550534 -0.02502163 0.15206018 -0.037291378 -0.04396616 0.1055895 -0.009643444 0.05804562 0.041752394 -0.05923497 0.014156641 0.1144655 -0.0117101045 -0.151468 -0.08708542 0.13599944 0.016057562 0.012220796 0.09477365 -0.07580296 0.016603675 -0.03567339 0.049185585 0.013297419 -0.04759308 -0.16452205 -0.105617695 0.21305157 0.03528486 -0.14209509 0.100084305 0.036755502 -0.0029799794 0.0020156475 0.033625096 -0.14973949 0.12346661 0.043479327 0.06880742 0.007967042 0.033275954 0.05334562 -0.023616005 -0.07081437 -0.02884063 0.10013232 -0.023641134 -0.052357435 0.1686489 0.012292392
to -0.13346928 -0.0827798 0.0076509914 -0.05700287 0.06328539 -0.046321515 -0.14863858 -0.01228144 0.022275686 0.0014735967 0.09047779 -0.122980855 -0.04913579 -0.06257012 0.11456082 0.060091358 0.12297846 0.04958744 -0.09021762 -0.06448559 0.024738869 -0.03280868 -0.07117827 -0.023814647 0.0866858 -0.11349983 0.0115902955 -0.050332494 -0.17552283 -0.100009926 0.044823017 0.085763335 0.0038060455 0.04888882 0.07136483 -0.018268846 0.022879213 -0.13880016 0.008340693 0.0026843038 -0.00023641223 0.01850333 0.13406083 -0.010989154 0.034881473 -0.04350354 -0.04255624 -0.17133926 -0.05098505 0.06469691 0.13236779 0.05745196 -0.27712956 -0.120768316 0.10403666 -0.023891719 -0.07264196 -0.023530705 0.3075759 -0.035616413 -0.055132914 -0.07158426 0.21800168 0.034445338 0.038071483 -0.09751029 -0.18284437 0.1063045 0.08816117 0.14581715 -0.06595585 0.11398013 -0.03927512 0.0068377242 0.041830942 -0.06128083 -0.02913891 0.08939953 -0.006496765 0.03571623 0.20262685 -0.014876649 -0.13198757 0.100427866 0.10217085 -0.10268066 0.067793936 -0.09093044 -0.14577131 0.024221051 -0.019896101 -0.13671212 -0.017694063 -0.0035540124 -0.040853165 0.04019807 0.00443896 -0.10881773 -0.106523216 0.024035355 -0.019624619 0.057700142 0.089489326 -0.031577133 0.043495525 -0.1108203 0.10650593 0.0018316911 0.04056075 0.06529062 0.0023060916 -0.014343605 -0.07790489 -0.036772843 -0.20978676 -0.0531378 -0.15874736 0.03750235 -0.046859223 -0.097200945 -0.06144222 -0.12542747 -0.0063212733 -0.15963681 0.07788959 0.07129465 -0.23611987 -0.06819148 0.024752032 0.032020822 -0.09489856 0.061344948 -0.089194015 -0.026560852 -0.010258214 -0.08972295 0.14371862 -0.026383964 0.05841124 -0.04306005 -0.04291665 0.06894932 -0.016076606 -0.07068376 0.035567652 0.035651017 0.08880764 -0.034389853 0.12809317 0.10000141 0.031891797 -0.020694459 0.14994398 -0.03913526 -0.047296528 0.1029841 -0.010130511 0.056651887 0.04001752 -0.06092161 0.014248512 0.11270123 -0.0133866845 -0.15208334 -0.08943554 0.13844867 0.017920807 0.009516471 0.09136938 -0.07866215 0.015547539 -0.033688273 0.045041386 0.009653837 -0.04474854 -0.16387552 -0.10562415 0.21759577 0.03421729 -0.14215752 0.10022204 0.037255105 -0.0022743035 -0.0020671973 0.034438882 -0.1464525 0.12486961 0.040596493 0.06867295 0.006579933 0.03626772 0.051753476 -0.023528444 -0.073775224 -0.027746445 0.1003289 -0.027508777 -0.048436653 0.16685542 0.01481574
of -0.13373333 -0.082174845 0.007219221 -0.05219363 0.066575445 -0.0460249 -0.15008311 -0.010303597 0.021871435 -0.0014792772 0.089354165 -0.12117138 -0.05134001 -0.059185687 0.11417812 0.061518963 0.12737182 0.050310057 -0.088950105 -0.06634864 0.025930276 -0.033136826 -0.072702095 -0.021359975 0.08745323 -0.1164187 0.012893582 -0.050000485 -0.17238358 -0.10076146 0.04238952 0.08799775 0.003990225 0.046778243 0.06822985 -0.021772904 0.024191167 -0.1411973 0.0061117797 0.002452752 -4.795328e-05 0.017492127 0.13402978 -0.012126647 0.036725853 -0.04305899 -0.042314388 -0.17285047 -0.04939818 0.06620883 0.13028257 0.056634102 -0.2784324 -0.12129126 0.1029604 -0.026166782 -0.0715251 -0.021564692 0.30647075 -0.035850268 -0.0527518 -0.06858831 0.2190546 0.034167677 0.036732122 -0.096354984 -0.18679234 0.10465196 0.08644133 0.14114223 -0.06588436 0.11606211 -0.039985877 0.00669023 0.040971633 -0.059809268 -0.024494069 0.089289434 -0.0077215447 0.036549024 0.20117864 -0.015284321 -0.13196184 0.09957801 0.09768571 -0.10188292 0.067308165 -0.09081737 -0.14163317 0.020521555 -0.02164075 -0.14077635 -0.015956827 -0.0027675694 -0.042304166 0.040781196 0.00765382 -0.110042326 -0.104256354 0.026544148 -0.022893777 0.0572181 0.090435974 -0.030375391 0.044562504 -0.11046532 0.1094387 -0.0018654622 0.04282757 0.065156095 0.0012072391 -0.017349595 -0.07819779 -0.03698876 -0.21040067 -0.050257787 -0.15696089 0.034664586 -0.042859968 -0.09799865 -0.05999424 -0.12630272 -0.0053713582 -0.15867478 0.078719355 0.06996259 -0.23482628 -0.07024217 0.021190273 0.032469455 -0.0950013 0.057334915 -0.090916805 -0.026903316 -0.010069718 -0.08787087 0.13938655 -0.02567203 0.05929559 -0.044034038 -0.043198172 0.06914311 -0.012113133 -0.072245814 0.032701176 0.03929536 0.09173196 -0.031240588 0.12806016 0.10048165 0.029310593 -0.023408066 0.15203413 -0.037887268 -0.046073925 0.10451404 -0.010198596 0.05714053 0.04423334 -0.06426134 0.012844557 0.11516615 -0.013857127 -0.14850928 -0.08759408 0.1377259 0.013983203 0.013907721 0.095135115 -0.08057819 0.016499067 -0.036412004 0.04772809 0.008324944 -0.0470829 -0.16480085 -0.10395451 0.21307918 0.035238847 -0.13800341 0.101787925 0.03506188 0.00049097434 0.0031442633 0.033026416 -0.14991964 0.12482732 0.042174984 0.066683464 0.006891056 0.03475792 0.053685974 -0.022929907 -0.07093226 -0.023705127 0.10299135 -0.02633024 -0.052209187 0.16802356 0.012997077
a -0.13243611 -0.07653283 0.010491948 -0.05457511 0.0641032 -0.046355676 -0.14538978 -0.009327346 0.020611675 -0.001528551 0.08809523 -0.118588656 -0.049921468 -0.05917161 0.10818876 0.06166096 0.12089585 0.046001583 -0.08787524 -0.06308296 0.024861295 -0.035982896 -0.07010947 -0.020360138 0.082842425 -0.11358294 0.013662448 -0.048022788 -0.16990498 -0.097839974 0.04555462 0.08428148 0.0043739285 0.047350906 0.06854325 -0.018291943 0.022310615 -0.13379689 0.007821922 0.0030648378 -0.0012562088 0.020028977 0.13128196 -0.008571391 0.034718268 -0.042685516 -0.038795877 -0.16820829 -0.046765484 0.063770644 0.12946741 0.05411262 -0.269796 -0.11940608 0.09990703 -0.024605785 -0.068548314 -0.022434032 0.29983371 -0.03561428 -0.053215906 -0.06913544 0.21460687 0.030534938 0.038466845 -0.09450152 -0.1782265 0.10396269 0.08693161 0.14124794 -0.063948296 0.11356128 -0.04065266 0.0090411715 0.040574025 -0.05851274 -0.027855935 0.090031445 -0.008384583 0.03715522 0.19728611 -0.01748443 -0.12519172 0.097665355 0.09498433 -0.099997215 0.0622972 -0.09127542 -0.14061551 0.024524696 -0.0196019 -0.13596065 -0.019987365 -0.0005485991 -0.040412024 0.039287195 0.004680228 -0.10725036 -0.10334651 0.025145734 -0.022803122 0.052745156 0.090656646 -0.026672529 0.045170367 -0.11067069 0.1052178 0.0030145822 0.039443247 0.06621046 0.0006075448 -0.017612673 -0.07525181 -0.036698192 -0.20313221 -0.050257284 -0.15462549 0.032020636 -0.04437632 -0.09214224 -0.05994701 -0.11918349 -0.00488528 -0.1574476 0.07492949 0.06832387 -0.23131165 -0.06611227 0.02370899 0.031094419 -0.093225524 0.05423725 -0.08581613 -0.027674852 -0.007211952 -0.085078545 0.13712648 -0.021945313 0.057305425 -0.042860623 -0.042013913 0.067526504 -0.014460277 -0.06894316 0.031859946 0.034858726 0.08968884 -0.029893752 0.1274312 0.09969767 0.031950254 -0.024870591 0.14711696 -0.03762523 -0.04598847 0.10113217 -0.009874857 0.055347435 0.04094802 -0.06210924 0.013299912 0.11311262 -0.013799912 -0.14495082 -0.0861218 0.1337612 0.016038591 0.010282554 0.09298638 -0.07528039 0.01538865 -0.03406964 0.045928422 0.01224085 -0.04433257 -0.16055396 -0.101758 0.20766398 0.03271611 -0.1373605 0.09959951 0.031774346 -0.003159347 -0.00028436005 0.031665906 -0.14172074 0.12097407 0.03975764 0.06636972 0.0070040445 0.030603876 0.05237845 -0.026178125 -0.06883864 -0.027061176 0.10110913 -0.023307618 -0.046218608 0.16330896 0.0133759035
the -0.13159002 -0.077521704 0.011041404 -0.05207666 0.06556434 -0.04879648 -0.14469916 -0.007605458 0.022185838 0.0008278263 0.08706117 -0.11804883 -0.04991637 -0.061860494 0.11206458 0.06005222 0.124015786 0.04703738 -0.08638104 -0.060793016 0.022266308 -0.03583053 -0.072573565 -0.01936524 0.08330596 -0.11443495 0.014788086 -0.048479903 -0.17179659 -0.09725151 0.041725878 0.08472126 0.005740709 0.045558725 0.06932452 -0.018117653 0.022886442 -0.13973846 0.0066203508 0.0032976652 -0.00010890889 0.01796272 0.13336763 -0.011066555 0.03681663 -0.040944982 -0.043396823 -0.16937017 -0.048015956 0.065904886 0.1289425 0.05666285 -0.27265757 -0.121523865 0.10300879 -0.02516392 -0.07108389 -0.02214752 0.30241385 -0.032900166 -0.056621615 -0.06532621 0.21616723 0.029508043 0.040288314 -0.095145814 -0.18342787 0.103029035 0.08728248 0.13998184 -0.0637846 0.11460213 -0.038172744 0.0055847755 0.04251297 -0.05685172 -0.027098285 0.08851471 -0.006538386 0.039788738 0.19879906 -0.016400902 -0.1307933 0.09605279 0.09921293 -0.1007178 0.065563016 -0.093077295 -0.14222513 0.02135854 -0.019169662 -0.13560514 -0.016883492 -0.0048613213 -0.040674683 0.03680685 0.0050280048 -0.108001314 -0.10482138 0.023676377 -0.020053204 0.052749492 0.08829545 -0.031938866 0.045903824 -0.10974695 0.10842325 -0.0016445656 0.039714217 0.06570926 -0.0013316831 -0.014586425 -0.07466613 -0.03455158 -0.2071383 -0.050880145 -0.15659179 0.034130324 -0.04625806 -0.0925223 -0.060412798 -0.12521449 -0.0072855297 -0.15595096 0.07552174 0.070699476 -0.23300661 -0.06828157 0.02358257 0.030637264 -0.09207594 0.057254955 -0.08924482 -0.024765046 -0.010527452 -0.08476608 0.13906048 -0.024127437 0.060699254 -0.045979004 -0.038725607 0.06805896 -0.0137772495 -0.069004215 0.03616086 0.038911656 0.088545814 -0.034560762 0.12868007 0.10007958 0.030853843 -0.021165397 0.1503208 -0.035933245 -0.047546692 0.10499071 -0.0075402297 0.05727527 0.04374481 -0.06234713 0.014156428 0.11184082 -0.008928698 -0.14865644 -0.08418237 0.13707566 0.017848106 0.0094150705 0.09169555 -0.07723457 0.01492746 -0.031548154 0.0474525 0.008745105 -0.046034046 -0.15973477 -0.10163414 0.21118103 0.033527166 -0.1408924 0.10152969 0.036063597 -0.0027242855 -0.0008743445 0.03486646 -0.14829654 0.12153168 0.0428842 0.06626154 0.007842056 0.0347436 0.05175731 -0.026241777 -0.068481155 -0.027360247 0.099862404 -0.027608328 -0.04883208 0.16648902 0.01424163
is -0.13874345 -0.08220015 0.009305353 -0.05659503 0.06546143 -0.048614636 -0.15016583 -0.008459794 0.021004993 0.0022300652 0.08831702 -0.12260545 -0.04911097 -0.060535505 0.11535252 0.06336333 0.12819074 0.04900008 -0.09080853 -0.06519474 0.024622697 -0.0355738 -0.0702931 -0.02301719 0.08749681 -0.1171002 0.016012795 -0.052355226 -0.17633453 -0.09811229 0.047829047 0.08656214 0.0012508044 0.04902809 0.06924731 -0.018073762 0.024762975 -0.14077835 0.008055514 0.0061179628 -0.0004801526 0.020415355 0.1352809 -0.01228207 0.036781847 -0.040077038 -0.04243818 -0.17057224 -0.0478664 0.06566239 0.13467522 0.059759364 -0.28420606 -0.12628725 0.10618089 -0.024667615 -0.07202244 -0.02598948 0.31224397 -0.037486516 -0.056183152 -0.06962666 0.22301698 0.03231457 0.041385073 -0.09640312 -0.1891602 0.10640701 0.08766359 0.14778388 -0.06740903 0.11781673 -0.042209517 0.0050360463 0.04275546 -0.061042443 -0.025168872 0.09256667 -0.009525263 0.03876315 0.2032202 -0.017832449 -0.13332547 0.1008376 0.10192492 -0.10620799 0.068586215 -0.09706864 -0.14770362 0.020732025 -0.022884639 -0.13860624 -0.016555937 -0.004688702 -0.041438363 0.04081306 0.0051169023 -0.10768098 -0.106547326 0.028837914 -0.02083591 0.057453804 0.09403066 -0.03047357 0.045010664 -0.11432764 0.109312885 0.0025174685 0.03947689 0.06802675 0.00046693845 -0.019022716 -0.078479186 -0.03579484 -0.2096889 -0.05278284 -0.15606087 0.0329037 -0.04786424 -0.09636516 -0.061394192 -0.12506782 -0.0047954074 -0.16302583 0.07799131 0.07350393 -0.23828839 -0.07234583 0.02090119 0.03270905 -0.09451154 0.05915423 -0.09161055 -0.02540556 -0.007618959 -0.09126463 0.14226212 -0.02410199 0.061138373 -0.04699308 -0.04014929 0.06920252 -0.0132672135 -0.07269116 0.0384052 0.035838433 0.090511516 -0.032528795 0.13293862 0.10518281 0.029199498 -0.022825716 0.15183166 -0.037502628 -0.046956815 0.107171275 -0.012938063 0.055349156 0.044610813 -0.06360708 0.013118209 0.115628585 -0.014265099 -0.15072906 -0.087958515 0.13712095 0.015416756 0.013283766 0.095277324 -0.080962 0.013157851 -0.03303593 0.05050353 0.009967545 -0.04936742 -0.16692524 -0.1078057 0.22091724 0.038123555 -0.14296533 0.10072472 0.03432216 -0.0034922163 0.0012764623 0.03337603 -0.14840223 0.12842245 0.04361938 0.068601735 0.008211391 0.033593375 0.05180453 -0.02304413 -0.0718276 -0.02731207 0.10156093 -0.02475083 -0.051814165 0.17064147 0.011762407
or -0.13598643 -0.080738254 0.010609864 -0.053122927 0.06660687 -0.045914914 -0.14782444 -0.011696704 0.023093741 -0.0011313887 0.08696268 -0.12197448 -0.04916056 -0.0619163 0.11122655 0.06043499 0.12546551 0.047621597 -0.087122396 -0.064481206 0.026594616 -0.03672513 -0.07390606 -0.021867514 0.08329803 -0.11647658 0.01325566 -0.051926732 -0.17142858 -0.09987044 0.042916894 0.087813504 0.0032437393 0.047832064 0.07269004 -0.018726073 0.02222582 -0.13789187 0.007638047 0.0032196855 -0.0036313613 0.016429078 0.13089715 -0.011226922 0.033987693 -0.04405278 -0.042101458 -0.17223941 -0.04982435 0.06730721 0.13138683 0.054297414 -0.27883327 -0.124033704 0.10197609 -0.023586908 -0.07003906 -0.021571113 0.30738112 -0.033936433 -0.053628847 -0.06557125 0.21946618 0.034689974 0.039955646 -0.09548164 -0.18509673 0.10593619 0.08719648 0.14351946 -0.064456016 0.11605593 -0.041968092 0.005994579 0.04424404 -0.060918346 -0.025302827 0.08858777 -0.0067419326 0.035788305 0.2012653 -0.015559877 -0.13249114 0.09739459 0.101389095 -0.10229803 0.06543646 -0.0940305 -0.14104325 0.021181608 -0.02203508 -0.14040412 -0.019937072 -0.0014415021 -0.040663686 0.03679599 0.0034782153 -0.10843259 -0.10487279 0.027013108 -0.022389462 0.05382862 0.09213623 -0.029338138 0.045662377 -0.11150242 0.107140645 0.002217809 0.042948514 0.0667469 -0.00089020253 -0.014826453 -0.0778533 -0.0370303 -0.20883611 -0.04944734 -0.15741082 0.03706738 -0.04604365 -0.096298516 -0.060866814 -0.12489102 -0.007642447 -0.15795173 0.0774633 0.071225345 -0.2350173 -0.071317434 0.02237128 0.03358212 -0.0945083 0.059226595 -0.09070353 -0.030007474 -0.0077817324 -0.08832705 0.14183308 -0.025477119 0.06089619 -0.045928057 -0.04309294 0.06905414 -0.014641156 -0.07179275 0.03597503 0.03924209 0.088959366 -0.032562874 0.13267186 0.1003979 0.031833496 -0.024006346 0.14996263 -0.035953455 -0.046296686 0.10413814 -0.011233473 0.055248406 0.04398091 -0.06267848 0.016041098 0.114664964 -0.014094463 -0.14649008 -0.08532182 0.13777967 0.016265616 0.014099471 0.09084277 -0.080531456 0.01598866 -0.032953348 0.046987858 0.00930966 -0.04594249 -0.16398768 -0.10286553 0.21638776 0.037641738 -0.1411058 0.10249651 0.03541159 0.0005685882 0.0009398236 0.030288586 -0.14945184 0.126089 0.03998292 0.065749325 0.008160784 0.03375151 0.053132545 -0.023787117 -0.06914639 -0.02623897 0.101495884 -0.02785801 -0.05251893 0.16724475 0.013602063
your -0.13785678 -0.08182057 0.00996426 -0.05597907 0.06623274 -0.049443368 -0.149624 -0.01163574 0.01941674 -0.0010269736 0.09114353 -0.12431649 -0.04987935 -0.059459116 0.11523738 0.06031347 0.124486044 0.051985413 -0.08925414 -0.061911006 0.027321588 -0.036154192 -0.07388093 -0.023581516 0.088864446 -0.114368215 0.011323305 -0.04943007 -0.1762597 -0.10203488 0.04603672 0.08899825 0.0017214397 0.0500328 0.07284601 -0.02209466 0.024540074 -0.14039025 0.0059727756 0.006937584 -0.0024314679 0.020202838 0.13601267 -0.013244098 0.037712686 -0.04197169 -0.041754406 -0.1688137 -0.048573066 0.06451094 0.13441993 0.05449154 -0.28184545 -0.12541261 0.10283705 -0.028633326 -0.07183062 -0.0231809 0.30835426 -0.034250826 -0.0528854 -0.069355726 0.22146906 0.031181846 0.039763093 -0.09555727 -0.18604341 0.1084085 0.08776682 0.14571299 -0.06422718 0.115968555 -0.041847672 0.0056192004 0.041767772 -0.06306818 -0.028741792 0.089673534 -0.00506518 0.038425248 0.20590574 -0.016186548 -0.13204287 0.098628804 0.1035077 -0.10347526 0.06727968 -0.09482361 -0.14678338 0.025188617 -0.019889377 -0.14138032 -0.020214185 -0.00016553556 -0.04300835 0.03955834 0.006585403 -0.11055658 -0.10804954 0.023589235 -0.020489775 0.056675743 0.0919105 -0.03244376 0.045004178 -0.10989784 0.11027646 -0.00013224474 0.04314112 0.06493371 0.002965663 -0.018537818 -0.07481594 -0.038092617 -0.2122632 -0.05306181 -0.15969382 0.03442343 -0.042467862 -0.09636513 -0.06160815 -0.12681791 -0.004721457 -0.16335727 0.078538574 0.069002934 -0.23892878 -0.06991038 0.023120627 0.029750595 -0.093263194 0.059197042 -0.092626445 -0.03058548 -0.010005615 -0.08793289 0.14336912 -0.024538588 0.0579756 -0.045461323 -0.04441933 0.07007957 -0.013958982 -0.074273914 0.03386333 0.03503552 0.0894337 -0.034491457 0.12962781 0.10218688 0.029606717 -0.0219124 0.15053853 -0.03607646 -0.045761883 0.10577592 -0.008688957 0.05506265 0.044032786 -0.064288005 0.015163151 0.116297126 -0.011939239 -0.15171486 -0.08830467 0.13888659 0.01657022 0.010273333 0.09505319 -0.080446675 0.012642814 -0.03454827 0.04818925 0.010079332 -0.04512761 -0.16607499 -0.10424776 0.21733676 0.035312016 -0.14308742 0.09954731 0.036448132 -0.003881061 -0.00093584927 0.032917824 -0.14949758 0.1284217 0.04375778 0.06541441 0.007847493 0.03441592 0.051756077 -0.025877995 -0.0727254 -0.025608918 0.10183609 -0.026957512 -0.052186683 0.16867657 0.01418361
for -0.13478625 -0.079552926 0.008544815 -0.05663854 0.06346923 -0.0463131 -0.14986712 -0.012053094 0.02353015 0.0015016507 0.087869994 -0.1234632 -0.05099738 -0.06007559 0.114832014 0.064479984 0.12895586 0.049328074 -0.08925161 -0.06389473 0.026735963 -0.03582486 -0.07193519 -0.021694137 0.087118454 -0.11586911 0.015721785 -0.05454849 -0.17773071 -0.097893655 0.04392223 0.086589485 0.0026516775 0.050779868 0.072333105 -0.0232755 0.023003403 -0.14447568 0.0058231815 0.0038567546 -0.0005843394 0.021074796 0.13344377 -0.010328619 0.036920108 -0.044321787 -0.04320068 -0.1736913 -0.04962007 0.06793657 0.13428564 0.058536876 -0.28417113 -0.12398398 0.10269238 -0.02796072 -0.07141619 -0.025620712 0.3122931 -0.03459321 -0.05430887 -0.07087921 0.22345509 0.030365026 0.04100033 -0.0983984 -0.1891595 0.10700904 0.09055644 0.1467307 -0.06635536 0.1182351 -0.040909678 0.007021714 0.042831257 -0.05920667 -0.028277874 0.09366385 -0.008102148 0.040094357 0.20381247 -0.017590014 -0.13236502 0.09750737 0.102590315 -0.10229172 0.066242136 -0.09342225 -0.14611903 0.023291491 -0.019367471 -0.14276709 -0.018391319 -0.004838377 -0.042957716 0.04162818 0.00626454 -0.10888595 -0.105673954 0.027129471 -0.02198226 0.055667195 0.09457595 -0.028495045 0.047554947 -0.11465747 0.11013442 0.00054268143 0.03935883 0.06900716 0.0002070797 -0.015904658 -0.080412485 -0.035019822 -0.21245432 -0.053865384 -0.15755807 0.036126286 -0.044490356 -0.098656744 -0.06363972 -0.12680745 -0.00950349 -0.16416894 0.0804861 0.07185038 -0.24134503 -0.07310351 0.023454566 0.03416203 -0.09528195 0.05678124 -0.091704555 -0.028600387 -0.0063871597 -0.0912038 0.14421564 -0.025374928 0.062373336 -0.046997786 -0.04330544 0.069016375 -0.012282545 -0.07377873 0.036960647 0.039655466 0.09164685 -0.03281103 0.1304272 0.10541055 0.030454589 -0.022425354 0.15478759 -0.037395056 -0.044180397 0.105966404 -0.012144344 0.05485839 0.044417202 -0.0641294 0.015540035 0.11880235 -0.011764467 -0.1537531 -0.086664125 0.13831496 0.016807986 0.013858593 0.09666548 -0.080543175 0.012748155 -0.036220938 0.047773503 0.010257129 -0.048614666 -0.16431847 -0.10810921 0.21795087 0.03597775 -0.14500982 0.104212604 0.036406975 -0.00040627364 -0.0008511415 0.033652175 -0.15038833 0.12952037 0.040653706 0.069563754 0.009779854 0.036250085 0.051418506 -0.02594293 -0.07179308 -0.027078178 0.1008315 -0.025295554 -0.048153795 0.16944307 0.01163244
with -0.13784042 -0.084567524 0.006815589 -0.05660324 0.06977071 -0.04923478 -0.15341851 -0.008562146 0.02133561 0.0013461192 0.08885116 -0.12479468 -0.04863566 -0.061994918 0.118578345 0.06633637 0.13044837 0.048990753 -0.08894597 -0.06554064 0.025812486 -0.035895195 -0.075401105 -0.024685388 0.08988025 -0.119196735 0.013285302 -0.053023376 -0.17787972 -0.10240614 0.046672456 0.09102414 0.005664031 0.051175114 0.07021471 -0.020596746 0.022459846 -0.14417127 0.011062911 0.0028161248 -0.0007307357 0.017568657 0.13786756 -0.0097856885 0.033276394 -0.042593773 -0.04081966 -0.17511313 -0.050499424 0.069226064 0.13506706 0.05865585 -0.28296843 -0.12389828 0.105190426 -0.026896637 -0.07224857 -0.022717752 0.31406084 -0.03576875 -0.054966353 -0.07184519 0.22691533 0.03517606 0.040750965 -0.099716075 -0.1886778 0.11005032 0.09105792 0.14867681 -0.06778159 0.118668966 -0.039055977 0.009108916 0.045607924 -0.06179325 -0.027854508 0.091529794 -0.007952402 0.03942178 0.20651722 -0.019681873 -0.13561833 0.10199971 0.10245632 -0.10624252 0.06767115 -0.09442066 -0.14697324 0.023043197 -0.019352717 -0.14025173 -0.01772687 -0.0037403388 -0.04335084 0.039034322 0.0054239733 -0.11048051 -0.10529096 0.026151462 -0.0237479 0.058178656 0.09441746 -0.03010458 0.046511486 -0.118134394 0.11181911 -0.0014052849 0.041656062 0.06921742 0.00037972338 -0.019994877 -0.0789998 -0.034197506 -0.21500969 -0.053696886 -0.161069 0.036767453 -0.04303968 -0.10017817 -0.06334121 -0.12564395 -0.008362574 -0.16632809 0.07760717 0.07310464 -0.24395376 -0.06944517 0.021704866 0.03173523 -0.09908234 0.059825473 -0.0931363 -0.026136119 -0.0066777915 -0.09063752 0.14759392 -0.02727273 0.061718337 -0.04386322 -0.03974483 0.06890854 -0.01603966 -0.07432914 0.03743165 0.039508257 0.09496334 -0.033497345 0.13583599 0.10298595 0.030049058 -0.021630581 0.1552321 -0.03663155 -0.04620322 0.107737035 -0.0110788075 0.055019796 0.044230692 -0.061532132 0.014650552 0.116487525 -0.012933464 -0.15297861 -0.08849256 0.1414079 0.014029904 0.010048205 0.09563373 -0.07975283 0.016310224 -0.03321066 0.050560392 0.011576542 -0.046819918 -0.16848724 -0.10650128 0.22249426 0.036190793 -0.14404157 0.10191466 0.036804188 0.0012976101 0.0005002582 0.034843437 -0.15130602 0.1290749 0.040674 0.066193126 0.009887936 0.0330747 0.055370294 -0.028109508 -0.07401266 -0.024784202 0.10333921 -0.028038137 -0.050846424 0.1711318 0.012461721
that -0.13501398 -0.08280969 0.010388418 -0.05513003 0.06591465 -0.050889835 -0.14764592 -0.009588927 0.023392059 0.0010047039 0.08849011 -0.12458524 -0.052285947 -0.05920834 0.11576482 0.0616204 0.13038549 0.048910026 -0.090143934 -0.06637774 0.027235685 -0.03826086 -0.07188344 -0.0205432 0.08808717 -0.115498826 0.012251812 -0.051386807 -0.175979 -0.10019703 0.04748299 0.09050357 0.0062403004 0.050167438 0.07258945 -0.019699695 0.023013258 -0.14295264 0.008491131 0.007054471 -0.0014279055 0.020978149 0.13377623 -0.013343872 0.037996907 -0.040065743 -0.040437415 -0.1749078 -0.048927575 0.06999799 0.13312301 0.05742609 -0.28188545 -0.123050615 0.1039479 -0.027809327 -0.07096845 -0.022011172 0.31418747 -0.03676797 -0.05626386 -0.07147304 0.22093129 0.030712822 0.039684232 -0.09732041 -0.18662874 0.10548047 0.08975487 0.1435304 -0.06531297 0.11624116 -0.039598417 0.008230007 0.042492095 -0.06072401 -0.025801165 0.092271514 -0.009960937 0.03954061 0.20468591 -0.015217039 -0.13458061 0.09815671 0.10338511 -0.10428562 0.069540374 -0.09385479 -0.14494978 0.025974294 -0.021121988 -0.14281757 -0.017192028 -0.0034813122 -0.04028844 0.04104537 0.0063427235 -0.111319825 -0.1088402 0.025014402 -0.020623373 0.056168415 0.09105748 -0.029170807 0.044605326 -0.11249035 0.109222546 0.0013427036 0.039246276 0.06804776 -0.00059685484 -0.018458372 -0.08078663 -0.038864266 -0.21402824 -0.053146802 -0.15786482 0.034224156 -0.046855427 -0.095214635 -0.0595385 -0.12744081 -0.009714939 -0.16069552 0.076301806 0.07358697 -0.23759045 -0.068689205 0.020523319 0.03431403 -0.09557588 0.05685697 -0.0922728 -0.028290687 -0.008636272 -0.08844998 0.1439984 -0.026555886 0.058306705 -0.043563526 -0.043559846 0.06905468 -0.015354864 -0.0727595 0.033274304 0.039577648 0.08956239 -0.03487306 0.13029522 0.101424 0.029038303 -0.023867596 0.1497687 -0.036117673 -0.047499496 0.10772832 -0.008829542 0.057026386 0.041554913 -0.06066078 0.015881967 0.1156699 -0.009891505 -0.1501729 -0.09053431 0.13985322 0.015839284 0.01248526 0.094324045 -0.078754164 0.0175433 -0.033663645 0.048481528 0.0100265015 -0.04810975 -0.1676416 -0.10771638 0.22031273 0.03828401 -0.14355926 0.10370504 0.0360309 -0.0016101145 0.00034496 0.033131067 -0.14815849 0.12897247 0.041483205 0.06901385 0.010338316 0.033023622 0.055290814 -0.027324107 -0.07430862 -0.02565943 0.10063138 -0.02594617 -0.052776225 0.169718 0.014099747
diabetes -0.13494854 -0.08248303 0.008499413 -0.05743372 0.06475836 -0.049412716 -0.15155388 -0.011956169 0.019736309 -0.0014600555 0.09215709 -0.12244181 -0.049889896 -0.05968917 0.11729 0.061039004 0.12826258 0.049173806 -0.08738375 -0.066944815 0.026551494 -0.033738844 -0.07496807 -0.021256609 0.08638955 -0.11732956 0.013866602 -0.050372977 -0.17535882 -0.0992143 0.04630209 0.087346904 0.002018235 0.048113428 0.06986234 -0.021597423 0.022453323 -0.1441365 0.0105753 0.0042356024 -0.0042749005 0.019167874 0.13554238 -0.011979367 0.03461202 -0.041569307 -0.04033827 -0.17224073 -0.050861556 0.067953646 0.1340384 0.060062952 -0.2845676 -0.12549725 0.10166998 -0.028541548 -0.07341166 -0.022987721 0.31403327 -0.032889865 -0.05319022 -0.07108115 0.22056551 0.03227247 0.04031283 -0.09958702 -0.19124089 0.108250186 0.09099956 0.14809139 -0.06728119 0.11736151 -0.042427264 0.009018957 0.042878233 -0.06061856 -0.025877878 0.0926882 -0.008650084 0.036047358 0.20664391 -0.01553599 -0.13252941 0.097486004 0.10392366 -0.107685946 0.068664424 -0.09566649 -0.14810103 0.024955057 -0.018066758 -0.1391785 -0.020611553 -0.0029781943 -0.041377127 0.038481783 0.0072793392 -0.11199608 -0.10662338 0.025563898 -0.020618001 0.057936244 0.09090898 -0.029474158 0.04437788 -0.11666348 0.111437894 0.0019747643 0.041091066 0.06794 -0.00016397216 -0.019704197 -0.07960745 -0.03493604 -0.20991087 -0.050496694 -0.15919816 0.036039766 -0.04489322 -0.09782972 -0.06257553 -0.12752402 -0.0070453123 -0.16255893 0.07709175 0.07314991 -0.23956318 -0.072607756 0.021335166 0.0318376 -0.09468219 0.05923278 -0.0898079 -0.02576412 -0.010161798 -0.091909185 0.14181095 -0.023772428 0.06077088 -0.045006227 -0.04034047 0.06875116 -0.014102573 -0.074581675 0.03594547 0.035876766 0.09327416 -0.033186074 0.13147992 0.1034288 0.031351488 -0.02514627 0.15210804 -0.039072167 -0.046385337 0.10785257 -0.009187347 0.059442345 0.04067097 -0.06404963 0.015051429 0.118242964 -0.012305241 -0.15092742 -0.08973996 0.14008673 0.01486605 0.012210105 0.094323725 -0.07935214 0.016588846 -0.03269998 0.049128365 0.00871461 -0.044681508 -0.16684613 -0.10898998 0.22162382 0.036842212 -0.14505348 0.10319698 0.035462458 -0.0027232503 0.00020673645 0.03228039 -0.15025628 0.12987538 0.0417721 0.06901271 0.0084784385 0.03585496 0.052838434 -0.02628674 -0.07270768 -0.025449982 0.104372606 -0.027888738 -0.05167895 0.1712004 0.013686581
in -0.13874798 -0.080502264 0.0067174835 -0.056770682 0.06728712 -0.04902816 -0.15258667 -0.012328236 0.021699077 0.0008029406 0.09235527 -0.124213986 -0.048445623 -0.06307406 0.11471001 0.06405534 0.12967187 0.051759753 -0.087400444 -0.06258042 0.02322121 -0.03383261 -0.070723355 -0.02328206 0.08836223 -0.11573836 0.011932486 -0.054201417 -0.17567226 -0.09931009 0.047860403 0.09049225 0.0010388142 0.04814273 0.071969174 -0.023384642 0.024556303 -0.14207257 0.0073663187 0.00199571 0.00015025286 0.019366052 0.13645455 -0.013314863 0.032798152 -0.039304405 -0.04401003 -0.17655244 -0.047312886 0.0660366 0.13621818 0.060256552 -0.28438893 -0.123445794 0.103465594 -0.028291069 -0.07085714 -0.024875084 0.3098915 -0.03484502 -0.05824886 -0.067416385 0.22047824 0.030573875 0.03766349 -0.095596224 -0.1901454 0.10873764 0.08784712 0.14708188 -0.06414853 0.119701184 -0.040600117 0.007153952 0.043326106 -0.059884913 -0.028786425 0.09503248 -0.00963552 0.040675573 0.20758308 -0.01617 -0.1330427 0.0970489 0.102682814 -0.10629045 0.06785217 -0.09710731 -0.1456883 0.023842746 -0.018869244 -0.14450805 -0.017020952 -0.004819166 -0.040072113 0.039219175 0.0031416896 -0.11138796 -0.104846 0.02523083 -0.020169633 0.057015132 0.09324977 -0.03257067 0.047017172 -0.11672022 0.11228128 -0.0012033515 0.04364162 0.06994363 -0.00088439987 -0.016658124 -0.07781629 -0.0349068 -0.21367913 -0.052729618 -0.1612432 0.03548677 -0.04360661 -0.096265286 -0.06390208 -0.12819089 -0.006405918 -0.16557926 0.07797417 0.07163835 -0.24295366 -0.07114622 0.020953251 0.034350105 -0.09737348 0.061267067 -0.09179186 -0.027183127 -0.006639532 -0.08785479 0.14321384 -0.0277187 0.06139855 -0.044147503 -0.040915836 0.071078666 -0.01612164 -0.06971575 0.03487992 0.038010724 0.094252005 -0.032284703 0.13600864 0.10233222 0.028651822 -0.024566153 0.15296791 -0.039954133 -0.049026296 0.10850448 -0.012919128 0.055802893 0.040522043 -0.063766755 0.013890598 0.11614749 -0.009507458 -0.15030065 -0.08973534 0.13828588 0.01866826 0.014185751 0.09293771 -0.07871835 0.013251057 -0.032203346 0.047589257 0.013095397 -0.045097284 -0.16405836 -0.10565273 0.22065732 0.037599064 -0.1438361 0.1008089 0.035495434 0.0009764248 0.0017916554 0.034127776 -0.1516104 0.12996702 0.04093235 0.06681751 0.010035062 0.036862694 0.054237217 -0.025376597 -0.073778726 -0.027848752 0.1038354 -0.025780395 -0.052450962 0.1673035 0.009897543
you -0.13995363 -0.082968 0.00719761 -0.054742362 0.06536387 -0.047494855 -0.15094537 -0.013434387 0.022211388 0.0029453533 0.091054566 -0.1273903 -0.048989214 -0.062690556 0.117116764 0.06500095 0.1284386 0.049955904 -0.09012058 -0.06697443 0.027611773 -0.03745199 -0.07196649 -0.021975148 0.08948598 -0.11632598 0.011613164 -0.055236522 -0.17836435 -0.1027928 0.04664699 0.089548394 0.0017565645 0.0475829 0.074431665 -0.021723768 0.023778768 -0.14248317 0.0078017698 0.006421252 -0.0043647657 0.021633193 0.1352996 -0.0123677505 0.03653479 -0.040574268 -0.04308378 -0.17665708 -0.05011026 0.070107736 0.13690864 0.057065383 -0.28564334 -0.12621991 0.10323912 -0.028461758 -0.0704923 -0.024608131 0.31771785 -0.035432797 -0.056442477 -0.0703135 0.22814319 0.0334347 0.038924858 -0.096990176 -0.19161697 0.10874293 0.08973826 0.14816417 -0.063861735 0.118591726 -0.04105736 0.0070686773 0.043818515 -0.059989 -0.027165964 0.09591294 -0.010517576 0.04040199 0.21032 -0.01912043 -0.13508447 0.100667246 0.10136844 -0.10417557 0.07045448 -0.0946862 -0.1466647 0.023618758 -0.02115914 -0.14099802 -0.020223327 -0.0016024574 -0.042894136 0.040681552 0.0055222916 -0.112616375 -0.1091774 0.026251249 -0.023045244 0.057030436 0.095033824 -0.030178543 0.04720712 -0.11746612 0.10982559 0.0012068837 0.04016329 0.06866739 0.0035607843 -0.018578742 -0.07948855 -0.034314387 -0.21569274 -0.052853737 -0.16325416 0.036487576 -0.04336971 -0.09967306 -0.06403735 -0.12712468 -0.0058297017 -0.16394924 0.07858505 0.07171345 -0.24278145 -0.07368316 0.024479542 0.030949654 -0.098674536 0.06024412 -0.09179604 -0.027262151 -0.008330837 -0.09057565 0.1463807 -0.026948363 0.06202952 -0.044481847 -0.0425606 0.0718106 -0.014350806 -0.07330792 0.033783626 0.040828474 0.09298989 -0.035393868 0.13592443 0.102942795 0.030832043 -0.024732819 0.15495607 -0.036122367 -0.04715708 0.10930628 -0.012634065 0.057011805 0.042231742 -0.062284987 0.014954466 0.117547855 -0.013277114 -0.15608731 -0.09212251 0.14362286 0.015428758 0.010142473 0.094227634 -0.081188865 0.014689196 -0.03551915 0.047542725 0.009627529 -0.04916414 -0.16542493 -0.107595444 0.22277537 0.038039178 -0.14673153 0.105272904 0.033270005 0.00039051354 -0.00011189864 0.03643794 -0.15458702 0.13106796 0.04147951 0.07011388 0.010405994 0.035800993 0.054504365 -0.024836106 -0.07452007 -0.026879406 0.105413854 -0.027465686 -0.05255287 0.17284952 0.011326002
as -0.13864869 -0.078872904 0.009004026 -0.054046236 0.06404165 -0.04579216 -0.14793898 -0.008675344 0.019519372 0.0009796493 0.090344965 -0.12119352 -0.050962977 -0.060577348 0.1118063 0.06362427 0.12989348 0.05148906 -0.09037207 -0.06531494 0.025093358 -0.036640637 -0.07023491 -0.022408243 0.08579395 -0.116938844 0.011238703 -0.052562002 -0.17549084 -0.100753434 0.045786995 0.08817052 0.0029231186 0.05026911 0.07183408 -0.022989005 0.022093061 -0.14207532 0.008496078 0.004484091 -0.00017736439 0.019437004 0.13351245 -0.012846104 0.035761155 -0.040432855 -0.042481244 -0.17406239 -0.051083986 0.0667568 0.13195835 0.057964925 -0.28329203 -0.124152996 0.10314013 -0.024759512 -0.071820766 -0.022074334 0.30830514 -0.03298726 -0.055424664 -0.0700204 0.22041687 0.03276182 0.038731676 -0.09704058 -0.18566418 0.105601616 0.09090655 0.14556758 -0.066937715 0.11868915 -0.039104752 0.009636294 0.041207418 -0.058947574 -0.027099973 0.091271006 -0.0077953967 0.04009417 0.2059261 -0.0147821205 -0.13155565 0.099834576 0.101536684 -0.104663625 0.06880264 -0.09617137 -0.14643592 0.021221792 -0.018651137 -0.1401699 -0.0187926 -0.0037730937 -0.040439334 0.03830979 0.005217761 -0.10901708 -0.10574486 0.027384633 -0.018841278 0.054099694 0.09117257 -0.030897813 0.04504396 -0.11308165 0.10725733 0.0030595923 0.03965459 0.06755305 0.0008895544 -0.015994983 -0.07715357 -0.034257267 -0.21104315 -0.05495126 -0.15867856 0.033845793 -0.04402481 -0.097086184 -0.06305549 -0.12848997 -0.009463485 -0.16456814 0.07671044 0.07286931 -0.24029255 -0.06839182 0.022324331 0.03330771 -0.097120255 0.06023316 -0.09053656 -0.028810235 -0.007212899 -0.087858796 0.14475934 -0.026167788 0.059541143 -0.04440187 -0.044477932 0.06958746 -0.013618769 -0.073625796 0.035908878 0.03602157 0.09006639 -0.03392352 0.13084318 0.10240218 0.032428827 -0.025492089 0.15124816 -0.038404122 -0.045338128 0.10474821 -0.009966564 0.05466665 0.042958517 -0.06478973 0.014483787 0.117196724 -0.010488139 -0.15179454 -0.088155866 0.1408195 0.017266791 0.012562909 0.09528081 -0.07939428 0.015378561 -0.03494507 0.046732496 0.009104417 -0.04943205 -0.16392511 -0.10709316 0.21836723 0.034690443 -0.14162643 0.1047141 0.037324704 -0.0006285029 0.0019752227 0.03345076 -0.15176105 0.12613294 0.042685516 0.06733778 0.007022329 0.036015652 0.054574847 -0.023505332 -0.071270876 -0.028250085 0.10414584 -0.026369305 -0.048796438 0.1703304 0.013360155
have -0.13549967 -0.08269255 0.007310285 -0.05526882 0.063690074 -0.04608972 -0.14518109 -0.0100184465 0.022024168 -0.00075972936 0.08980556 -0.12231531 -0.047920417 -0.061956447 0.11209576 0.06262434 0.124633074 0.047815748 -0.08776358 -0.06616384 0.024226828 -0.036807753 -0.06952847 -0.021898447 0.08560553 -0.11596337 0.01187962 -0.05340642 -0.17473443 -0.09988906 0.0457899 0.08615852 0.005838598 0.05042119 0.068101354 -0.022690797 0.021016147 -0.13939607 0.008789016 0.0014771115 0.0004896408 0.016441105 0.13366108 -0.009929543 0.035162922 -0.042451177 -0.04278573 -0.17347133 -0.04752357 0.06518222 0.13287684 0.058989406 -0.27873063 -0.12511565 0.102490894 -0.027178489 -0.07002833 -0.022185972 0.3082284 -0.03658901 -0.05439304 -0.068421125 0.22009951 0.034208078 0.038509883 -0.093367234 -0.18799506 0.10648618 0.08530143 0.14226907 -0.06359144 0.11673604 -0.03869538 0.0076405876 0.04008692 -0.06066916 -0.024789914 0.09065038 -0.008633186 0.038448166 0.20078489 -0.017026408 -0.13285872 0.09551856 0.09763208 -0.10489975 0.06467033 -0.09394879 -0.14454918 0.025288414 -0.018383767 -0.14150633 -0.019833492 -0.00023162244 -0.04188819 0.03753981 0.005789903 -0.105907634 -0.106975004 0.023811128 -0.021833193 0.05321909 0.092976764 -0.027424086 0.042349063 -0.11499722 0.107364506 -0.0003341757 0.03915181 0.06578922 0.0023083042 -0.017376162 -0.07571062 -0.037300896 -0.20635448 -0.053808104 -0.15433449 0.036096126 -0.041924614 -0.09731471 -0.06244642 -0.12713997 -0.0067496677 -0.15924595 0.07800197 0.072180174 -0.23439313 -0.071352 0.021351205 0.034430012 -0.09587866 0.05952147 -0.09212914 -0.025350712 -0.008800415 -0.089596845 0.14109401 -0.024894595 0.06139301 -0.046588786 -0.039370682 0.0693253 -0.015759546 -0.0705503 0.036141437 0.036325265 0.09249239 -0.034703333 0.13177729 0.10033101 0.030286191 -0.024190482 0.14812753 -0.035002515 -0.045923296 0.10501669 -0.009133765 0.057623602 0.04208149 -0.0631871 0.015264535 0.113119274 -0.00962473 -0.14984314 -0.08539602 0.13665086 0.017937202 0.011387576 0.091326386 -0.08083441 0.01696395 -0.033382144 0.04819294 0.01187401 -0.044104673 -0.16491829 -0.10286142 0.21671446 0.036070816 -0.13988757 0.10190306 0.032226052 -0.0028534278 0.0024416004 0.035284646 -0.14870594 0.12342761 0.039193414 0.06887742 0.008845086 0.03422991 0.053802636 -0.024429455 -0.07337345 -0.027382072 0.1016263 -0.027713474 -0.050050683 0.16727518 0.010179673
insulin -0.13580966 -0.08092564 0.0071926885 -0.05211346 0.06556373 -0.045301054 -0.14755753 -0.011511814 0.022858292 -0.0009559109 0.09077518 -0.11913112 -0.05124357 -0.061681826 0.114598185 0.06172205 0.12426706 0.050391536 -0.0882599 -0.06278216 0.024417557 -0.03364769 -0.07303301 -0.024483858 0.08578543 -0.11376309 0.014884061 -0.05284145 -0.17539138 -0.10089205 0.04266781 0.08639166 0.0041365637 0.049055364 0.071393244 -0.022923281 0.020883122 -0.14060332 0.009984327 0.005433916 -0.0013980096 0.0199761 0.13471426 -0.008918769 0.035302993 -0.03990187 -0.04332341 -0.16988747 -0.04991114 0.06608436 0.13057241 0.056926407 -0.27710593 -0.12089426 0.10196598 -0.024424225 -0.07134786 -0.024988864 0.30648702 -0.03546287 -0.05527023 -0.069017515 0.21699175 0.034396835 0.03852789 -0.09609184 -0.18853277 0.10704154 0.08658565 0.1442329 -0.061586592 0.117208734 -0.041449238 0.008120276 0.040377386 -0.05859841 -0.02657011 0.089113116 -0.0081584705 0.0388657 0.2030857 -0.019017935 -0.12946416 0.098846495 0.101074845 -0.10449514 0.06501263 -0.093703225 -0.14261927 0.021709869 -0.02037846 -0.13753814 -0.017902365 -0.00025078715 -0.044529386 0.040977504 0.0034921432 -0.11009908 -0.10701149 0.027396517 -0.02371089 0.057794955 0.092125006 -0.028133774 0.04585999 -0.11400543 0.10957137 -0.00021436956 0.040581852 0.06503699 0.0004062198 -0.016214626 -0.07817828 -0.037437744 -0.20831494 -0.05089393 -0.15684016 0.037291404 -0.045230135 -0.09628771 -0.060182102 -0.12380326 -0.0087351 -0.15788916 0.07549674 0.06907226 -0.23635653 -0.0672332 0.021589167 0.03223588 -0.09227428 0.055878516 -0.09058107 -0.027183868 -0.007262825 -0.088140376 0.14136784 -0.023153307 0.05996773 -0.043857485 -0.04258972 0.06755588 -0.0119891185 -0.07076499 0.035691436 0.03529539 0.09157325 -0.034963444 0.13082679 0.09949094 0.029704306 -0.023513887 0.14946403 -0.035210483 -0.048030123 0.10607176 -0.010858871 0.058386553 0.041609943 -0.059943743 0.015497981 0.11374876 -0.0125984205 -0.15123324 -0.0879781 0.1370556 0.013889701 0.014358848 0.09312629 -0.07755853 0.013092076 -0.03575152 0.04825625 0.009659331 -0.04834869 -0.16366488 -0.10316441 0.21731347 0.03767934 -0.14156625 0.099607214 0.033319857 -0.0017477247 -0.0016546887 0.035187893 -0.14941458 0.12296661 0.042845905 0.066632435 0.0075065503 0.036704466 0.051140063 -0.025423555 -0.07165952 -0.023287803 0.101220384 -0.023588471 -0.05049264 0.16926672 0.013613466
are -0.13157909 -0.0773289 0.011095571 -0.054559693 0.06354874 -0.04642327 -0.14641495 -0.009833519 0.017702334 0.0026821885 0.08937015 -0.1203171 -0.04877577 -0.05982602 0.10853016 0.06196054 0.12668695 0.04640135 -0.089505784 -0.0649225 0.024566261 -0.037028503 -0.068434976 -0.023685817 0.08460017 -0.1128168 0.0103422105 -0.0523019 -0.1699321 -0.096058056 0.044658 0.08540521 0.0010174642 0.046546172 0.06904315 -0.02138294 0.022817971 -0.13799775 0.0105813425 0.0020819076 -0.002471956 0.015854914 0.13003623 -0.009154205 0.03395942 -0.04024401 -0.042909943 -0.16681162 -0.045614604 0.06807027 0.12779891 0.056207374 -0.27255678 -0.118786275 0.10065598 -0.024073046 -0.069274314 -0.025123185 0.30427063 -0.0351455 -0.05191546 -0.06945958 0.21815443 0.032708224 0.040395815 -0.09407986 -0.18230404 0.106115684 0.087657236 0.1415985 -0.065512635 0.11585618 -0.038641535 0.0072321584 0.039058574 -0.061693203 -0.02897607 0.08818802 -0.0075998683 0.03635011 0.20071915 -0.017616825 -0.12890789 0.094225295 0.10038742 -0.10389434 0.06595628 -0.091475755 -0.14023192 0.02052461 -0.01763986 -0.13575804 -0.01945165 -0.0043684305 -0.039936066 0.040305033 0.00670336 -0.10470654 -0.10470074 0.024965849 -0.021213042 0.05470473 0.091286086 -0.030242106 0.043041296 -0.11179767 0.10856598 0.0029901143 0.040945936 0.06772293 0.0029342305 -0.016747883 -0.078174226 -0.03417953 -0.20617943 -0.050062478 -0.15427937 0.033010297 -0.044991378 -0.09271359 -0.060066603 -0.12086933 -0.0071545313 -0.15920164 0.075034566 0.0676037 -0.23489803 -0.0670594 0.020100173 0.029568069 -0.09405712 0.059072413 -0.08775347 -0.029534789 -0.010251534 -0.08999863 0.14027023 -0.024687331 0.060424633 -0.045926522 -0.042485453 0.06992863 -0.014011429 -0.07029048 0.033045072 0.03439157 0.0883906 -0.03451871 0.13122442 0.10033706 0.02911328 -0.023294197 0.14936365 -0.038999204 -0.04675276 0.10497694 -0.009585227 0.056974024 0.042610325 -0.05877991 0.013063322 0.11129631 -0.009688037 -0.14959024 -0.08471937 0.13443024 0.017088564 0.011303969 0.09223345 -0.07619216 0.014180032 -0.03328314 0.04747072 0.011389221 -0.043438703 -0.16124076 -0.10299861 0.21214302 0.0376539 -0.14011343 0.09705455 0.03496864 0.0009319142 0.0001892707 0.029905625 -0.14671683 0.12399367 0.04338893 0.06640094 0.0076752678 0.03095892 0.05378166 -0.022489501 -0.06836237 -0.027095323 0.10207606 -0.024963869 -0.05052687 0.1659009 0.009715943
it -0.13563383 -0.08200394 0.007879307 -0.0545802 0.06591031 -0.045178592 -0.14960514 -0.010486977 0.02159754 0.0013059925 0.08910885 -0.12126407 -0.04936686 -0.059165742 0.11305425 0.059109077 0.12628837 0.04972665 -0.088653274 -0.065238304 0.026558243 -0.036937628 -0.07306598 -0.021380974 0.08779829 -0.114310734 0.013772382 -0.052294187 -0.1745383 -0.10091734 0.04650428 0.08387301 0.0028852401 0.04641511 0.06934027 -0.020271841 0.025776513 -0.14044818 0.01026145 0.00518913 -0.0042870925 0.017825749 0.13367243 -0.00966054 0.034895156 -0.041022237 -0.042709466 -0.17047484 -0.048323337 0.0676344 0.13290288 0.05917128 -0.27877662 -0.12433914 0.10437927 -0.023480691 -0.067710854 -0.02039096 0.30672178 -0.03657346 -0.054818384 -0.06918575 0.22006719 0.03272168 0.038043544 -0.093482055 -0.18359146 0.10707464 0.088133894 0.14401484 -0.061993018 0.11625173 -0.041199908 0.0054874867 0.042957585 -0.06033873 -0.024477461 0.09325038 -0.0063648317 0.038489737 0.20090719 -0.018938905 -0.1324931 0.099447146 0.100388095 -0.10258423 0.0682624 -0.09497344 -0.14668135 0.021733787 -0.019421292 -0.14114468 -0.016296875 -0.001045346 -0.043498494 0.03712944 0.0048638703 -0.108470455 -0.10297982 0.026644494 -0.022525938 0.05694933 0.09266878 -0.02857252 0.042626806 -0.113422856 0.108688846 -0.0009701522 0.04025347 0.06374665 0.002973108 -0.015021151 -0.07561399 -0.033329964 -0.20770605 -0.05031766 -0.1537914 0.036777403 -0.046838835 -0.097530805 -0.05936927 -0.12630314 -0.004966452 -0.15879084 0.07783135 0.06739967 -0.23389453 -0.07099095 0.024417311 0.029850649 -0.09209458 0.06023298 -0.08794272 -0.027525095 -0.0096049495 -0.08898063 0.1427354 -0.026176287 0.057215504 -0.042790305 -0.03986548 0.06743355 -0.013471445 -0.07270924 0.03606954 0.03961668 0.09128041 -0.03122542 0.12876917 0.10309067 0.031937268 -0.021395423 0.1509776 -0.038710214 -0.04676055 0.10241095 -0.012453459 0.05538679 0.04013482 -0.06320057 0.011614202 0.11641208 -0.01080067 -0.15000492 -0.08554097 0.13883045 0.013645307 0.012086537 0.093211666 -0.08072795 0.016512072 -0.032543477 0.04527712 0.0126034515 -0.046952717 -0.16447547 -0.1045428 0.21445103 0.036092706 -0.13983369 0.09979431 0.033654407 -7.1337774e-05 -0.0004514759 0.031116344 -0.14531755 0.12606227 0.04191088 0.06693292 0.010155038 0.033048958 0.05140912 -0.023997316 -0.07150284 -0.024624 0.10195493 -0.027472444 -0.050229836 0.16584945 0.013616961
be -0.13587971 -0.082838416 0.010342968 -0.053570196 0.064949036 -0.047990996 -0.15028435 -0.00868123 0.020303624 0.0014288459 0.08793288 -0.12627009 -0.051388413 -0.061984695 0.11211532 0.06476962 0.12964633 0.048392482 -0.08782371 -0.06268895 0.024171883 -0.036776748 -0.07422299 -0.023356542 0.0890453 -0.11674706 0.011924529 -0.052078247 -0.17503184 -0.09989152 0.04589201 0.08945474 0.0026164395 0.04830071 0.07224383 -0.02260539 0.021820161 -0.14430992 0.006974361 0.004784284 -0.00089856895 0.020784492 0.13453987 -0.01165254 0.033824287 -0.043360382 -0.04391835 -0.17300162 -0.046523616 0.068258815 0.13476166 0.059520505 -0.27969345 -0.12298763 0.105701685 -0.027304333 -0.069176935 -0.0246347 0.3107822 -0.03642798 -0.05344317 -0.07057673 0.2231691 0.03409682 0.040685236 -0.09803361 -0.18980898 0.105601415 0.08804715 0.14573774 -0.06370297 0.118943535 -0.038147923 0.009384457 0.04120238 -0.058926474 -0.029555291 0.09122382 -0.009255265 0.039886683 0.20463458 -0.019301163 -0.132762 0.09696797 0.102760345 -0.10492924 0.068337984 -0.09537653 -0.1475811 0.023747798 -0.022258243 -0.14161074 -0.018452013 -0.0013670628 -0.043077853 0.0416755 0.0045738444 -0.10719674 -0.10702016 0.02580171 -0.021602275 0.054328423 0.091478735 -0.03006622 0.04422986 -0.11330381 0.11169277 -0.0008539702 0.041599795 0.06576479 0.003035782 -0.019840365 -0.08022025 -0.03802748 -0.21070023 -0.053008743 -0.15852037 0.033823807 -0.045110155 -0.09874534 -0.063444965 -0.12526765 -0.0051397467 -0.16107856 0.07862716 0.07085648 -0.23808168 -0.07024407 0.020882443 0.030765979 -0.09692235 0.058940344 -0.094624706 -0.026355542 -0.008234609 -0.08908406 0.14483336 -0.026033182 0.059041303 -0.044013705 -0.04115735 0.067584954 -0.016049033 -0.07053173 0.035967506 0.038416725 0.0932868 -0.031112703 0.13009958 0.099644795 0.031172484 -0.022101382 0.14881504 -0.038747504 -0.046338122 0.105197296 -0.012856236 0.058717765 0.043353207 -0.0641808 0.015384269 0.11439802 -0.012487974 -0.15314886 -0.09063553 0.13880932 0.014065508 0.0138234645 0.0957536 -0.079233676 0.015104186 -0.035823926 0.048407853 0.012609254 -0.047652658 -0.16228555 -0.107541755 0.21989673 0.03658782 -0.1405554 0.10125264 0.033642806 -0.002044936 0.00065814954 0.031893957 -0.15033378 0.12765208 0.044780184 0.06718589 0.008340687 0.033680383 0.05162103 -0.024932466 -0.07470337 -0.026795467 0.10496897 -0.02565643 -0.049872827 0.16643989 0.013123911
can -0.13380091 -0.08113342 0.010835006 -0.05485579 0.06384657 -0.044866554 -0.14631727 -0.008533301 0.020544352 0.0026858954 0.08603142 -0.12122099 -0.047365256 -0.06034946 0.10986905 0.058827907 0.123693444 0.049777333 -0.08387679 -0.06446224 0.026030209 -0.03715349 -0.069255546 -0.021839999 0.08309281 -0.114713885 0.013834168 -0.049235776 -0.17224002 -0.09521823 0.04182754 0.08502595 0.0061367387 0.047709566 0.070240185 -0.018663708 0.02304465 -0.13976914 0.0076058684 0.0025332922 -0.0021999502 0.018580291 0.13209751 -0.0133534735 0.032989062 -0.04033148 -0.04090046 -0.16980334 -0.05110946 0.06632659 0.13032597 0.05768719 -0.27545083 -0.12054831 0.10131057 -0.027956882 -0.06783657 -0.024604531 0.30153102 -0.035677735 -0.05297565 -0.06954127 0.2161389 0.03300746 0.03602749 -0.09435022 -0.1847726 0.10285935 0.08486587 0.1413475 -0.063038565 0.11270416 -0.041907948 0.006558421 0.04350522 -0.061440244 -0.026443433 0.09100597 -0.005931917 0.03753094 0.19706456 -0.016186506 -0.12618619 0.0982568 0.09913482 -0.10086504 0.06521403 -0.09073173 -0.14126672 0.023615902 -0.02027453 -0.13739546 -0.018602174 -0.004682089 -0.042120375 0.040848758 0.0053702756 -0.108528994 -0.10407826 0.026917357 -0.021084404 0.054928508 0.09155312 -0.0308814 0.04284991 -0.11162332 0.10677394 0.0022710073 0.042497084 0.06661344 -0.0015253357 -0.01832819 -0.07454576 -0.036493976 -0.20689553 -0.05062776 -0.15659583 0.036305357 -0.043553308 -0.09212149 -0.060332134 -0.12607014 -0.00575065 -0.15680905 0.0757576 0.06757954 -0.23289041 -0.06856625 0.024172092 0.031774614 -0.09381863 0.057049744 -0.08987105 -0.028629903 -0.007546387 -0.08550971 0.14101654 -0.027291903 0.05621812 -0.046148453 -0.039754625 0.069307156 -0.013281848 -0.07065695 0.035561167 0.03623978 0.08997014 -0.03294706 0.13007241 0.09740906 0.03128729 -0.024405701 0.14884773 -0.037697308 -0.04438075 0.10194665 -0.008743653 0.053632274 0.04299438 -0.06141908 0.012767811 0.11183715 -0.014199745 -0.14429261 -0.087788776 0.13371885 0.017507292 0.011151384 0.09152908 -0.079117455 0.016944073 -0.033033445 0.046002273 0.008293749 -0.048235837 -0.1617403 -0.10328816 0.21251221 0.034696218 -0.13738538 0.09769157 0.035334673 0.00097161107 -0.0008470357 0.035096843 -0.14623286 0.12437003 0.03946087 0.06350136 0.006271414 0.03282181 0.053496983 -0.025056832 -0.069552235 -0.023026878 0.1017519 -0.02659046 -0.05126353 0.16558984 0.011215372
type 2 -0.13849814 -0.08076743 0.006399543 -0.05284791 0.06652778 -0.045500215 -0.14889976 -0.008629701 0.01871484 -0.0012936754 0.089196205 -0.121375814 -0.052125387 -0.06290958 0.11550473 0.06491523 0.13006294 0.051051237 -0.08999397 -0.06619179 0.025893316 -0.036346886 -0.07149527 -0.020493174 0.08585883 -0.1172826 0.01540795 -0.05109279 -0.17674048 -0.09917465 0.043695636 0.089237645 0.005101507 0.051769868 0.0723091 -0.019444663 0.024710162 -0.14416473 0.01006502 0.005596011 -0.00044981609 0.016911464 0.1359151 -0.008063004 0.037919175 -0.041043133 -0.041291967 -0.17132291 -0.051344037 0.0667928 0.13475372 0.056721866 -0.28118396 -0.12525406 0.105173774 -0.025938518 -0.07255477 -0.024610521 0.3129452 -0.03473806 -0.05791407 -0.06974015 0.22431381 0.033411324 0.038508926 -0.09741057 -0.19053955 0.10949755 0.0869871 0.14461239 -0.06652904 0.116953924 -0.04288364 0.004220679 0.042956203 -0.05937126 -0.025677135 0.08962341 -0.0069076302 0.040210567 0.20731218 -0.016616354 -0.13390137 0.09888541 0.10070167 -0.10496899 0.06451524 -0.09567556 -0.14926101 0.02324433 -0.02290218 -0.13942899 -0.019006653 -0.0015258164 -0.04396924 0.040369835 0.003821077 -0.11052242 -0.106886804 0.025503488 -0.021620015 0.05631113 0.09372565 -0.02825091 0.045706045 -0.11653947 0.107757576 -0.00065916404 0.040466752 0.06763413 0.00021809609 -0.018747818 -0.07776975 -0.038025215 -0.21128902 -0.05435773 -0.15962476 0.034664445 -0.046048775 -0.0953107 -0.058837764 -0.1256078 -0.0062180674 -0.16462281 0.07603715 0.06918439 -0.24170114 -0.071303904 0.021167459 0.031865474 -0.09827858 0.058593363 -0.0933574 -0.030241266 -0.009860147 -0.0905476 0.14149043 -0.02532347 0.05926665 -0.04651646 -0.039644428 0.0693787 -0.0116650965 -0.069792785 0.03807253 0.038380932 0.091370195 -0.03305319 0.1349029 0.10503761 0.02948436 -0.021925112 0.15058953 -0.038982164 -0.045748428 0.10701598 -0.012578429 0.056477785 0.042092156 -0.062398218 0.013665838 0.11660285 -0.010411936 -0.15285338 -0.087360874 0.13909768 0.014136318 0.013369954 0.09379744 -0.07832778 0.012216724 -0.03657647 0.04940122 0.011728915 -0.048391417 -0.16581346 -0.109004825 0.22134693 0.034405183 -0.14286819 0.1010787 0.033909563 -0.0006811297 0.0004414579 0.035212908 -0.15086311 0.1280181 0.043070678 0.07003153 0.0082434425 0.037215784 0.05338015 -0.023110181 -0.07621691 -0.028372109 0.103913136 -0.024273945 -0.05060776 0.16698912 0.012133721
I -0.1359966 -0.0829394 0.010889834 -0.053150177 0.06363977 -0.04634145 -0.14751492 -0.01181719 0.022520537 0.0010251654 0.08946178 -0.12152584 -0.047568753 -0.062458716 0.113574326 0.06018604 0.12793206 0.048334654 -0.08972045 -0.06428817 0.026887765 -0.03611991 -0.07367688 -0.022756992 0.08710415 -0.11666528 0.015866548 -0.05426169 -0.17338471 -0.09861687 0.04675751 0.088108525 0.002361259 0.04716768 0.069954105 -0.018681878 0.023065561 -0.14183168 0.008042735 0.00286983 -0.0050063906 0.020063592 0.1345884 -0.0104397535 0.036970105 -0.040813703 -0.043634396 -0.17021196 -0.050660975 0.06802695 0.13144706 0.059103183 -0.27819195 -0.1242843 0.103549816 -0.02539387 -0.06951102 -0.02286632 0.3080385 -0.03591611 -0.056076482 -0.0713367 0.22178032 0.031314332 0.03606914 -0.09476969 -0.18634298 0.10469832 0.08767998 0.14226803 -0.06424821 0.11752303 -0.0407714 0.0064590145 0.03994862 -0.058312904 -0.02617409 0.091230646 -0.010154343 0.039397668 0.2034392 -0.014240069 -0.12967715 0.09570879 0.10255067 -0.10580317 0.06724969 -0.096282944 -0.14498934 0.024673883 -0.020974463 -0.1380982 -0.017922774 -0.00096428645 -0.039240368 0.040375542 0.006203884 -0.10893217 -0.103395596 0.02778323 -0.021728732 0.053758968 0.09096545 -0.03088221 0.04244648 -0.11384988 0.105992824 0.0014990077 0.038963404 0.06511837 0.002740783 -0.016537596 -0.07907106 -0.037242066 -0.20736584 -0.05121935 -0.15627094 0.036384452 -0.047090612 -0.09713565 -0.06274366 -0.12750351 -0.009938765 -0.16137148 0.07745584 0.07164769 -0.2356753 -0.07040232 0.024316465 0.030988049 -0.094631836 0.058115937 -0.09275767 -0.029993188 -0.010820497 -0.08718717 0.14310697 -0.027955273 0.062224902 -0.044499718 -0.043517713 0.06817477 -0.016213298 -0.069918014 0.036183767 0.03626334 0.09061947 -0.033729173 0.13034205 0.099974796 0.028132526 -0.024234809 0.15176433 -0.037091233 -0.04504284 0.10203707 -0.009235212 0.05481304 0.040155213 -0.061804604 0.015958818 0.11697617 -0.009848148 -0.14827514 -0.09030776 0.13546981 0.018164363 0.010761868 0.095279776 -0.08080203 0.014884622 -0.034326162 0.04597705 0.008704838 -0.046751257 -0.16483156 -0.10737029 0.21418253 0.036113862 -0.14131454 0.10213274 0.035767496 0.00119726 0.002240982 0.034628738 -0.1475293 0.12370461 0.041822936 0.068241306 0.0062861308 0.035541102 0.051770236 -0.026210397 -0.0747665 -0.025527392 0.10350032 -0.026675798 -0.049431946 0.16783983 0.012875391
sugar -0.13557674 -0.08288923 0.0068274643 -0.05750372 0.06507416 -0.0490504 -0.14758855 -0.012887611 0.01898938 0.00035534956 0.08675615 -0.12341521 -0.051025428 -0.059686936 0.11024796 0.06265021 0.12482537 0.048657153 -0.08688284 -0.062380616 0.025310978 -0.034399737 -0.071728356 -0.021473067 0.08675734 -0.117360085 0.015298254 -0.050042093 -0.1732271 -0.09733602 0.04684142 0.08657052 0.0053054905 0.047205392 0.07033414 -0.017646533 0.025880681 -0.13890351 0.011874076 0.003504837 0.00029811193 0.017382752 0.13195917 -0.00905727 0.03426248 -0.04097531 -0.04155729 -0.16918376 -0.049968798 0.06919053 0.13041689 0.05627381 -0.27674514 -0.12283047 0.10261954 -0.02660342 -0.07045321 -0.021112654 0.30949703 -0.033530045 -0.052253958 -0.07022592 0.22243124 0.034291603 0.03882043 -0.0948753 -0.18806656 0.10561393 0.08610652 0.14403242 -0.064554706 0.113746636 -0.038338855 0.010280933 0.044930212 -0.06299457 -0.029238407 0.092099175 -0.0094995955 0.039489415 0.20349109 -0.015903443 -0.12942083 0.09813242 0.10208079 -0.10471633 0.06845559 -0.09522933 -0.14296079 0.02163021 -0.01996169 -0.13782641 -0.02055715 -0.0016122371 -0.044060905 0.041230246 0.00600923 -0.106483765 -0.105813816 0.025917135 -0.020688519 0.05625704 0.09337423 -0.032537002 0.044854976 -0.112430364 0.11010838 -0.0009017694 0.041491773 0.06725598 -0.0017995917 -0.018218461 -0.074666865 -0.037677966 -0.20852435 -0.052500755 -0.15886682 0.037506595 -0.044984248 -0.093421765 -0.06273248 -0.12468942 -0.0061902 -0.16323993 0.07898633 0.06975187 -0.23830922 -0.06971188 0.02007443 0.030782538 -0.0957546 0.057329338 -0.08964489 -0.030019784 -0.010806921 -0.091707356 0.14329359 -0.026875613 0.05873208 -0.04637467 -0.043775704 0.07069708 -0.012586327 -0.07336893 0.033218466 0.036783174 0.090945706 -0.0331973 0.12849736 0.101393186 0.03244662 -0.022382677 0.14829162 -0.039074186 -0.046042368 0.10279756 -0.0120468475 0.05838264 0.040159415 -0.064628296 0.01320633 0.117361814 -0.011307008 -0.14888152 -0.0876128 0.1375867 0.01551267 0.012467894 0.09338717 -0.07898631 0.016381698 -0.036094166 0.049172778 0.012511445 -0.044729933 -0.16121358 -0.10288407 0.21844584 0.035332516 -0.14159358 0.101597495 0.03242662 0.0008977796 -0.000160468 0.036030658 -0.14560427 0.12502584 0.04049277 0.069272675 0.0061122417 0.03430101 0.050394777 -0.023622878 -0.072637126 -0.027705677 0.10364134 -0.024109833 -0.04980425 0.16855861 0.010954345
glucose -0.13442232 -0.080407046 0.009485565 -0.054564476 0.066146314 -0.049718857 -0.14737086 -0.011387529 0.020650852 0.002638435 0.090036355 -0.121910594 -0.047806375 -0.061571293 0.11418097 0.06308193 0.12400486 0.050261926 -0.087788455 -0.06169555 0.027030572 -0.033677895 -0.07220713 -0.020487007 0.08755391 -0.11568146 0.0125214625 -0.0515943 -0.1721781 -0.10087926 0.044492114 0.089254186 0.005765984 0.047475692 0.07066113 -0.020527693 0.024650149 -0.14246342 0.0059042918 0.0020381247 -0.00055672234 0.01915292 0.13487309 -0.011528932 0.034844983 -0.04000981 -0.04416282 -0.17050663 -0.04886282 0.066083506 0.13217647 0.058240533 -0.27867365 -0.124577425 0.102097854 -0.028670808 -0.07216244 -0.024400719 0.30593896 -0.03209534 -0.05360371 -0.07069465 0.2223851 0.034869157 0.040837098 -0.09543273 -0.18908279 0.1079166 0.08798557 0.1460063 -0.062973976 0.116413385 -0.0395687 0.008680024 0.04472766 -0.05920124 -0.025177127 0.09290353 -0.009286054 0.03540742 0.20328186 -0.016440354 -0.13173422 0.10067009 0.09916128 -0.10246368 0.06350897 -0.09313203 -0.14431147 0.024523893 -0.021907015 -0.13829681 -0.016195273 -0.0045221606 -0.040938035 0.037048157 0.0060424297 -0.11059992 -0.10375841 0.023619825 -0.019674553 0.05453255 0.09016913 -0.028982053 0.04218987 -0.11515992 0.11090647 -0.0012459552 0.041079473 0.06899955 0.00046740682 -0.01827004 -0.07877359 -0.037895877 -0.20684716 -0.052283987 -0.15706445 0.035248473 -0.045971308 -0.09508522 -0.060106937 -0.12583761 -0.007636812 -0.16105042 0.07692266 0.06850735 -0.2369784 -0.07123275 0.019802067 0.031503893 -0.09528925 0.060646906 -0.08850984 -0.026004499 -0.006085702 -0.08752582 0.13968594 -0.02410092 0.061618693 -0.04644467 -0.041365642 0.07040898 -0.012949857 -0.07030047 0.037099015 0.034912948 0.092695564 -0.034906033 0.12860838 0.10213567 0.031148091 -0.021826861 0.1480858 -0.035823584 -0.047927734 0.10233883 -0.010732338 0.05852442 0.044878192 -0.062838666 0.015527292 0.11543576 -0.011037085 -0.1513093 -0.088012055 0.13848297 0.018154852 0.014048354 0.091991656 -0.07637779 0.012189407 -0.032000605 0.04604577 0.012842853 -0.046456005 -0.16182353 -0.10694638 0.2159476 0.036276642 -0.13886751 0.09846479 0.03258156 -0.0017124716 -0.002301281 0.031420607 -0.14979775 0.12786762 0.041980986 0.06803935 0.006446488 0.03461202 0.05130552 -0.026795771 -0.07034262 -0.025051674 0.104015134 -0.027128829 -0.05194825 0.16576506 0.010449928
type 1 -0.13430129 -0.07812725 0.009165736 -0.05336315 0.064049095 -0.0464033 -0.14861499 -0.009008611 0.018796016 0.003208252 0.086617105 -0.12307001 -0.05161234 -0.06239481 0.11002001 0.06347187 0.124539785 0.047479887 -0.089569025 -0.06251836 0.027222438 -0.034584496 -0.07160664 -0.022012593 0.0870035 -0.116060086 0.014381586 -0.049523223 -0.17468353 -0.098489985 0.04346908 0.08538218 0.003453375 0.050361738 0.06980294 -0.019763118 0.025794178 -0.141352 0.0063328836 0.0011368103 -0.0017337637 0.018160626 0.1294545 -0.008128779 0.036732987 -0.042133234 -0.043980185 -0.1688742 -0.04993282 0.06654572 0.131504 0.05707235 -0.27459487 -0.12087762 0.09914897 -0.026350647 -0.06991277 -0.023559371 0.30387294 -0.03462756 -0.0531962 -0.06684371 0.21631905 0.03309205 0.03943272 -0.09641862 -0.1873566 0.10398945 0.084598176 0.14133652 -0.061023522 0.11688736 -0.039445687 0.0060362793 0.04066923 -0.061380435 -0.027732747 0.0877104 -0.009508134 0.039380178 0.19910415 -0.018755922 -0.1312226 0.094961464 0.09877395 -0.10198563 0.06599786 -0.09335755 -0.14307019 0.024264235 -0.017823871 -0.13756084 -0.019365273 -0.0053017866 -0.04235551 0.040832005 0.0043984745 -0.1052596 -0.10620298 0.023822797 -0.019000826 0.054737385 0.09101515 -0.028742556 0.04225745 -0.111046284 0.10692967 0.0004456347 0.039578207 0.06789781 0.0026089211 -0.016143357 -0.07620881 -0.03481407 -0.20908912 -0.05263685 -0.15333128 0.034119118 -0.04282987 -0.09597301 -0.058449242 -0.12196202 -0.008275723 -0.15658171 0.07486408 0.06879257 -0.23558716 -0.06809839 0.024128055 0.031416368 -0.09349893 0.05518722 -0.090402775 -0.027070597 -0.006801464 -0.08832245 0.13880348 -0.02517989 0.05949812 -0.0423039 -0.039157283 0.06823435 -0.014047617 -0.071235314 0.03681745 0.036296748 0.092277326 -0.030498 0.13076958 0.102511086 0.029225858 -0.02409705 0.14744732 -0.03415056 -0.047017828 0.10431525 -0.011048169 0.054871526 0.03948878 -0.058156323 0.011735484 0.11644894 -0.009009185 -0.1484899 -0.08697606 0.13541648 0.015168318 0.013024229 0.09307551 -0.07729959 0.01193533 -0.033587813 0.0474275 0.009121324 -0.04422117 -0.16006623 -0.10337645 0.21501358 0.03595358 -0.14093567 0.10246109 0.03746232 -0.0024804238 -0.00057165144 0.031061778 -0.14510702 0.12405033 0.043149054 0.06871053 0.009400105 0.03333983 0.05421658 -0.026635528 -0.07240348 -0.025969109 0.10123604 -0.023548042 -0.047947098 0.16590716 0.010589983
on -0.13486761 -0.077730685 0.007802611 -0.056515206 0.06330321 -0.045298588 -0.1446437 -0.012376175 0.021201618 -0.0014853668 0.08751904 -0.1222824 -0.04893309 -0.05858016 0.10950423 0.06045096 0.12614289 0.04924216 -0.085709356 -0.06587176 0.026508529 -0.034355488 -0.07248746 -0.021127287 0.08313454 -0.11388586 0.013832709 -0.053219356 -0.17415011 -0.095868826 0.045702867 0.08541946 0.000545716 0.048327215 0.071007736 -0.021920655 0.025640085 -0.14064293 0.010752258 0.0045653014 -0.0036771472 0.017829798 0.13488382 -0.010979501 0.032781217 -0.04289991 -0.0409884 -0.17164075 -0.047996975 0.066853985 0.13281861 0.056616113 -0.27663407 -0.12126124 0.10261619 -0.024900632 -0.070570886 -0.021992143 0.30638677 -0.033401914 -0.05498929 -0.06692046 0.217534 0.030411243 0.03789124 -0.0973999 -0.18567315 0.104665205 0.08645117 0.14402348 -0.06603618 0.11705534 -0.038237035 0.0067557315 0.042952906 -0.060251024 -0.028188724 0.08808233 -0.00882129 0.036379658 0.19807503 -0.016987607 -0.12851891 0.09792384 0.101722084 -0.10221644 0.06511731 -0.09355045 -0.14365101 0.0237746 -0.022619594 -0.14116733 -0.01916504 -0.0048773214 -0.041323844 0.041402236 0.006586283 -0.109351024 -0.106442615 0.025843285 -0.020985601 0.05315891 0.08787521 -0.029704388 0.042065863 -0.11286671 0.105058745 0.001559016 0.042933058 0.06543468 0.0037423973 -0.017654065 -0.07837759 -0.036948305 -0.20784076 -0.049437165 -0.15405412 0.037763555 -0.042517513 -0.094657406 -0.06256788 -0.1218282 -0.0053870073 -0.1593255 0.0740355 0.06714654 -0.23600082 -0.06817119 0.024769245 0.0304494 -0.09213127 0.05733621 -0.08941055 -0.025694588 -0.008869013 -0.088019356 0.14281626 -0.024921184 0.06033523 -0.04383887 -0.039666787 0.06971056 -0.015463462 -0.07085969 0.036266394 0.03658251 0.09212602 -0.03153922 0.13069673 0.10184511 0.028200734 -0.025442408 0.14900899 -0.038731154 -0.047056783 0.10332718 -0.009456718 0.056212265 0.043453187 -0.060370818 0.013335044 0.11301067 -0.013075156 -0.14582716 -0.08566555 0.13727334 0.016092366 0.0117108645 0.093217224 -0.07729445 0.016745003 -0.03440779 0.04790064 0.010152056 -0.046294373 -0.16016288 -0.10221772 0.21452221 0.036621213 -0.13793428 0.10207742 0.035737347 -0.0034692755 0.000651709 0.03529547 -0.14465106 0.1267965 0.04340864 0.0670495 0.0058057364 0.03211643 0.05259425 -0.022475408 -0.072848395 -0.025319098 0.09881676 -0.028054446 -0.049817067 0.16550292 0.012080258
this -0.14078887 -0.08208351 0.007311359 -0.05790441 0.06882959 -0.05015007 -0.15361102 -0.008480549 0.021676652 -0.0011681473 0.09124011 -0.12486893 -0.052373473 -0.06546208 0.11816584 0.06296002 0.12892993 0.04971544 -0.09422802 -0.068919554 0.026827883 -0.036819715 -0.07247592 -0.02039539 0.08845435 -0.120668374 0.013024585 -0.055295408 -0.18220517 -0.10045793 0.04740655 0.08949437 0.0021729083 0.05317513 0.0723405 -0.020621106 0.025748843 -0.14542982 0.009567866 0.0018351122 -0.00050340703 0.019438157 0.13644734 -0.012924435 0.034471873 -0.0446268 -0.04532957 -0.17828314 -0.051108196 0.0707602 0.13787682 0.05938856 -0.29178122 -0.12622084 0.106650144 -0.025334774 -0.07242625 -0.024380133 0.31773502 -0.037949275 -0.05655084 -0.07287114 0.22589347 0.033431202 0.04172413 -0.10193754 -0.1926016 0.11092478 0.09186758 0.14898321 -0.067330375 0.11829856 -0.03983333 0.006326062 0.044628583 -0.06268121 -0.028949464 0.09503802 -0.0070179827 0.04119927 0.20873392 -0.01847149 -0.13839917 0.10126553 0.10454331 -0.10575352 0.06986252 -0.09663592 -0.14900702 0.022791019 -0.022031853 -0.14538307 -0.020644356 -0.004881298 -0.042089935 0.042057432 0.006424362 -0.111220345 -0.10771614 0.026920186 -0.021356093 0.060203936 0.09656298 -0.0310884 0.04693451 -0.114706926 0.113248706 -0.0014147819 0.042705774 0.06915951 0.0024991203 -0.019209962 -0.08239619 -0.03926597 -0.21861333 -0.053824004 -0.16148986 0.03529818 -0.048811506 -0.100371964 -0.06425492 -0.12924923 -0.0062922025 -0.16781098 0.08056119 0.071415104 -0.24625742 -0.071558796 0.024673382 0.033992223 -0.09770018 0.062445212 -0.09575562 -0.028574001 -0.008527119 -0.09367861 0.144695 -0.025065118 0.061909243 -0.046298016 -0.041041635 0.070787415 -0.016551277 -0.07193496 0.039562214 0.039378855 0.0938799 -0.034567077 0.13759457 0.10376398 0.032073494 -0.026328733 0.15670834 -0.0386972 -0.05009478 0.10994549 -0.008792303 0.056848507 0.045236517 -0.064681344 0.014940824 0.120467424 -0.012112262 -0.15542085 -0.08982577 0.14489426 0.019002741 0.014355274 0.09565972 -0.0822486 0.016264424 -0.03591629 0.04930516 0.013202472 -0.047783077 -0.16768122 -0.11114292 0.22490396 0.03857258 -0.14728671 0.10247069 0.038532443 -0.00072744297 -0.0004074402 0.033964302 -0.15354711 0.13236521 0.044430852 0.071496196 0.010835022 0.037448898 0.05404506 -0.028010905 -0.07362203 -0.025570767 0.10476365 -0.028730325 -0.050642356 0.1754809 0.012321835
get -0.13615622 -0.07962665 0.010004032 -0.05835785 0.068874314 -0.047714658 -0.15058762 -0.010406284 0.022954525 0.0009142562 0.0878096 -0.12600501 -0.047788896 -0.06078512 0.11640388 0.061232403 0.124419734 0.051953387 -0.08881428 -0.066572726 0.025810823 -0.034807008 -0.07281652 -0.02320482 0.08875297 -0.116585545 0.015309682 -0.05326364 -0.17710556 -0.100479305 0.044998243 0.088987336 0.00090140844 0.051183198 0.07301411 -0.018286522 0.024196029 -0.14328977 0.0104393205 0.004866587 0.00027358643 0.020252356 0.13651016 -0.013469101 0.03573619 -0.041768894 -0.040758584 -0.17128785 -0.0486803 0.0691333 0.13414171 0.05620302 -0.28141934 -0.12512386 0.10508149 -0.0265774 -0.07213338 -0.020806978 0.3092302 -0.03647588 -0.054629296 -0.06816325 0.22211671 0.031732325 0.037795305 -0.09918528 -0.18881676 0.109886795 0.08576111 0.14559397 -0.062945634 0.11608742 -0.038135685 0.009777259 0.04396778 -0.059141394 -0.02666742 0.09368918 -0.009478416 0.03978597 0.20563403 -0.0145384045 -0.13166933 0.10021754 0.10046593 -0.104223326 0.06971712 -0.096624024 -0.1453106 0.023132637 -0.022761354 -0.14199662 -0.0212015 -0.0017192498 -0.043197073 0.041518457 0.007650751 -0.10625819 -0.105124146 0.02338128 -0.019560194 0.05893734 0.089825615 -0.030795813 0.045296602 -0.1121838 0.110453516 0.00022349361 0.04007452 0.06859461 0.0032850213 -0.015336263 -0.075811915 -0.033687674 -0.20969242 -0.054486394 -0.15558764 0.035883434 -0.046065476 -0.09731303 -0.05960699 -0.12801489 -0.0090789655 -0.16397786 0.07722533 0.070279725 -0.24047473 -0.0708973 0.022468004 0.034191087 -0.09301931 0.05987652 -0.09005042 -0.030730499 -0.010649871 -0.09094445 0.14240222 -0.027426 0.062533334 -0.045513187 -0.044042915 0.06963104 -0.0148744285 -0.07179023 0.034329865 0.039197106 0.091100074 -0.031816177 0.12930006 0.09965192 0.031910084 -0.020994702 0.15165035 -0.03922208 -0.046435546 0.10356023 -0.008462882 0.057151865 0.041147858 -0.06385402 0.013760158 0.113653325 -0.013322127 -0.15253857 -0.08813149 0.14043286 0.018771693 0.013307437 0.09134291 -0.08098402 0.016948108 -0.037176963 0.048017234 0.0100868195 -0.049350712 -0.1647432 -0.1044611 0.21856028 0.035007242 -0.14190818 0.10148857 0.036969308 -0.0012100437 -0.00053579337 0.03494357 -0.14888144 0.12780131 0.040910266 0.06625047 0.008800123 0.03338629 0.05389744 -0.02645754 -0.074604 -0.025011735 0.10045599 -0.027535759 -0.050081927 0.16984923 0.01353983
more -0.13574035 -0.079590224 0.009029478 -0.054606352 0.064276434 -0.048160065 -0.14798819 -0.009721081 0.018765233 0.0024405448 0.09016833 -0.124893576 -0.051187195 -0.061795507 0.11337451 0.064650275 0.12591264 0.04829261 -0.090279415 -0.06559769 0.02557689 -0.03723469 -0.06973379 -0.021011503 0.08510297 -0.11482652 0.014468869 -0.04969446 -0.17619771 -0.09682241 0.045473382 0.087408386 0.00561103 0.04797787 0.072469726 -0.021912182 0.022239665 -0.14174816 0.009665636 0.005601718 -0.002057711 0.018526623 0.13433035 -0.011994434 0.032826915 -0.03981816 -0.043364592 -0.16992486 -0.04978819 0.068444386 0.13284862 0.05578022 -0.2784806 -0.12501177 0.10478749 -0.026477491 -0.07048607 -0.02127567 0.30899128 -0.032630645 -0.054403406 -0.06649817 0.21825042 0.034926325 0.038936187 -0.09407815 -0.18930082 0.10835387 0.08873179 0.14229754 -0.06415204 0.11500218 -0.03967727 0.0072366977 0.043366253 -0.06095436 -0.02989521 0.09295197 -0.008772859 0.03783274 0.2019574 -0.018028805 -0.12994948 0.098617986 0.099690616 -0.103538156 0.06818916 -0.09351102 -0.14385505 0.024290172 -0.021682227 -0.14094613 -0.019410016 -0.0050761425 -0.04342998 0.04034598 0.006216154 -0.10746326 -0.105850056 0.028403953 -0.022550415 0.05740758 0.091225564 -0.030444492 0.043798905 -0.11095271 0.106128104 -0.0011555714 0.038565736 0.06847525 -0.0007535642 -0.016237756 -0.07529431 -0.03669099 -0.20687263 -0.05251133 -0.15912926 0.036197234 -0.042563733 -0.0933245 -0.059953082 -0.12741901 -0.007971298 -0.16168794 0.077069424 0.06918332 -0.23797676 -0.0689592 0.023249246 0.031725615 -0.09624951 0.059397712 -0.09292417 -0.026309717 -0.006804681 -0.08785924 0.14102927 -0.025966262 0.05774488 -0.045741268 -0.040435754 0.06923904 -0.015679948 -0.070309155 0.03339296 0.038072035 0.091868296 -0.03202505 0.13085008 0.09991637 0.031254843 -0.023350464 0.14884697 -0.03838864 -0.046919614 0.10594945 -0.01209395 0.057018854 0.043784123 -0.059487347 0.014023721 0.117240265 -0.009401368 -0.14795963 -0.08810642 0.13895173 0.014814831 0.012462298 0.09063981 -0.079490475 0.016764455 -0.03368797 0.04864483 0.012608209 -0.045959625 -0.16517662 -0.10296323 0.21578217 0.036225494 -0.14028989 0.10072484 0.032969736 -0.0017058393 -0.0016622479 0.031315457 -0.14924192 0.1276759 0.04069668 0.068803936 0.008499146 0.034053296 0.050650083 -0.026107736 -0.07266793 -0.02605298 0.10344378 -0.027037654 -0.05118629 0.16479334 0.01284983
blood -0.13866758 -0.081025146 0.009557499 -0.057915885 0.06863458 -0.047072425 -0.15043208 -0.010685129 0.01928921 -0.0012519931 0.09214413 -0.12596175 -0.048618443 -0.061467685 0.11402335 0.061063025 0.12675335 0.050734434 -0.08972617 -0.0659244 0.027449703 -0.038190007 -0.07063802 -0.023069149 0.08663168 -0.114774324 0.012537053 -0.05065155 -0.17587887 -0.102110155 0.04454223 0.08702089 0.0062710145 0.050237644 0.07355369 -0.01960466 0.025391603 -0.14454573 0.011196671 0.002376774 -0.0004389518 0.021602293 0.1333443 -0.0119059915 0.033737008 -0.044173636 -0.041071173 -0.17194413 -0.050794955 0.06551865 0.13596222 0.05876259 -0.28157812 -0.12267369 0.10481373 -0.025516896 -0.07266089 -0.021239558 0.3120638 -0.033370387 -0.056727815 -0.07153544 0.22473125 0.03515324 0.04180155 -0.09615509 -0.18751203 0.10789366 0.09124887 0.14634591 -0.06401066 0.11696024 -0.037680753 0.0061108884 0.044202063 -0.06259803 -0.02831682 0.09319788 -0.008970153 0.037346482 0.20744278 -0.016373983 -0.13137107 0.09847399 0.10162407 -0.10256771 0.06520204 -0.09751627 -0.14896674 0.025535373 -0.021504989 -0.14367688 -0.01692694 -0.0045039537 -0.04237462 0.04003087 0.006864007 -0.1094213 -0.10912706 0.026489936 -0.019306403 0.058658842 0.09163823 -0.033064414 0.047470428 -0.116189286 0.112318926 -9.446628e-05 0.043847412 0.06908259 -0.001306334 -0.018533664 -0.0779004 -0.037942577 -0.21023233 -0.052554257 -0.16171597 0.038581435 -0.04723135 -0.09890825 -0.063719586 -0.12752818 -0.007598954 -0.16332656 0.08025417 0.07196646 -0.24229454 -0.0715486 0.021510324 0.03366309 -0.09809683 0.058967773 -0.08990994 -0.030542165 -0.010686083 -0.09030786 0.1460722 -0.024424225 0.061592247 -0.043361034 -0.0398514 0.06890916 -0.012824194 -0.07002832 0.037307914 0.0364029 0.09436599 -0.034077212 0.13115282 0.10169998 0.031343263 -0.022018952 0.15164143 -0.0365797 -0.04786105 0.10797763 -0.011415095 0.057574157 0.043177795 -0.06268629 0.013172569 0.11706454 -0.012077421 -0.15301277 -0.09110114 0.13801472 0.016276032 0.01408793 0.09353386 -0.08183794 0.016783083 -0.035623573 0.04941614 0.008549645 -0.04939117 -0.1660733 -0.10698238 0.21925607 0.038888223 -0.14069024 0.10068872 0.033974256 -0.0022096192 -0.00064908917 0.03324453 -0.14929408 0.12632118 0.040313747 0.06970177 0.0053667417 0.035109613 0.054250617 -0.02706044 -0.07587374 -0.025963888 0.10094829 -0.026595004 -0.051705837 0.16945726 0.012013656
my -0.13196315 -0.07830201 0.0076182582 -0.053106554 0.06222206 -0.04868692 -0.14571744 -0.010069338 0.02184031 0.0034570787 0.08905754 -0.11868274 -0.048892833 -0.060180232 0.110860154 0.06127612 0.12533402 0.050247878 -0.088124804 -0.06520551 0.02209125 -0.033206843 -0.071602635 -0.018738022 0.08471963 -0.11216719 0.012521685 -0.04961924 -0.17052759 -0.094310164 0.04500618 0.0865051 0.0056123836 0.047490906 0.06986888 -0.022180334 0.020768067 -0.1377911 0.00928322 0.0041098064 -0.0043347473 0.0174136 0.13023606 -0.010871293 0.035996307 -0.041986622 -0.041585807 -0.16754043 -0.046641205 0.06373815 0.13029535 0.056329306 -0.27161065 -0.12259913 0.09844751 -0.02480183 -0.070663214 -0.02329747 0.30096072 -0.031141203 -0.051858168 -0.06901694 0.21216455 0.03342301 0.0363657 -0.093250744 -0.18318358 0.10190815 0.08619043 0.1386182 -0.06494336 0.11478302 -0.04024052 0.0052469005 0.0408953 -0.061562475 -0.025036454 0.08784987 -0.008072821 0.037308693 0.19900595 -0.014296552 -0.12901744 0.09764574 0.0966567 -0.10040949 0.06347658 -0.089526825 -0.14012372 0.022294812 -0.017544318 -0.13901109 -0.019509485 -0.004351273 -0.04019829 0.039959487 0.0067099496 -0.103708215 -0.10507067 0.024501726 -0.01988975 0.055378232 0.08786224 -0.028951462 0.041253284 -0.10921859 0.105179675 0.00048844557 0.03869575 0.06797869 0.0033015574 -0.015976528 -0.07707306 -0.03478319 -0.20415525 -0.050371904 -0.15563934 0.0358419 -0.04406189 -0.094573304 -0.058334064 -0.12112333 -0.009395305 -0.15760633 0.07272778 0.06877717 -0.2291249 -0.06843496 0.02164356 0.030375617 -0.091278486 0.058256537 -0.09132674 -0.02576491 -0.0085883895 -0.08772198 0.13586558 -0.02474431 0.05954124 -0.045151427 -0.04023127 0.065455966 -0.011478655 -0.06963526 0.035537757 0.038322877 0.08835122 -0.032957237 0.12984833 0.10092433 0.029792408 -0.024006926 0.14526519 -0.038619447 -0.046918865 0.10264881 -0.012103403 0.056789838 0.041490756 -0.06050861 0.015511173 0.114665955 -0.011839261 -0.14526154 -0.08557308 0.13292757 0.01618891 0.01077309 0.09289854 -0.07686511 0.012107192 -0.03122664 0.0466818 0.011977374 -0.04616365 -0.1591513 -0.10459382 0.2089617 0.033476673 -0.1371932 0.0976768 0.034697372 -0.0003431167 -0.0014368283 0.031952083 -0.14687979 0.124877684 0.038560838 0.06477571 0.0093560545 0.033387523 0.054279212 -0.023224376 -0.071867034 -0.025677178 0.099572405 -0.026883243 -0.049200162 0.16153787 0.010878371
an -0.1403751 -0.08495203 0.01077653 -0.054189384 0.06765792 -0.049240395 -0.15059422 -0.010622055 0.018245347 0.0026023202 0.09170975 -0.12590444 -0.053482518 -0.06050744 0.11578742 0.064623475 0.12922683 0.048405543 -0.09237222 -0.066309474 0.024905216 -0.03513987 -0.07159295 -0.022842266 0.08894823 -0.11577958 0.016611492 -0.052365724 -0.17640258 -0.099514544 0.044924352 0.08796901 0.0034444819 0.05237581 0.07231974 -0.021092685 0.025981 -0.14205447 0.006884759 0.004495055 -0.0010674385 0.018690983 0.13710666 -0.01225215 0.03620154 -0.04269837 -0.045320775 -0.17290395 -0.051877826 0.07100674 0.132722 0.05656312 -0.28343928 -0.1272479 0.10279033 -0.025232028 -0.07307686 -0.02363294 0.3145056 -0.037375715 -0.05935973 -0.07065746 0.22237891 0.032164622 0.040929906 -0.09665333 -0.1901732 0.10840662 0.08967719 0.14927867 -0.065789774 0.11688043 -0.041362524 0.007958325 0.04094011 -0.06438209 -0.025633194 0.094830096 -0.007467684 0.04106176 0.20522267 -0.016603794 -0.13434283 0.09875917 0.10454349 -0.10278521 0.06906974 -0.09530094 -0.14743812 0.022801545 -0.018411988 -0.14016448 -0.016243324 -0.0041243606 -0.045466557 0.03893009 0.0044345185 -0.10856314 -0.109571636 0.026412345 -0.024070783 0.059203584 0.09186007 -0.029829355 0.04501941 -0.11478259 0.10938806 0.0021006262 0.044429246 0.06827784 0.00088886236 -0.019701255 -0.080636665 -0.037744444 -0.2163532 -0.05682241 -0.16272792 0.03485615 -0.04484611 -0.09584448 -0.06350068 -0.12949331 -0.009638296 -0.16254164 0.080161415 0.06960196 -0.24333826 -0.07285826 0.02516008 0.034925073 -0.0948389 0.060908496 -0.09084573 -0.028846687 -0.010230464 -0.09377642 0.14317586 -0.028618151 0.062405176 -0.046667945 -0.04461113 0.072264396 -0.015473029 -0.073727705 0.037394974 0.037173342 0.09525095 -0.033108722 0.1317821 0.106647864 0.031540915 -0.026419925 0.1549766 -0.040364087 -0.048740108 0.10921576 -0.008508416 0.057268582 0.04547735 -0.06358448 0.014934069 0.11657867 -0.009689749 -0.15631099 -0.09153155 0.14243804 0.017188173 0.010736504 0.09680415 -0.08308602 0.012331169 -0.033355474 0.04614522 0.013332992 -0.046818953 -0.16804348 -0.10915818 0.2219696 0.038408533 -0.1442354 0.10148997 0.03565946 0.0012309694 -0.0012296053 0.033861153 -0.15049167 0.12905325 0.043158386 0.07023384 0.008998469 0.03390583 0.052468043 -0.026598359 -0.07331524 -0.025981091 0.10424659 -0.028126633 -0.050485518 0.17006718 0.012962356
blood sugar -0.13008136 -0.075343974 0.005808298 -0.050032254 0.06114602 -0.045276955 -0.14407215 -0.008788786 0.020286584 5.145455e-05 0.08612461 -0.11688729 -0.04733959 -0.05838675 0.1096004 0.059500415 0.12067242 0.046759233 -0.084219344 -0.060514368 0.023351427 -0.03137828 -0.069647275 -0.02355341 0.081880905 -0.111018576 0.014705883 -0.04739644 -0.16680297 -0.09406948 0.042710096 0.08302921 0.0054028337 0.046845753 0.06884698 -0.01707335 0.019744754 -0.1361234 0.00872252 0.004928832 0.00069128175 0.015255384 0.12530513 -0.009374455 0.033087146 -0.04226875 -0.042652495 -0.16181308 -0.04858061 0.06501022 0.12641814 0.054329805 -0.2684151 -0.11825807 0.10036837 -0.025131723 -0.06714542 -0.02359174 0.293103 -0.03333291 -0.05430521 -0.067408495 0.20927896 0.032788258 0.037255425 -0.09207404 -0.17641057 0.10214533 0.083193116 0.13590941 -0.06300444 0.11170568 -0.040429298 0.0056151226 0.043205783 -0.058350354 -0.02446269 0.08720547 -0.00934579 0.03409473 0.19504224 -0.01755789 -0.12782419 0.095426545 0.09636543 -0.097669594 0.06110346 -0.089647636 -0.13745444 0.022686975 -0.022445597 -0.13164604 -0.01572242 -0.0005806256 -0.04117877 0.037387338 0.005109336 -0.10129212 -0.0995327 0.026603647 -0.021956012 0.05529052 0.08601882 -0.027470492 0.04421067 -0.106414296 0.10425243 0.000860529 0.03900869 0.063448474 0.0025173568 -0.015492987 -0.07472066 -0.032443758 -0.2019944 -0.052091736 -0.151847 0.032113243 -0.041064158 -0.093180664 -0.058697745 -0.121493965 -0.0078358855 -0.15222587 0.07604862 0.06771713 -0.22611165 -0.064424165 0.019025385 0.03190146 -0.08857731 0.056873254 -0.087805614 -0.024537338 -0.008511882 -0.08713043 0.13528956 -0.023306886 0.05866647 -0.04050373 -0.041233916 0.06328835 -0.013451624 -0.06888961 0.034214944 0.037483133 0.08920457 -0.028919104 0.12664345 0.09513759 0.03033527 -0.021122735 0.14250442 -0.036511343 -0.04296937 0.10182199 -0.0115525955 0.05624826 0.041738052 -0.05675734 0.0138819795 0.10941347 -0.010287422 -0.14130779 -0.08619286 0.13284095 0.014582253 0.013740898 0.08718762 -0.077366576 0.012787869 -0.031944707 0.0461661 0.011256497 -0.045149956 -0.15503171 -0.100461274 0.20834266 0.032470092 -0.13601898 0.09432136 0.03499394 -0.0016545947 0.0016383963 0.03325675 -0.14344709 0.118832774 0.04181337 0.06622109 0.0059771985 0.034149654 0.051484108 -0.023551447 -0.069371484 -0.023696503 0.095039055 -0.022156939 -0.04997943 0.16128305 0.011579287
at -0.14230776 -0.0866047 0.008984909 -0.055984132 0.069409 -0.051093567 -0.15372217 -0.011309551 0.022328189 0.00017763897 0.093921356 -0.12839249 -0.051903002 -0.062903605 0.11982123 0.065050356 0.13132098 0.05050012 -0.09368482 -0.06865923 0.025326138 -0.039488535 -0.07654215 -0.020853773 0.0886405 -0.122351214 0.015820488 -0.051661517 -0.18076201 -0.10304385 0.048932623 0.08822762 0.0064119347 0.049704175 0.075433284 -0.022612827 0.02498949 -0.14570415 0.008337167 0.0017804576 -0.0034060907 0.021530299 0.1415968 -0.013051981 0.03791837 -0.044893056 -0.045799647 -0.17820382 -0.051176626 0.07060169 0.13518879 0.0613773 -0.29196528 -0.13048387 0.10861406 -0.028861066 -0.073736444 -0.026354993 0.31897303 -0.03447773 -0.0548559 -0.0719672 0.22718874 0.032266848 0.041309502 -0.100061744 -0.19691354 0.11057281 0.09207643 0.1503835 -0.066478044 0.12236173 -0.04219825 0.0051520965 0.045546293 -0.065270595 -0.026342705 0.0935747 -0.0092590265 0.039098244 0.2132801 -0.016885204 -0.13851091 0.10448877 0.10546198 -0.109562136 0.06980943 -0.09747581 -0.15134995 0.026207767 -0.021322213 -0.14529161 -0.019932365 -0.005362131 -0.04596351 0.03918081 0.0063792667 -0.11050534 -0.110841885 0.029972376 -0.020743834 0.058914192 0.09383605 -0.03156537 0.04849032 -0.117605254 0.11473124 0.0022922216 0.043856025 0.069725744 -0.00013667023 -0.019478606 -0.08175493 -0.036263105 -0.21716422 -0.05415093 -0.1637088 0.037629 -0.0470818 -0.10190453 -0.0630497 -0.13359167 -0.005625685 -0.16704965 0.07884775 0.0744089 -0.24445151 -0.074627504 0.024458785 0.030852377 -0.09750241 0.060942583 -0.09421249 -0.02633114 -0.010049452 -0.09350061 0.14862742 -0.02763207 0.062743954 -0.04534511 -0.040515013 0.07079412 -0.011730418 -0.072337836 0.035530318 0.039636783 0.096567556 -0.036001537 0.13521953 0.10492807 0.030966973 -0.022718519 0.15716553 -0.03783168 -0.048079662 0.10744476 -0.010847624 0.05834631 0.04659577 -0.06373682 0.013631756 0.11856456 -0.014628982 -0.15799886 -0.094194226 0.14483102 0.017680475 0.012236143 0.098638825 -0.083660014 0.017464241 -0.036589 0.04948625 0.0141826 -0.048160516 -0.17201893 -0.111298285 0.22648577 0.039825756 -0.14764786 0.106443934 0.03698863 -0.0004863791 5.3466498e-05 0.034720473 -0.1552473 0.13136779 0.042261418 0.07097157 0.008033331 0.033577744 0.056028593 -0.02488023 -0.07629557 -0.026869178 0.10660494 -0.024807176 -0.05081304 0.17665923 0.012141006
not -0.13866194 -0.08340301 0.010914779 -0.058222067 0.070099585 -0.04854907 -0.15367687 -0.013114212 0.01852737 -0.0010972808 0.09055141 -0.12630148 -0.052676223 -0.06371222 0.11510687 0.06562015 0.13055559 0.049618896 -0.09172052 -0.066769704 0.027000524 -0.03459302 -0.0738066 -0.023461929 0.09182819 -0.11639004 0.012388519 -0.054183405 -0.18111248 -0.10023982 0.045200694 0.091104396 0.005037117 0.04888797 0.07377392 -0.021682229 0.02708492 -0.147219 0.009167319 0.0061657447 -0.00080439117 0.018423986 0.13942651 -0.011470622 0.03672134 -0.040955782 -0.04091836 -0.17603087 -0.049652703 0.06808333 0.1332499 0.05884835 -0.28873804 -0.12799604 0.10459226 -0.02936638 -0.07055376 -0.024736388 0.31787863 -0.034233835 -0.055583518 -0.07187994 0.22800142 0.03433616 0.039946627 -0.09884174 -0.1943091 0.10784598 0.08765253 0.14834164 -0.06472039 0.11935748 -0.039802928 0.006831486 0.044327375 -0.061954036 -0.025876636 0.09060529 -0.00986689 0.040861778 0.21010582 -0.01620348 -0.13688391 0.09981851 0.10198549 -0.10684396 0.07029158 -0.09701789 -0.1489246 0.025476648 -0.01931243 -0.14271726 -0.020405201 -0.005655561 -0.044552278 0.039298523 0.0077083325 -0.109206796 -0.10990634 0.024602927 -0.021799669 0.057252545 0.09345651 -0.02888666 0.04654933 -0.11724072 0.10953322 -0.0013732954 0.042344276 0.07019221 -0.0009162735 -0.016337885 -0.079648696 -0.034747764 -0.21717922 -0.05196726 -0.16071947 0.036367815 -0.044051245 -0.099626705 -0.06378852 -0.13022865 -0.009356126 -0.1662174 0.08047608 0.07042283 -0.24504623 -0.07293352 0.024699865 0.030471554 -0.09834744 0.058489133 -0.096145056 -0.028858615 -0.006435368 -0.092444375 0.1438801 -0.02960558 0.060264815 -0.044551075 -0.03990637 0.071421266 -0.011532728 -0.07183038 0.034603786 0.041047458 0.092810005 -0.03337655 0.1368802 0.10448937 0.030043852 -0.024056017 0.15567155 -0.03586371 -0.045076445 0.10579719 -0.011135771 0.057931006 0.045267045 -0.061206993 0.013961807 0.118054345 -0.013107764 -0.15537584 -0.092649676 0.1386693 0.016967967 0.011584849 0.097545855 -0.08052156 0.015850957 -0.03647108 0.050415035 0.009077693 -0.04613099 -0.17074482 -0.10574134 0.22127666 0.037416764 -0.1457878 0.10572972 0.03709146 -0.0028204857 -0.00084645255 0.03527593 -0.15042032 0.129582 0.044517778 0.070229575 0.0049825683 0.032377236 0.052301697 -0.028394368 -0.0754256 -0.02586427 0.10395516 -0.028798267 -0.05096825 0.17323378 0.013587194
in the -0.13527642 -0.0832074 0.0063719833 -0.054070767 0.068827786 -0.04691475 -0.14751688 -0.009055148 0.018228464 0.0006181815 0.087718695 -0.124057814 -0.050259173 -0.060429238 0.11270902 0.06432849 0.12722066 0.04918453 -0.090447895 -0.062992066 0.025368134 -0.03833059 -0.07308728 -0.022531858 0.08585307 -0.11588925 0.012881604 -0.052519478 -0.17639647 -0.09930685 0.04717787 0.08983103 0.0042441576 0.049888678 0.07327128 -0.018318238 0.024097761 -0.14394608 0.0072643054 0.0046700845 7.438099e-05 0.018157473 0.13293326 -0.011178744 0.033905916 -0.041102912 -0.04432519 -0.1734646 -0.049615238 0.06950484 0.1305624 0.05684013 -0.2781692 -0.12511726 0.10267131 -0.025559219 -0.07244057 -0.023642564 0.30991647 -0.033855118 -0.057797167 -0.06750494 0.21904394 0.031116545 0.03766929 -0.097053014 -0.18662587 0.105255514 0.08772908 0.14417903 -0.06464557 0.1148058 -0.041473366 0.0093161445 0.045338716 -0.061313186 -0.02567676 0.0903978 -0.010160114 0.038742647 0.20391268 -0.018131446 -0.13099396 0.097003944 0.10155106 -0.10586774 0.06620196 -0.09651256 -0.14667028 0.02464431 -0.022287354 -0.14191611 -0.01799654 -0.0028333392 -0.04381107 0.039612144 0.0054831207 -0.10786432 -0.105534025 0.027643045 -0.01864951 0.054134768 0.08950689 -0.031725585 0.046862025 -0.1157165 0.11012031 0.0013698272 0.039755948 0.06741886 0.0032406144 -0.018196333 -0.07990588 -0.037986245 -0.21179938 -0.051365666 -0.1564666 0.036994692 -0.04426186 -0.0959914 -0.062280126 -0.12429227 -0.0057124854 -0.15993491 0.08041672 0.06906013 -0.23726636 -0.069147795 0.020650093 0.03193449 -0.09595904 0.056389168 -0.092927836 -0.025475496 -0.00859299 -0.09031087 0.14144263 -0.028086746 0.057841513 -0.043875363 -0.042721555 0.0665611 -0.0130346725 -0.07067843 0.03741694 0.035826474 0.09382206 -0.031823337 0.13459757 0.10323142 0.030208537 -0.022162382 0.15306081 -0.03518934 -0.04392065 0.104119025 -0.011643734 0.05501062 0.044832226 -0.06127988 0.016625758 0.1182982 -0.010837681 -0.1524407 -0.088028215 0.13855806 0.016945101 0.013987636 0.09128918 -0.08005392 0.014602747 -0.036234684 0.04831317 0.009554417 -0.045097075 -0.1660478 -0.10566975 0.21831688 0.035164118 -0.14013329 0.103155024 0.03240914 -0.0005559349 -0.0006237784 0.034021057 -0.15009187 0.124472275 0.04509196 0.06833211 0.006759073 0.035002295 0.054601762 -0.024521908 -0.07400424 -0.024465358 0.10049751 -0.02433932 -0.05116929 0.1684893 0.0094445
will -0.1357781 -0.07984591 0.009654752 -0.054782253 0.06474942 -0.045417465 -0.14734544 -0.008549506 0.020076722 1.2891025e-05 0.08826384 -0.12334317 -0.049131062 -0.060879804 0.11599051 0.061903864 0.12840776 0.04643774 -0.0884049 -0.06447371 0.023692736 -0.035150092 -0.07380201 -0.019508364 0.08501609 -0.11586591 0.0135924015 -0.051470306 -0.17528369 -0.099377215 0.04667218 0.08652127 0.005553158 0.047698084 0.07300803 -0.021250442 0.02443339 -0.1391975 0.0070586517 0.006027428 0.000896166 0.019641876 0.13109264 -0.010168042 0.03350386 -0.04097932 -0.04415084 -0.16838993 -0.05084998 0.066079095 0.13369682 0.05863995 -0.2768204 -0.12290996 0.104512356 -0.02891085 -0.068802305 -0.025622351 0.3069833 -0.03582034 -0.055626154 -0.07075662 0.21917842 0.03014051 0.036381174 -0.09657353 -0.18687116 0.10742163 0.086416885 0.14185084 -0.065660074 0.11622588 -0.03771978 0.005775014 0.04159322 -0.059403766 -0.024955703 0.092561886 -0.0096251285 0.035582956 0.20240189 -0.01896997 -0.1332139 0.09883589 0.10191274 -0.102631375 0.066491336 -0.09118264 -0.14134213 0.020932827 -0.021492844 -0.14093167 -0.019266075 -0.004107062 -0.039470613 0.039079398 0.0052468674 -0.10600868 -0.10657941 0.026614275 -0.02145475 0.05582561 0.0925655 -0.027093748 0.042270742 -0.11531508 0.10661233 0.0027402581 0.04175757 0.067347 0.0017472481 -0.017641302 -0.07574596 -0.034530118 -0.2111158 -0.050228875 -0.15434507 0.035125706 -0.043847237 -0.09323709 -0.06114833 -0.124535225 -0.0064870026 -0.1601787 0.07952244 0.07142974 -0.23815855 -0.07076041 0.021265645 0.033781886 -0.097016394 0.059744578 -0.09040336 -0.026437167 -0.009173345 -0.08879081 0.14351405 -0.025986664 0.05911743 -0.043393534 -0.042204905 0.0698896 -0.015513626 -0.07272837 0.03495903 0.039419293 0.08820148 -0.03177081 0.13039106 0.10293812 0.03157666 -0.025463428 0.14835909 -0.037655 -0.04839097 0.10698205 -0.009935738 0.056563236 0.04352106 -0.059251294 0.0127524445 0.11273571 -0.011350703 -0.1487845 -0.08600398 0.13614954 0.017932737 0.009632625 0.09511996 -0.07814789 0.013194833 -0.03704541 0.046278715 0.009337264 -0.04499201 -0.16436158 -0.10271258 0.21402575 0.035186708 -0.13985783 0.10349694 0.035871185 0.0010018651 -0.0019021241 0.03136156 -0.14628251 0.12418484 0.043145273 0.0649012 0.009394647 0.031844318 0.051127754 -0.027700225 -0.07014962 -0.027965605 0.10141767 -0.028055824 -0.050265662 0.16946341 0.010064991
your blood -0.13610709 -0.08274332 0.010196563 -0.055781957 0.06944706 -0.050165065 -0.14926854 -0.00847025 0.02121701 0.0027585898 0.09115276 -0.12718883 -0.05154911 -0.060218867 0.11621285 0.064106844 0.12713075 0.05019206 -0.09171697 -0.06324915 0.024368929 -0.03726326 -0.07161295 -0.021778451 0.08787644 -0.115434185 0.01624154 -0.050344005 -0.17904723 -0.10060611 0.04430416 0.0873084 0.0010506696 0.050364524 0.07362195 -0.018988729 0.025440235 -0.14454508 0.008159695 0.0033524479 -0.003669233 0.02012498 0.13518299 -0.01299322 0.03402176 -0.040517204 -0.041263066 -0.17233962 -0.051443387 0.06820619 0.13407719 0.058945425 -0.28550237 -0.12711856 0.1038603 -0.026673112 -0.07207187 -0.026095605 0.31624362 -0.0367166 -0.05402858 -0.069049194 0.22399926 0.030261518 0.041051723 -0.09897321 -0.19239128 0.10669111 0.08694052 0.14845215 -0.068209864 0.11829788 -0.04299175 0.009192735 0.044238105 -0.061510116 -0.025721496 0.095336035 -0.009425488 0.04151146 0.20521227 -0.015410821 -0.13428254 0.0981494 0.105530925 -0.10304371 0.0657378 -0.09605196 -0.1470725 0.023494635 -0.022673095 -0.14272833 -0.019440575 -0.00041701194 -0.040773913 0.040141344 0.0068107913 -0.10767117 -0.10577514 0.028100336 -0.023620501 0.0575183 0.09399851 -0.03235322 0.04757065 -0.116142616 0.111002006 -1.9485693e-05 0.04158612 0.070105515 0.002271535 -0.01913266 -0.07870882 -0.036288723 -0.21452092 -0.05506275 -0.15905982 0.03823053 -0.04377207 -0.098424844 -0.059664797 -0.130262 -0.007653826 -0.16648862 0.079859175 0.069734015 -0.24149704 -0.07034973 0.02072908 0.034160815 -0.098186694 0.057875156 -0.09456942 -0.02875129 -0.010963485 -0.091832824 0.1469147 -0.026213162 0.058455255 -0.04738344 -0.043733276 0.06961417 -0.013013342 -0.07389717 0.03656698 0.039472345 0.0927864 -0.031799518 0.13299939 0.101362176 0.028757736 -0.021381052 0.1521453 -0.03751746 -0.049116243 0.108969435 -0.0107337395 0.05458458 0.040729858 -0.06553543 0.014986637 0.116948724 -0.013579109 -0.15091583 -0.08964449 0.13839358 0.015054179 0.009319749 0.096659146 -0.07828519 0.014373885 -0.03669944 0.047908753 0.009704733 -0.05014689 -0.16854472 -0.106899634 0.2209318 0.034369174 -0.14483918 0.10176268 0.03414753 -2.0942527e-05 -0.00010005081 0.031964645 -0.14898883 0.13023417 0.041534547 0.0663157 0.00927045 0.03505003 0.051507123 -0.024809858 -0.07501803 -0.026254967 0.101331234 -0.02877421 -0.05109352 0.16916119 0.012291104
diabetes. -0.1292632 -0.076542415 0.010524182 -0.050087303 0.06340826 -0.04466063 -0.13849156 -0.009863331 0.017204586 0.0024951394 0.085450456 -0.11356621 -0.044024434 -0.055827726 0.10828222 0.05821959 0.115974955 0.04771192 -0.08334871 -0.06186425 0.02537025 -0.03246299 -0.06521732 -0.02104427 0.08275395 -0.10857145 0.01049876 -0.05098854 -0.16505128 -0.09131779 0.04289308 0.08356512 0.002700125 0.047873907 0.06489565 -0.019936198 0.020434793 -0.13305566 0.007225929 0.0051740617 -0.0011858423 0.01485088 0.12409994 -0.0077389935 0.03504415 -0.03650278 -0.041553587 -0.16126654 -0.04609418 0.062142253 0.122509114 0.05148013 -0.2588549 -0.117173485 0.09632613 -0.023773395 -0.06412363 -0.021568779 0.28763276 -0.0346214 -0.051644746 -0.06508146 0.20384705 0.029401205 0.0382022 -0.0898181 -0.17473328 0.09662166 0.08178982 0.13546634 -0.06157398 0.10929422 -0.038139064 0.0044857278 0.039010547 -0.0556151 -0.027512984 0.085651346 -0.005229645 0.03441896 0.18978296 -0.017841084 -0.123975925 0.08984472 0.09294316 -0.09844148 0.06273933 -0.08873351 -0.135694 0.022573188 -0.020466523 -0.13026334 -0.019798597 -0.000974191 -0.037414964 0.037672732 0.0037758818 -0.103393994 -0.09634169 0.024889637 -0.018879585 0.054157324 0.08528266 -0.029856462 0.04327255 -0.10690233 0.10231739 0.0029584602 0.038894713 0.0634126 -0.00062915456 -0.017845474 -0.071582764 -0.033872176 -0.19368592 -0.046609107 -0.14803824 0.035365093 -0.04000119 -0.0887035 -0.05724533 -0.1155082 -0.008724268 -0.14793716 0.07345009 0.06551984 -0.22180068 -0.06543571 0.022681408 0.032601565 -0.0910787 0.056509387 -0.08437614 -0.026387045 -0.008453825 -0.08180896 0.13399522 -0.023274207 0.054470398 -0.043816995 -0.039881036 0.061958574 -0.0111515345 -0.068850696 0.032086674 0.035044096 0.082504794 -0.028395701 0.12462099 0.097545445 0.027237972 -0.020089973 0.14238591 -0.03427941 -0.044066206 0.10034086 -0.008930154 0.05401071 0.0415641 -0.058329556 0.01454513 0.107517645 -0.01356441 -0.14240259 -0.08260966 0.13107708 0.017101662 0.0087447595 0.08587533 -0.07208764 0.012717443 -0.030147882 0.04510154 0.010817788 -0.041205868 -0.15479091 -0.09921455 0.20258506 0.03263916 -0.13346173 0.09581102 0.030535847 0.0010990362 -0.0019716925 0.031945426 -0.13927801 0.11703817 0.040547818 0.06284734 0.006294037 0.032733705 0.052052394 -0.025822312 -0.0704314 -0.027128348 0.09480241 -0.025646357 -0.046000805 0.1574617 0.013289083
The -0.13434103 -0.08234001 0.0064374763 -0.05634543 0.06717426 -0.04764624 -0.14603278 -0.010475206 0.020621993 0.00026883255 0.085964896 -0.122753836 -0.047849104 -0.061020352 0.11244478 0.060233638 0.12549719 0.048989847 -0.08894734 -0.06465277 0.022851063 -0.03337558 -0.07393303 -0.021760115 0.08541133 -0.11564737 0.0148410965 -0.05387807 -0.17176288 -0.100461714 0.04443689 0.088242404 0.0050440812 0.0482104 0.06949038 -0.022396078 0.021558762 -0.1407088 0.006957152 0.0019894214 -0.0023700092 0.020694977 0.13414052 -0.011451669 0.036075793 -0.04208714 -0.042561542 -0.16932416 -0.0493601 0.06652335 0.13352087 0.056306362 -0.27684468 -0.12380996 0.10348373 -0.02475526 -0.07144501 -0.022707881 0.30904678 -0.034175128 -0.05635448 -0.06687483 0.22087017 0.034394857 0.040487774 -0.09819411 -0.18508296 0.10675143 0.08707695 0.14372681 -0.066222414 0.11620354 -0.039733645 0.006890308 0.040311184 -0.06145097 -0.025802264 0.09024558 -0.0058270614 0.036441334 0.2013893 -0.017220788 -0.13171923 0.09919804 0.10177686 -0.10322944 0.06839056 -0.094484024 -0.1429524 0.021791121 -0.022175586 -0.13986298 -0.017772302 -0.002428632 -0.039933637 0.04087119 0.0061767967 -0.10978271 -0.10384681 0.027319903 -0.022267818 0.05733153 0.088234395 -0.031271983 0.046351947 -0.11227115 0.10740611 6.81057e-05 0.04208738 0.069040336 0.0021023133 -0.015553684 -0.07742611 -0.03751533 -0.20934755 -0.05236783 -0.15707143 0.034267772 -0.046922598 -0.095344774 -0.061141558 -0.12701844 -0.007885049 -0.15775143 0.07555161 0.072200075 -0.23760627 -0.07049482 0.020186009 0.030536663 -0.0933842 0.059460346 -0.09171263 -0.029169068 -0.0061611054 -0.08958187 0.14168195 -0.022926627 0.05964721 -0.046065632 -0.038756832 0.065754004 -0.012475686 -0.07139312 0.035640504 0.037866578 0.08989702 -0.032950986 0.13192931 0.1031874 0.030663703 -0.024013203 0.1519775 -0.035298217 -0.044836234 0.10230102 -0.011698616 0.05795981 0.04398681 -0.06390846 0.011663557 0.115193166 -0.0112934 -0.1476518 -0.089013405 0.1392433 0.017851425 0.013829683 0.09220589 -0.07879739 0.016643425 -0.032844853 0.044922855 0.011026886 -0.046625193 -0.16320997 -0.10502412 0.21711162 0.038945373 -0.1396211 0.09952702 0.035589702 0.00022819934 0.0014950078 0.035445277 -0.14565463 0.12658107 0.044271037 0.06642705 0.0064632967 0.03481401 0.050387725 -0.024453532 -0.07214869 -0.024558036 0.09984715 -0.02394456 -0.04931337 0.1668712 0.009359993
