317 200
and 0.06668355 -0.027064286 0.02509605 0.12355894 0.14143722 -0.17557374 0.016138045 0.098892644 -0.035613988 0.062145434 -0.10295749 -0.06688541 0.044652026 0.14024962 -0.060125984 -0.18312818 -0.040198416 0.043639034 0.08244949 -0.18210405 0.16049938 -0.103213094 0.026715925 0.018238598 -0.036226682 -0.062513545 -0.11809766 -0.063956365 -0.1596878 0.090570085 0.15041444 0.080556735 0.032992437 0.10440735 -0.08240323 0.024071785 0.08045723 -0.11579715 -0.07042434 -0.11312301 -0.09026624 -0.021662924 -0.064231895 0.026687587 0.21083027 -0.004967221 -0.06576886 -0.06862844 0.10204113 0.08707358 0.028313667 -0.092171334 -0.124608465 -0.08783915 -0.045899127 0.01717395 0.012850903 -0.11702918 -0.15997267 -0.0019350232 -0.005713627 -0.041235685 -0.08630334 -0.12500282 -0.173164 -0.011249813 -0.024986025 0.13959739 -0.24451657 0.089686334 -0.01836036 -0.0148573145 0.12811595 0.0018686332 0.011933826 4.1199287e-06 0.040988173 -0.036702275 -0.26211396 0.07527668 0.052294083 -0.09352649 -0.16007248 0.27452976 -0.12449605 -0.05650947 -0.029066622 0.15587471 -0.002153247 -0.08319276 0.0628928 0.081729196 -0.02726733 0.07887529 0.18369688 0.17901875 0.010004988 -0.07610611 0.047955118 0.15685762 -0.14670955 0.15124042 0.072261766 -0.09964991 -0.17452471 -0.060016446 0.036070727 0.19703828 -0.038606834 -0.13986556 -0.04899717 -0.162577 0.036215033 -0.10969185 0.034148306 0.064012125 0.13228332 -0.2289797 0.029643185 -0.14788613 0.015531417 0.24034075 0.074899144 -0.17939956 -0.031805415 0.08252629 -0.1487412 -0.092876166 -0.009888485 -0.010525044 0.015527781 0.15919165 -0.0693826 -0.09276293 -0.108202465 0.12827668 -0.16143318 -0.09946595 -0.063646615 -0.14360064 0.17426926 -0.17286226 -0.03300556 -0.05975772 -0.06118945 -0.13200538 -0.1352393 0.051639687 -0.0012184485 -0.023948966 0.09137026 -0.18586843 0.025389997 0.055601288 -0.14677031 0.19055676 0.09005574 0.07715707 -0.098403074 0.15703306 0.0963101 0.022145627 -0.04102893 -0.068226136 -0.0011482493 0.059408594 0.06866818 -0.11211113 -0.092573 0.061476063 -0.14989242 0.008130736 0.04152641 -0.09601286 0.077124596 0.06354724 -0.06714503 -0.014936055 0.04615317 0.105421126 -0.05929123 -0.013145736 -0.01281924 0.05175911 0.048209824 0.0554628 -0.1507578 0.13184373 0.16691189 0.061430678 0.13670675 -5.798805e-05 -0.112873666 -0.074279554 0.015475403 -0.015505438 0.053601235 -0.18376826 0.011878491 -0.03826083
the 0.067235835 -0.025756864 0.019075995 0.119943336 0.15139394 -0.16955742 0.0107201785 0.096110016 -0.037424274 0.068145745 -0.1107415 -0.06845323 0.052373845 0.13825879 -0.053977255 -0.18715607 -0.03915677 0.04848935 0.08288016 -0.18139271 0.15470247 -0.10908803 0.02193725 0.014715619 -0.035599973 -0.064189084 -0.11435641 -0.06516291 -0.16097263 0.09526602 0.15845661 0.07787501 0.024375616 0.10725331 -0.08557447 0.024636684 0.07740993 -0.11174835 -0.06970263 -0.11132209 -0.08913237 -0.023016294 -0.061120547 0.03296033 0.21417941 -0.002797132 -0.0615496 -0.07526066 0.09862642 0.082438715 0.03356894 -0.09573383 -0.12692752 -0.0934919 -0.05538311 0.01660732 0.009305363 -0.116330884 -0.16306013 -0.0087435385 -0.001713793 -0.043348234 -0.080535725 -0.12104369 -0.17667887 -0.008040627 -0.021228036 0.14095595 -0.24797001 0.09143762 -0.019405182 -0.016858868 0.13279906 0.0071097203 0.0073734657 0.0045740157 0.04276032 -0.035121717 -0.264147 0.08053113 0.05334026 -0.10031248 -0.16768959 0.2729401 -0.12246495 -0.061874192 -0.03544168 0.15566687 0.003143542 -0.08722075 0.061054066 0.08484361 -0.024069903 0.07726497 0.18397999 0.18060571 0.017375762 -0.07277422 0.051126815 0.15109351 -0.1473824 0.15545365 0.06997335 -0.105476424 -0.17652743 -0.059716906 0.036632624 0.19938837 -0.03469302 -0.14183271 -0.04483323 -0.15710506 0.04182202 -0.117879614 0.03658366 0.059879366 0.13432592 -0.23733814 0.02797264 -0.14573096 0.015233492 0.24403751 0.07662999 -0.17100838 -0.04052885 0.08255465 -0.14411978 -0.094439656 -0.008138108 -0.013751879 0.010272235 0.16140442 -0.0732301 -0.09186154 -0.10938628 0.13256097 -0.16172887 -0.10556812 -0.074143924 -0.14430547 0.17367467 -0.16822472 -0.025281344 -0.062329568 -0.057317898 -0.13542284 -0.1373583 0.051650926 -0.0036409535 -0.02609924 0.09021245 -0.18254061 0.0202366 0.049487192 -0.14933 0.18728611 0.08672736 0.0788312 -0.09588888 0.15191002 0.10208929 0.023248132 -0.034615614 -0.06719413 -0.0007032671 0.054093536 0.06542477 -0.10724533 -0.09958797 0.053118505 -0.14661089 0.010154349 0.038891666 -0.09551626 0.075941734 0.0655216 -0.06654871 -0.0104498165 0.040773235 0.1095434 -0.05765396 -0.010943641 -0.014175942 0.056984242 0.0466069 0.055597022 -0.14741516 0.14183474 0.16513832 0.05958507 0.13324109 8.719587e-05 -0.11570527 -0.07265663 0.022360831 -0.017593833 0.054428168 -0.18748127 0.0151143065 -0.04376788
of 0.05973381 -0.025324786 0.017679209 0.11163151 0.13938046 -0.15945287 0.012300944 0.08936906 -0.033325527 0.06437757 -0.104254924 -0.05913057 0.040029954 0.13071886 -0.056419104 -0.17457458 -0.040540945 0.04330166 0.084175676 -0.1697052 0.14851107 -0.1035501 0.026002763 0.022190161 -0.038095087 -0.05668738 -0.11012394 -0.06060001 -0.15154627 0.08779238 0.14945202 0.07683579 0.027445728 0.09633144 -0.07193504 0.02141178 0.07085444 -0.10471773 -0.06698212 -0.10373087 -0.07954388 -0.02636156 -0.061264962 0.032332882 0.20142005 -0.008264173 -0.056733064 -0.06945332 0.09682028 0.07404143 0.03335612 -0.08670424 -0.11077216 -0.08571098 -0.048191994 0.014852492 0.0048816977 -0.111540444 -0.15007596 -0.009763038 -0.001501445 -0.041925095 -0.07813868 -0.11399509 -0.16372643 -0.01157354 -0.019334346 0.13391866 -0.23156665 0.087791644 -0.022712538 -0.0146921445 0.121055365 0.007794388 0.010378703 0.002884388 0.03388536 -0.03036502 -0.24170391 0.07028392 0.0456877 -0.093573615 -0.15192991 0.25414455 -0.11818903 -0.059144728 -0.026166907 0.14998025 -0.005389569 -0.08364283 0.06081274 0.07389416 -0.024068335 0.07192047 0.16948804 0.16210291 0.016754277 -0.0670825 0.044714756 0.14630522 -0.13788603 0.14174122 0.065427095 -0.1020846 -0.17227517 -0.05463338 0.035055988 0.18518384 -0.038823925 -0.13285744 -0.04891659 -0.15080285 0.033543214 -0.111821644 0.029188523 0.052736267 0.118478104 -0.22206183 0.02858435 -0.14052013 0.009397647 0.22881392 0.07091451 -0.16072999 -0.03659677 0.074166186 -0.1361573 -0.09538341 -0.007917358 -0.010102677 0.012233962 0.14833568 -0.06781199 -0.089172445 -0.10432962 0.124557786 -0.15271616 -0.09302927 -0.06210584 -0.14120468 0.1657679 -0.1632667 -0.030015703 -0.057518493 -0.057186898 -0.13048494 -0.1306908 0.053074766 -0.0018316635 -0.024207126 0.08331129 -0.17497289 0.02798225 0.05524569 -0.14173037 0.17654979 0.08593606 0.065768786 -0.09564031 0.14034015 0.0991967 0.019331463 -0.031711873 -0.06552827 -0.0014154454 0.05461236 0.06181441 -0.10225253 -0.09510142 0.05007597 -0.13834572 0.014588262 0.04078611 -0.09107191 0.07221899 0.06753815 -0.06458534 -0.011140589 0.041391373 0.10296164 -0.04760635 -0.01644393 -0.012145094 0.047194324 0.044534456 0.04936275 -0.14401177 0.13448133 0.15460218 0.062471908 0.13302186 0.0051976326 -0.1121912 -0.06811797 0.020694055 -0.013392251 0.046736516 -0.17683895 0.017261617 -0.041715514
blood sugar 0.061980985 -0.0252929 0.019331036 0.102601424 0.12500592 -0.14636712 0.013549359 0.08009512 -0.02948681 0.05415503 -0.088556044 -0.055804726 0.039375406 0.122387126 -0.051191367 -0.15671542 -0.031144764 0.04054632 0.075107045 -0.15635751 0.13568883 -0.09123039 0.025608772 0.016221348 -0.032803573 -0.05068611 -0.10229133 -0.05978484 -0.13378276 0.07879551 0.13542038 0.07356823 0.023615392 0.09422141 -0.07212711 0.023029333 0.06192842 -0.10130937 -0.064090624 -0.09834406 -0.06952635 -0.0239784 -0.047616955 0.021374397 0.18184794 0.0011413135 -0.056568667 -0.06768099 0.08350805 0.06886227 0.028012274 -0.085568614 -0.109322675 -0.07442704 -0.047133345 0.0128810955 0.007478384 -0.10153483 -0.13921028 -0.010107324 -0.0045072967 -0.037909664 -0.06948526 -0.1032547 -0.14826553 -0.0073033655 -0.02491507 0.114667796 -0.21262735 0.073160246 -0.019018225 -0.012451215 0.10993069 0.0075843967 0.011079831 -0.0043658293 0.03349662 -0.028147183 -0.22520714 0.07226031 0.04852238 -0.08465033 -0.14218569 0.23352627 -0.105420075 -0.052729297 -0.022368621 0.13339952 -0.004333774 -0.073561534 0.052681144 0.06997581 -0.026421051 0.06695573 0.15250015 0.15132983 0.016563449 -0.06502367 0.03890327 0.13467084 -0.117807984 0.12610202 0.06459995 -0.084016636 -0.15515712 -0.04806086 0.032374777 0.16463841 -0.034400374 -0.121123046 -0.04226415 -0.13643596 0.03619335 -0.09847817 0.02806079 0.053788245 0.11324004 -0.19951354 0.024536017 -0.13196623 0.01266116 0.21158682 0.060782935 -0.15418853 -0.033715673 0.0727507 -0.12681106 -0.078366265 -0.010608714 -0.0080086 0.0053847297 0.1402899 -0.059867125 -0.08070268 -0.09686899 0.10836548 -0.14345682 -0.08796493 -0.062078707 -0.12526952 0.15107898 -0.14680412 -0.024507374 -0.049999338 -0.04666558 -0.1199777 -0.12215994 0.043438908 0.0034212368 -0.020545233 0.07026431 -0.15557371 0.02680402 0.042908266 -0.12718171 0.1637944 0.068995304 0.06504233 -0.08390828 0.13441382 0.090521984 0.016044758 -0.034655817 -0.051501513 -0.0015856547 0.051607963 0.050705772 -0.08980071 -0.08366802 0.046537373 -0.1247671 0.010594511 0.036197443 -0.086570844 0.06434197 0.058077585 -0.05021755 -0.01556202 0.038337003 0.08761313 -0.04990105 -0.011765226 -0.018263176 0.048769753 0.041852504 0.047093485 -0.12742892 0.12317649 0.14557558 0.054245226 0.11815527 -0.0017101341 -0.101927176 -0.057103813 0.012850026 -0.015461552 0.04313389 -0.15925068 0.016852492 -0.036640678
type 2 0.050081424 -0.017479688 0.020518512 0.10120092 0.12237692 -0.1380285 0.015112615 0.0738987 -0.030262772 0.054381736 -0.08543069 -0.05642209 0.042604793 0.10957215 -0.041537438 -0.14807531 -0.03680028 0.034346793 0.06706196 -0.14625478 0.12870833 -0.080538586 0.023617424 0.011833895 -0.029901423 -0.04756362 -0.096788086 -0.059609387 -0.12642592 0.07150146 0.12861161 0.06295808 0.02557487 0.09243367 -0.06551869 0.023647005 0.061003815 -0.08805182 -0.055704463 -0.09380914 -0.07096708 -0.017968984 -0.048698343 0.022828259 0.17079633 -0.004398056 -0.049210526 -0.058329206 0.078447 0.064725615 0.027134461 -0.07705967 -0.09973675 -0.07460737 -0.038700923 0.01526455 0.008959916 -0.092168234 -0.12561217 -0.009066552 -0.006975485 -0.035755757 -0.063781746 -0.09901124 -0.14470796 -0.009865288 -0.023485126 0.11372605 -0.20215541 0.0727599 -0.02165541 -0.014243322 0.10902612 0.008116034 0.0029718885 -0.003287657 0.026742887 -0.034113463 -0.2163277 0.0643988 0.04242533 -0.08125258 -0.12877727 0.22091863 -0.09603814 -0.046632167 -0.025548644 0.12553012 -0.0016032552 -0.06761431 0.04857635 0.066527136 -0.021912623 0.06270665 0.14996955 0.14830552 0.012995489 -0.055866327 0.04060725 0.12271202 -0.11805684 0.11855588 0.053123157 -0.07951422 -0.14551313 -0.049757086 0.026618952 0.1604715 -0.031827778 -0.113202505 -0.03908818 -0.13030858 0.032164797 -0.09181872 0.025018223 0.053273868 0.10686679 -0.1942098 0.028825028 -0.12351315 0.012804309 0.19984937 0.054889806 -0.14319414 -0.02413541 0.06322423 -0.12227569 -0.07329962 -0.008634075 -0.013821354 0.012326444 0.13371101 -0.05422377 -0.068912335 -0.09391105 0.10579829 -0.13265054 -0.0801683 -0.055268265 -0.11826243 0.14112015 -0.13468148 -0.023950508 -0.0513928 -0.049016047 -0.11002497 -0.11448799 0.045685355 0.000113492286 -0.016310783 0.072205625 -0.14313443 0.01988346 0.047747657 -0.11675987 0.14674589 0.06796094 0.05884684 -0.077557676 0.12384571 0.08046678 0.021177592 -0.026306229 -0.05467865 -0.00475745 0.04313868 0.050672956 -0.09462234 -0.07847849 0.045146137 -0.11925698 0.012556438 0.02997442 -0.08584197 0.06392437 0.05090561 -0.050200086 -0.01337042 0.03837676 0.08736889 -0.042482868 -0.012381919 -0.01369555 0.048445925 0.039070103 0.042989474 -0.12728295 0.11274739 0.13777208 0.055786505 0.10579902 0.0052814684 -0.09072959 -0.054034557 0.018212711 -0.018446717 0.036989965 -0.14586933 0.018131766 -0.031190036
to 0.06451108 -0.025773617 0.024376897 0.10314944 0.12952757 -0.1600276 0.0088818995 0.08840971 -0.032224588 0.054582965 -0.093790494 -0.062034164 0.04684906 0.12240582 -0.05030122 -0.16347751 -0.03617446 0.037526622 0.079413764 -0.16565438 0.14128064 -0.09776215 0.02492339 0.014932095 -0.038459867 -0.052851193 -0.10652391 -0.063084275 -0.13860923 0.08697131 0.13862142 0.07343884 0.03004419 0.10128786 -0.070053436 0.026097754 0.07117833 -0.10364136 -0.06673603 -0.10094023 -0.078255825 -0.021715155 -0.057424583 0.029939104 0.18828903 -0.008212534 -0.057641126 -0.06804658 0.08775437 0.07570777 0.0273037 -0.08609932 -0.11524218 -0.079872146 -0.044371538 0.017515855 0.00622264 -0.10391867 -0.14041603 -0.0047444254 -0.008059979 -0.03939277 -0.07511375 -0.109012984 -0.16122346 -0.008166655 -0.027013972 0.120907284 -0.21946898 0.07881066 -0.016962802 -0.012379465 0.1162311 0.010476953 0.009609273 0.00454811 0.037272457 -0.038445212 -0.2389815 0.07523437 0.05038177 -0.08212665 -0.14508551 0.25067607 -0.115911275 -0.05064454 -0.032828435 0.14528456 0.0028370635 -0.07642193 0.06062807 0.07497089 -0.026452253 0.07446032 0.15947296 0.16074528 0.018036392 -0.0688588 0.04512262 0.13549218 -0.12459659 0.13998374 0.063669324 -0.092082664 -0.16059242 -0.05610947 0.032063995 0.18016699 -0.03679671 -0.1266743 -0.04262015 -0.14314923 0.0348949 -0.10519102 0.032942157 0.05211165 0.11598481 -0.21487948 0.026910452 -0.13922435 0.010951652 0.21754177 0.06595856 -0.16281848 -0.036772016 0.06951279 -0.13618138 -0.08384138 -0.006522069 -0.012736086 0.00832898 0.14333235 -0.06263407 -0.08192899 -0.09986125 0.1161451 -0.1501974 -0.092701584 -0.06670266 -0.1376221 0.15085217 -0.15451905 -0.02438051 -0.051015973 -0.055910077 -0.12506112 -0.12110447 0.047986858 -0.0029968426 -0.018467648 0.08061727 -0.16766176 0.026248313 0.05180749 -0.13572422 0.1691982 0.07851197 0.07004477 -0.08996392 0.13811247 0.09293898 0.019578634 -0.034111135 -0.06091167 -0.0063732048 0.05533822 0.06324992 -0.09551321 -0.092335306 0.05400107 -0.13675608 0.015263409 0.036865063 -0.08823344 0.071448565 0.064872004 -0.061058305 -0.008022306 0.038688112 0.09579717 -0.050792564 -0.007985443 -0.017667035 0.048925154 0.046851046 0.0521137 -0.13993818 0.12213707 0.15519533 0.06179664 0.12646055 -0.00072197 -0.10813063 -0.06231425 0.019905537 -0.01795596 0.042476654 -0.16809116 0.011804526 -0.038067915
type 1 0.055481676 -0.02549752 0.024093976 0.09582541 0.1251061 -0.1423516 0.009416312 0.083732754 -0.023144145 0.05165948 -0.09370447 -0.05874541 0.035257146 0.11350923 -0.051191017 -0.15884012 -0.03461554 0.038131792 0.0761733 -0.15074344 0.13065949 -0.0890216 0.019616928 0.01942382 -0.033058327 -0.047731675 -0.10387007 -0.052937374 -0.13328825 0.08278239 0.12641236 0.06965805 0.024751758 0.09133362 -0.07105574 0.017313544 0.06033779 -0.09986694 -0.058427274 -0.09228443 -0.07277666 -0.016389793 -0.05170106 0.023694163 0.17281449 -0.009685682 -0.047391 -0.06514346 0.08102176 0.071783535 0.03142839 -0.08323704 -0.103202626 -0.0783577 -0.04188312 0.014111309 0.006897574 -0.09398603 -0.1288153 -0.0022845415 -0.008917567 -0.038080778 -0.06803854 -0.10166302 -0.14724939 -0.010091745 -0.017235454 0.11443156 -0.21054764 0.074304536 -0.01495564 -0.012331917 0.1119529 0.002353918 0.007264352 -0.00062370347 0.03358149 -0.035520293 -0.22408488 0.06816268 0.04016567 -0.07724668 -0.13831091 0.23446357 -0.10575763 -0.04968052 -0.024285724 0.13170382 -0.0034680315 -0.071701445 0.05434153 0.067223854 -0.021328997 0.061818965 0.15253145 0.14902356 0.017214838 -0.058548313 0.043100193 0.13438584 -0.12503359 0.13083225 0.0551735 -0.089030616 -0.15261525 -0.050776765 0.02565928 0.16070366 -0.034542374 -0.11684216 -0.044728722 -0.13128498 0.02789606 -0.098541275 0.03245243 0.05489313 0.11314304 -0.19440606 0.027986458 -0.12802711 0.015045725 0.20671056 0.0641702 -0.14434253 -0.024782725 0.07258746 -0.12899198 -0.08418333 -0.006588484 -0.00881107 0.011993915 0.14002198 -0.05462655 -0.0788341 -0.0900746 0.10520778 -0.14413568 -0.08089357 -0.056776345 -0.12692249 0.1427867 -0.14552853 -0.021124339 -0.0480764 -0.05240491 -0.11918483 -0.11907826 0.043483082 0.0017986088 -0.023079924 0.073184215 -0.15260342 0.01764828 0.04736905 -0.123803414 0.15846503 0.07552089 0.061432857 -0.08471375 0.13329054 0.087761045 0.021345725 -0.030223044 -0.051308997 0.00069613894 0.047542967 0.059408393 -0.090584956 -0.07949987 0.047957037 -0.1263872 0.00812375 0.02940549 -0.08273398 0.06990588 0.06143693 -0.055173364 -0.008471137 0.038452234 0.088691756 -0.04399741 -0.015179214 -0.00943887 0.04990862 0.041402802 0.050356567 -0.12324203 0.120392986 0.13952802 0.051352713 0.11960868 0.0040668664 -0.09560946 -0.060225558 0.011603784 -0.016790485 0.047399934 -0.1573046 0.011331999 -0.029682893
or 0.058424976 -0.017422134 0.019321 0.09309863 0.12346498 -0.14263701 0.013130261 0.07877858 -0.022450598 0.048252597 -0.08265523 -0.058563963 0.034425847 0.1072891 -0.04992471 -0.14524068 -0.02930667 0.03293035 0.07227621 -0.14618674 0.13189785 -0.08280104 0.019402755 0.012654746 -0.035115644 -0.046896074 -0.09509347 -0.056002796 -0.123511635 0.07396168 0.12166418 0.064750366 0.022744896 0.08482833 -0.0688497 0.016826287 0.06725695 -0.08863023 -0.057376713 -0.086450696 -0.0656228 -0.020698994 -0.04548755 0.025622642 0.17385618 -8.504251e-05 -0.05271593 -0.061293207 0.08248988 0.06946159 0.028529251 -0.07438633 -0.097831964 -0.07677944 -0.042357616 0.012333436 0.013041519 -0.08967474 -0.12928145 -0.003368771 -0.007508209 -0.036686018 -0.06772353 -0.09544147 -0.1378928 -0.006701037 -0.02165292 0.11031952 -0.1982006 0.070661835 -0.01969998 -0.019776944 0.10934854 0.004702219 0.006993428 -0.0044175405 0.035047174 -0.02984803 -0.21184747 0.06634449 0.039201837 -0.07741708 -0.13167812 0.21628608 -0.09691445 -0.04643187 -0.022731483 0.13115041 -0.0016739498 -0.07401286 0.054763798 0.06755707 -0.021358687 0.0675531 0.14657307 0.14080656 0.01210047 -0.05550848 0.035153035 0.12949276 -0.119116165 0.12454492 0.058336064 -0.08105691 -0.1469971 -0.049119093 0.025474638 0.160765 -0.03205664 -0.10722651 -0.04277576 -0.13404039 0.02963212 -0.08949049 0.023040773 0.047115043 0.10170666 -0.18669862 0.02740839 -0.119681746 0.010123962 0.20141557 0.054527327 -0.14328101 -0.031821277 0.06518291 -0.12054114 -0.07325869 -0.0072831544 -0.015412689 0.004977493 0.12828845 -0.054835055 -0.06791618 -0.09319946 0.10768202 -0.130537 -0.08601809 -0.05984678 -0.11567644 0.1435017 -0.1404704 -0.026207026 -0.045075074 -0.047362506 -0.10705403 -0.11659937 0.037602585 -0.000820274 -0.02530754 0.06821415 -0.14957955 0.02598575 0.048466485 -0.11982947 0.15460312 0.073899396 0.059018955 -0.07508488 0.12866867 0.0837281 0.014949267 -0.033744056 -0.05547635 0.0011555281 0.042272348 0.05145345 -0.084913656 -0.07682198 0.05027808 -0.12434553 0.009624613 0.03490931 -0.08412321 0.06628723 0.059797917 -0.052548338 -0.01244013 0.035140343 0.08471434 -0.048585393 -0.012088962 -0.013546826 0.047092106 0.03503347 0.04975638 -0.12649247 0.10848357 0.13942836 0.057011705 0.10941982 0.001466495 -0.09566318 -0.06184455 0.010985233 -0.010648788 0.044513617 -0.14434482 0.017387467 -0.02979869
a 0.058739122 -0.028748466 0.021968247 0.103974424 0.13071251 -0.14948587 0.0090198135 0.0857734 -0.028102545 0.056489766 -0.09556848 -0.061394878 0.036779094 0.12426954 -0.054690354 -0.15425885 -0.041000344 0.03713486 0.07438879 -0.15964486 0.14075075 -0.08869294 0.022915365 0.017998945 -0.033771846 -0.04807713 -0.09921177 -0.06332898 -0.13826355 0.080739036 0.13615072 0.06846386 0.025559708 0.09003253 -0.068623826 0.024865914 0.06918634 -0.10001361 -0.06594316 -0.10126528 -0.07515593 -0.024482986 -0.055810634 0.028578876 0.18724272 -0.0032907645 -0.058069166 -0.06790725 0.09153547 0.074010834 0.025748862 -0.08606958 -0.10691541 -0.07551432 -0.043194626 0.018580263 0.005806147 -0.10404803 -0.14220855 -0.005727476 -0.0010923501 -0.03437116 -0.07261088 -0.10335416 -0.15064658 -0.008676648 -0.02683278 0.1234834 -0.2092256 0.08031939 -0.014543455 -0.011803209 0.11339963 0.0046461 0.008948981 -0.0053733015 0.037401985 -0.03574467 -0.22318324 0.06705657 0.047224227 -0.08774454 -0.14732148 0.23251285 -0.110682234 -0.051386613 -0.032136086 0.13516529 -0.0035073985 -0.07762735 0.05806867 0.07341691 -0.020320283 0.07216078 0.1531894 0.15796278 0.008358874 -0.06493167 0.036519486 0.13618551 -0.12341362 0.13403179 0.06189888 -0.09407487 -0.15044048 -0.052645598 0.03532933 0.17133206 -0.035090707 -0.1219842 -0.045317143 -0.14177705 0.0402427 -0.10054671 0.032830678 0.048053045 0.113544814 -0.2036361 0.031055477 -0.13397607 0.016625049 0.20954409 0.059001878 -0.15593237 -0.032087784 0.06839625 -0.12957916 -0.08786414 -0.007920087 -0.012640944 0.00846077 0.14351729 -0.064052805 -0.08067666 -0.093874276 0.11607139 -0.14935234 -0.08478032 -0.057413675 -0.13181224 0.15323815 -0.15260379 -0.021121733 -0.049547803 -0.05185565 -0.12207167 -0.1229915 0.0441418 -0.00059656176 -0.020998186 0.07971874 -0.15321591 0.027168626 0.045817915 -0.121910736 0.16216046 0.07741921 0.06531342 -0.08635607 0.13542986 0.08521962 0.01546675 -0.03726709 -0.056132574 0.00012541037 0.05002812 0.0578163 -0.09418895 -0.080592364 0.04655471 -0.12813687 0.0067460374 0.036281988 -0.08244601 0.07120227 0.0618708 -0.051066518 -0.008649418 0.041762184 0.09776108 -0.049909823 -0.007607623 -0.011245664 0.04666312 0.045856144 0.051930398 -0.12616473 0.1217948 0.14909968 0.056780476 0.124149 0.0027642993 -0.09645047 -0.06294099 0.018780358 -0.0114107765 0.042723104 -0.16099773 0.016159436 -0.039440833
your 0.06989084 -0.031135123 0.018922193 0.1177046 0.14579773 -0.17021182 0.013240971 0.096658014 -0.035732508 0.059776 -0.10609103 -0.06606708 0.046430256 0.13896476 -0.052550055 -0.17703831 -0.039107684 0.046513215 0.08849198 -0.16964802 0.15572578 -0.10682268 0.021111 0.015045518 -0.034890577 -0.060159907 -0.11917773 -0.06154652 -0.14760336 0.088401474 0.15451896 0.0781134 0.025431255 0.10507275 -0.07915411 0.023044704 0.075590506 -0.10705729 -0.06486281 -0.112188935 -0.08438119 -0.026547216 -0.05498475 0.031481966 0.20285237 -0.0035089655 -0.06378962 -0.07155667 0.102190845 0.07918102 0.029293882 -0.09556538 -0.12149833 -0.086882934 -0.047088977 0.023680184 0.0075672166 -0.1096972 -0.14865169 -0.006489837 -0.003911783 -0.03488272 -0.07741161 -0.114001304 -0.17046781 -0.0066763433 -0.021401104 0.13859423 -0.23856254 0.088646464 -0.01688048 -0.020703156 0.12859975 0.007545065 0.014434168 -0.0011187824 0.034508355 -0.032749586 -0.25888607 0.0741952 0.04824533 -0.093942896 -0.15993203 0.26755247 -0.114131615 -0.056837305 -0.030754369 0.15456535 -0.0018449082 -0.08846959 0.06480484 0.076703705 -0.026383769 0.08127512 0.17579457 0.17336108 0.01627818 -0.07138291 0.047467522 0.15010533 -0.13597572 0.14849566 0.068854205 -0.09782398 -0.17759502 -0.05242111 0.039004173 0.18721174 -0.03498892 -0.13566925 -0.04784094 -0.15269558 0.04176153 -0.110347524 0.033141483 0.059933152 0.12963292 -0.22954302 0.027797058 -0.14589545 0.0128540695 0.23938523 0.06550244 -0.17102043 -0.038497426 0.081691235 -0.14357981 -0.09739283 -0.006738228 -0.008166941 0.0085378075 0.15481207 -0.06552229 -0.08782173 -0.11291529 0.12766583 -0.16468096 -0.10176285 -0.067927815 -0.14724092 0.16655278 -0.15984885 -0.02548028 -0.054687377 -0.058966663 -0.13228619 -0.13540988 0.04660578 -0.00087495253 -0.023330603 0.08000334 -0.1793295 0.019222664 0.049572792 -0.13960744 0.18556014 0.08548287 0.07277094 -0.09085698 0.14890824 0.09752481 0.016303033 -0.037163056 -0.065420985 -0.0034104532 0.059308287 0.059825137 -0.10939972 -0.09736974 0.0544604 -0.14615594 0.013044441 0.039763767 -0.09948052 0.07221253 0.066566914 -0.058875933 -0.01049312 0.040783312 0.10249788 -0.055247966 -0.014202854 -0.013418691 0.054616224 0.0497696 0.05371553 -0.14633313 0.13165103 0.16010128 0.058669936 0.13239902 0.0010266842 -0.1163052 -0.06422297 0.012139595 -0.021640942 0.045534946 -0.17391092 0.018997088 -0.0351821
with 0.055293392 -0.021540428 0.017050896 0.10066912 0.11853137 -0.136056 0.009375154 0.07598032 -0.02342958 0.05135892 -0.084233105 -0.052965496 0.040350568 0.11215102 -0.045258682 -0.14847071 -0.035601255 0.03660142 0.066096224 -0.14221619 0.12517221 -0.08291076 0.014973865 0.01899483 -0.031598426 -0.05125057 -0.09230558 -0.055176888 -0.12906149 0.07241735 0.12361488 0.060460746 0.02379869 0.08746204 -0.06679429 0.021996826 0.062234737 -0.08521067 -0.055846266 -0.08756824 -0.06709164 -0.019726843 -0.05304453 0.027288979 0.16792682 -0.008819477 -0.05296266 -0.06116327 0.08207494 0.06893781 0.029283693 -0.078759134 -0.09852304 -0.07274598 -0.042927116 0.019052928 0.010115301 -0.092620045 -0.1312826 -0.00816143 -0.0038486065 -0.029395277 -0.064445734 -0.10167135 -0.14285013 -0.006773068 -0.021270946 0.10822352 -0.19216006 0.067682534 -0.014143042 -0.015260979 0.09964511 0.0050318604 0.010901388 0.0043568118 0.031225888 -0.027040798 -0.21130021 0.06343464 0.03988453 -0.07570878 -0.13111235 0.21502072 -0.101033755 -0.042076293 -0.024879634 0.12558185 -0.0029188127 -0.06534596 0.04675454 0.066552795 -0.022493001 0.067047715 0.1464958 0.1397157 0.01321548 -0.059085056 0.032820664 0.1219926 -0.11352784 0.12288508 0.061166637 -0.07866562 -0.1459989 -0.042933848 0.025786068 0.15545186 -0.02995576 -0.10645287 -0.0373189 -0.124495976 0.03578339 -0.090772465 0.023340607 0.045351606 0.106271796 -0.18880188 0.024277514 -0.116181195 0.010610969 0.19201739 0.055911142 -0.13886628 -0.027044449 0.067741536 -0.1203658 -0.07527531 -0.0037034464 -0.010132913 0.011065771 0.12705645 -0.05223023 -0.075575024 -0.08627268 0.09695485 -0.13385879 -0.08622675 -0.05563519 -0.12096082 0.13468982 -0.13534318 -0.021332033 -0.048717074 -0.05275118 -0.11193294 -0.11016223 0.040515315 -0.006214163 -0.020079402 0.07322255 -0.1426947 0.015625909 0.044901226 -0.11973662 0.14454252 0.06883346 0.05877734 -0.08166978 0.11967205 0.079337165 0.02042634 -0.034780554 -0.048459876 -0.0031523611 0.04618429 0.05690877 -0.08527279 -0.07888187 0.048340604 -0.117157646 0.012930415 0.03139876 -0.08284114 0.06272077 0.05130191 -0.05017167 -0.00821709 0.037601877 0.090755984 -0.048333813 -0.014433045 -0.008958652 0.044836704 0.034531977 0.045939427 -0.11904365 0.108634524 0.1298613 0.053860474 0.11396864 -0.0034489976 -0.09167581 -0.057777047 0.010365884 -0.013771683 0.037965745 -0.1418528 0.009815096 -0.030791363
that 0.06274304 -0.023249213 0.021864824 0.116552435 0.13649203 -0.1633988 0.011040001 0.088559285 -0.03299872 0.056373566 -0.10261397 -0.06465979 0.04724748 0.12994899 -0.048928853 -0.16615337 -0.041712966 0.04169394 0.08463979 -0.16486233 0.14777434 -0.0957525 0.017319467 0.021344991 -0.032858826 -0.052312538 -0.11355575 -0.059919246 -0.14229031 0.08574494 0.14078438 0.07827862 0.022686841 0.097454846 -0.0738315 0.028488893 0.07552603 -0.10702178 -0.06968659 -0.09810428 -0.0770547 -0.024421262 -0.060257904 0.025012743 0.19436501 -0.0062016165 -0.057617944 -0.06892599 0.09131721 0.07421577 0.035648376 -0.08995166 -0.1186155 -0.07924757 -0.04526834 0.02324214 0.0067607267 -0.10941714 -0.14765967 -0.0073406463 -0.008564439 -0.03892699 -0.07684009 -0.109440446 -0.15640785 -0.009590619 -0.025985653 0.12746873 -0.22824004 0.08529768 -0.022273228 -0.016557029 0.11969179 0.0026299853 0.0054205516 0.0030518633 0.030710451 -0.035653755 -0.2413599 0.07763583 0.04550963 -0.0872609 -0.14703749 0.24927539 -0.11490931 -0.051279727 -0.027695186 0.14830907 0.003872906 -0.08006616 0.058971632 0.075137876 -0.031182291 0.07520014 0.16726601 0.16042085 0.013735632 -0.06791517 0.043580893 0.14702117 -0.13335834 0.13595419 0.068990484 -0.09999804 -0.1700208 -0.05496465 0.029230235 0.1815006 -0.033707213 -0.12898304 -0.04963198 -0.14852807 0.036098886 -0.10428935 0.034614462 0.0594494 0.124197885 -0.22184083 0.03438957 -0.13905096 0.017799532 0.22784251 0.068349496 -0.1676301 -0.037942037 0.0796651 -0.1377733 -0.08804846 -0.005885536 -0.013020781 0.014807495 0.150643 -0.06923315 -0.08720915 -0.10364627 0.1137971 -0.15082583 -0.09352561 -0.06826401 -0.13384667 0.16380085 -0.15490784 -0.022723375 -0.06116429 -0.055745788 -0.13172865 -0.13101433 0.049317196 -0.0025126743 -0.022791134 0.08246725 -0.16795193 0.025824767 0.05398665 -0.13925174 0.17745031 0.082345515 0.073304296 -0.08894803 0.1407697 0.091851264 0.019365916 -0.03710183 -0.0562684 -0.0027383356 0.054408606 0.06240724 -0.10640618 -0.08692289 0.058108207 -0.13871384 0.012685754 0.033052675 -0.09612615 0.076115154 0.06127082 -0.055902787 -0.012257718 0.039650492 0.101894945 -0.053123813 -0.014008296 -0.013192916 0.053640477 0.04328688 0.05297008 -0.14356102 0.13311337 0.1491982 0.0627858 0.12903114 -0.0032789381 -0.10927062 -0.06975176 0.01335646 -0.011595679 0.051664926 -0.16912946 0.015478204 -0.0330008
people with 0.041292157 -0.018150505 0.017022433 0.07361124 0.09005688 -0.116365835 0.013000533 0.06362912 -0.023752166 0.038022272 -0.069440104 -0.041413408 0.029395534 0.08875279 -0.03949887 -0.116744444 -0.026690561 0.033193327 0.05135595 -0.11733955 0.09782573 -0.06908742 0.010938863 0.01468853 -0.028603738 -0.042273946 -0.0740334 -0.04820773 -0.10084641 0.05624619 0.10562083 0.057323895 0.0191587 0.07254218 -0.050026175 0.013859401 0.054635234 -0.07812727 -0.041210853 -0.06975173 -0.057295278 -0.017360516 -0.034298703 0.015944945 0.14059642 -0.0062542693 -0.035317127 -0.0477507 0.068674356 0.051805366 0.024252128 -0.057272457 -0.078028575 -0.05714615 -0.030119749 0.01704559 0.011150508 -0.06913671 -0.098567106 3.8571423e-05 0.0015339198 -0.027310902 -0.055408243 -0.07816945 -0.11178353 -0.0074366303 -0.021258855 0.08353516 -0.15904967 0.060955968 -0.015713349 -0.01558843 0.08690285 0.0045457426 0.0068714996 0.0011559153 0.02565984 -0.021178842 -0.1687219 0.053149063 0.038728043 -0.05988099 -0.10817118 0.17982855 -0.076649435 -0.036780085 -0.022766754 0.10460283 0.0025734385 -0.0523964 0.04071322 0.04787237 -0.01846967 0.050741456 0.11784134 0.10956003 0.01412845 -0.050456684 0.03276314 0.09546298 -0.08761383 0.10072946 0.045933615 -0.06846813 -0.11543402 -0.03645622 0.019211983 0.12946504 -0.023551092 -0.087295346 -0.035548054 -0.09880978 0.026169019 -0.07329634 0.01650295 0.041600075 0.087482125 -0.14665371 0.017708175 -0.10016748 0.006918976 0.15746287 0.04203323 -0.11772411 -0.02277224 0.053457987 -0.09976212 -0.06361376 -0.00529269 -0.0055917515 0.0065907203 0.10490646 -0.04836161 -0.062393364 -0.072323635 0.0862667 -0.10451932 -0.06672325 -0.04419916 -0.10112208 0.11004643 -0.11248403 -0.015458173 -0.039888155 -0.041094057 -0.094006896 -0.09059653 0.03022599 -0.0023135752 -0.01822002 0.0549984 -0.11933215 0.01180863 0.03461708 -0.0942879 0.11911645 0.052208856 0.045870032 -0.06852967 0.098795675 0.06840776 0.012053215 -0.02303233 -0.039921533 0.0023355314 0.039677195 0.0470104 -0.07670163 -0.06762636 0.034059517 -0.10018227 0.0038290014 0.021619478 -0.06669588 0.051235463 0.041594893 -0.045993574 -0.0069697206 0.028549438 0.072539106 -0.031537987 -0.005249911 -0.011267048 0.037808068 0.02807485 0.037918217 -0.09613239 0.09436253 0.10578225 0.0432697 0.08564161 -0.0007589622 -0.069914974 -0.047777746 0.010427295 -0.016030252 0.028776307 -0.11459558 0.0079857195 -0.02399613
in 0.055630356 -0.02509502 0.015290483 0.10855544 0.13150701 -0.14851235 0.014679963 0.08235536 -0.033925675 0.06134545 -0.09686006 -0.05382959 0.04344762 0.119700074 -0.05419081 -0.16085334 -0.032915648 0.03448672 0.07661473 -0.16013345 0.14265022 -0.09422968 0.025821835 0.013555952 -0.03937644 -0.05706273 -0.10519376 -0.056380372 -0.13706231 0.08668382 0.13725194 0.072746046 0.026104338 0.09822111 -0.072052196 0.026560185 0.06257325 -0.09769918 -0.06268473 -0.09634732 -0.0710097 -0.021984871 -0.053775016 0.025351878 0.18434839 -0.0061904504 -0.05101151 -0.068567045 0.09189351 0.07268377 0.029780433 -0.08122704 -0.10817958 -0.07741742 -0.046073273 0.019244503 0.0088624 -0.1010882 -0.14346758 -0.011502449 -0.0035670307 -0.039290693 -0.07443793 -0.108606376 -0.15510304 -0.010323682 -0.019013835 0.11913413 -0.217359 0.07944074 -0.019102924 -0.019140787 0.11313755 0.0047601634 0.006221844 -0.0051589543 0.036774635 -0.030273147 -0.23003541 0.07377565 0.04619616 -0.080419086 -0.14347713 0.24168675 -0.106944904 -0.05355726 -0.03141439 0.14329831 -0.000893357 -0.07534076 0.05946984 0.06832854 -0.026394095 0.06493935 0.15334511 0.15080604 0.014854001 -0.06209636 0.044152606 0.13638338 -0.124067046 0.13413954 0.06024851 -0.08967753 -0.15193503 -0.050527114 0.03476417 0.16711155 -0.0295644 -0.11855188 -0.040433608 -0.14438404 0.034329075 -0.09832532 0.02583394 0.04939497 0.11667958 -0.207902 0.025451574 -0.12607527 0.008920741 0.21807255 0.06290145 -0.15108635 -0.032433502 0.068101496 -0.13233344 -0.08396639 -0.010808545 -0.014049968 0.012741415 0.1382342 -0.06378458 -0.082006775 -0.09976654 0.10690926 -0.14556605 -0.084454335 -0.05625784 -0.13252375 0.14517465 -0.15003155 -0.029222531 -0.055587 -0.055556584 -0.11746304 -0.12533459 0.04687484 -0.0006277202 -0.01887822 0.07523847 -0.16365275 0.025495034 0.04486525 -0.12535682 0.16406175 0.079926826 0.06590556 -0.08711446 0.13795763 0.085131444 0.014431542 -0.03160289 -0.059119835 -0.005647802 0.049023885 0.05214266 -0.096005306 -0.08503308 0.049459513 -0.12888184 0.01279455 0.037676442 -0.09144866 0.06515091 0.055058263 -0.0603274 -0.013596381 0.037112292 0.09022232 -0.050508697 -0.013596191 -0.010493861 0.04921863 0.046160758 0.04567691 -0.13457203 0.12088756 0.14914607 0.057059392 0.12063337 0.0013011033 -0.098900065 -0.06645045 0.017251644 -0.012033438 0.047649477 -0.1584551 0.010467944 -0.038042355
is 0.061455008 -0.022995956 0.015036101 0.10431677 0.12244821 -0.14365815 0.013152429 0.07804931 -0.027004382 0.058126535 -0.094036646 -0.05718771 0.044571795 0.12160981 -0.05357036 -0.15254922 -0.030782765 0.03589475 0.07466899 -0.15346678 0.13857016 -0.09061157 0.022720408 0.020322049 -0.031348553 -0.05455733 -0.10150946 -0.056964215 -0.1325743 0.08119716 0.13715407 0.07116372 0.029155916 0.08746023 -0.07226795 0.023236629 0.06829827 -0.09672347 -0.06380465 -0.09628941 -0.07748255 -0.015060401 -0.049825978 0.020844445 0.18246172 -0.002280735 -0.055913817 -0.06643258 0.08622607 0.07584044 0.023446279 -0.07992578 -0.10816124 -0.07674047 -0.04152326 0.014479308 0.0070543205 -0.096894406 -0.1392307 -0.002213432 -0.0016085143 -0.040027026 -0.072952226 -0.10250288 -0.1513401 -0.013897969 -0.025501186 0.115021154 -0.20410441 0.079891995 -0.016435558 -0.020270659 0.11349088 0.007823038 0.007937748 -0.0042613926 0.030744169 -0.031741872 -0.22695136 0.06939986 0.045026816 -0.08558328 -0.1437213 0.23566347 -0.10902922 -0.05269475 -0.025587628 0.1351205 -0.0028149665 -0.07680121 0.05295982 0.071745 -0.02738743 0.06487519 0.15038063 0.14856242 0.008079649 -0.06766489 0.044283926 0.1355912 -0.12399867 0.12264061 0.05864655 -0.09070667 -0.14733508 -0.04835523 0.027365604 0.16455798 -0.037382163 -0.11571607 -0.04437277 -0.13751923 0.036518432 -0.09344427 0.030598402 0.047817763 0.11389516 -0.2038724 0.023732452 -0.13131508 0.011079524 0.20893429 0.05906353 -0.14878663 -0.025455892 0.07289726 -0.12528686 -0.07753717 -0.0070032575 -0.012322005 0.0053911884 0.1420769 -0.064041354 -0.0781992 -0.090887785 0.107775696 -0.14088659 -0.09105308 -0.05635796 -0.12331463 0.14173578 -0.14656983 -0.020127434 -0.050133895 -0.051973477 -0.11654873 -0.12310219 0.050673824 -0.002638985 -0.024084583 0.07572745 -0.15517655 0.01861174 0.049717717 -0.12618199 0.15672554 0.07719743 0.06589128 -0.07973662 0.13120979 0.087281786 0.013953176 -0.030438064 -0.051551353 -0.003851505 0.04782618 0.05353629 -0.094522305 -0.08717454 0.05225517 -0.12589157 0.014752707 0.03023913 -0.08840213 0.06314084 0.054071214 -0.053271774 -0.009763221 0.038002376 0.093906395 -0.051768757 -0.01241159 -0.017120657 0.04895546 0.039544284 0.052996658 -0.1305086 0.121173084 0.14314812 0.056052208 0.11726259 0.004556024 -0.096947424 -0.056311227 0.01649029 -0.0115715545 0.046558823 -0.1606201 0.010755848 -0.034396462
such as 0.05279775 -0.019896945 0.019141233 0.09766919 0.11283979 -0.1347511 0.013556576 0.07528497 -0.023971843 0.052983586 -0.08459704 -0.056645673 0.037883654 0.10258961 -0.046680156 -0.14832073 -0.03303258 0.030336097 0.07177039 -0.141753 0.12837775 -0.08684536 0.016493237 0.015331105 -0.03221331 -0.046769768 -0.09455087 -0.052915853 -0.1258296 0.06782429 0.12444286 0.06372755 0.02482246 0.08116086 -0.06183578 0.014802319 0.06520911 -0.08562049 -0.05819871 -0.082222074 -0.07005079 -0.023632945 -0.04667567 0.024132565 0.1615659 -0.008995825 -0.04349648 -0.056905814 0.079321936 0.06585571 0.024366362 -0.0734749 -0.09517657 -0.064269446 -0.042242315 0.016716912 0.01135841 -0.093001984 -0.12918837 -0.0010170789 -0.00064250914 -0.03454017 -0.062664144 -0.09481855 -0.13735047 -0.0098507805 -0.022293404 0.110963926 -0.18988888 0.065130726 -0.01650873 -0.016043505 0.105528876 0.0043649306 0.010955122 0.00082928344 0.02683464 -0.024615997 -0.20289159 0.0611619 0.03880334 -0.07674591 -0.13074599 0.21473452 -0.09992556 -0.04838113 -0.02378808 0.12455094 0.0029737921 -0.069600776 0.049109176 0.06544267 -0.019832166 0.062465224 0.14517902 0.1401386 0.00788544 -0.05762113 0.032128755 0.11765723 -0.11285557 0.113137975 0.05956079 -0.08007673 -0.14056672 -0.047531236 0.02307068 0.14762984 -0.024730224 -0.10888249 -0.036322117 -0.12607278 0.03616986 -0.08732854 0.02624577 0.04552921 0.10195454 -0.18394877 0.028439868 -0.114089206 0.0118246265 0.19291712 0.05753485 -0.14060998 -0.023360647 0.06424356 -0.1181047 -0.070649445 -0.0070210127 -0.0065421895 0.0072444784 0.13016477 -0.0529533 -0.07334788 -0.088785 0.10476688 -0.12918884 -0.082901135 -0.054192223 -0.11788904 0.13520978 -0.13725159 -0.018015472 -0.046154376 -0.043095738 -0.10519969 -0.11117496 0.04300473 -0.0025520986 -0.024355965 0.073092826 -0.13759814 0.024760688 0.040604662 -0.119425856 0.14840758 0.06349707 0.06264716 -0.07619096 0.12306373 0.08265157 0.016775873 -0.030923715 -0.051510543 0.0027299866 0.04072421 0.050308865 -0.08804167 -0.073589295 0.049092118 -0.1184064 0.011444255 0.028557964 -0.07687648 0.06600437 0.05453564 -0.052908503 -0.012445652 0.03814779 0.08912193 -0.039708063 -0.012596157 -0.013344349 0.039803162 0.034754436 0.046106074 -0.12252656 0.10500196 0.13412961 0.055347227 0.11138216 0.0010585071 -0.09394757 -0.059495084 0.013980842 -0.018689554 0.036394887 -0.14247406 0.011539663 -0.036176432
for 0.06153577 -0.028283207 0.01616708 0.10337039 0.12864248 -0.15086368 0.008024491 0.08604148 -0.024737693 0.05292799 -0.08851252 -0.05359987 0.036575723 0.11874032 -0.048046608 -0.15568659 -0.038193624 0.033695538 0.0772605 -0.15907453 0.13422488 -0.09306626 0.023709059 0.012714497 -0.030668387 -0.0530563 -0.10127618 -0.0553824 -0.13586047 0.08454831 0.13434495 0.06613687 0.029384375 0.0915133 -0.068446204 0.02061539 0.06286755 -0.10159966 -0.058595188 -0.09735938 -0.07366815 -0.025097832 -0.05521719 0.02191394 0.18794847 -0.0087644 -0.051587153 -0.06446965 0.08740074 0.0766616 0.027378956 -0.08573845 -0.10680543 -0.07413989 -0.039022036 0.015219346 0.009993064 -0.095955044 -0.14030744 -0.0031094514 -0.0067616873 -0.034844592 -0.071352415 -0.103478625 -0.15294404 -0.009486891 -0.018028595 0.124190874 -0.21719609 0.08037406 -0.016237184 -0.0173568 0.11768352 0.0035613554 0.007234033 -0.0035490014 0.030810084 -0.03222217 -0.2293942 0.06710715 0.04928009 -0.08571757 -0.14562136 0.24031012 -0.10150763 -0.048967518 -0.02854036 0.13790427 -0.0016576549 -0.07196002 0.051524833 0.07135603 -0.023109222 0.06737881 0.15663537 0.15569912 0.01821953 -0.06213512 0.045812566 0.13108449 -0.12165962 0.12848374 0.058778495 -0.08984237 -0.15686294 -0.05314161 0.032435846 0.17429557 -0.03582733 -0.124376096 -0.04467968 -0.1348492 0.029012017 -0.09397413 0.028633842 0.05394646 0.11197533 -0.20578812 0.029597918 -0.12642771 0.008981157 0.2116896 0.06285158 -0.14965062 -0.027307894 0.068450786 -0.12416232 -0.085873894 -0.008797433 -0.007581363 0.0119518535 0.13703583 -0.060876694 -0.0823996 -0.09685169 0.11388212 -0.14822027 -0.086000614 -0.05655045 -0.13060045 0.14397538 -0.1486933 -0.026138343 -0.05055774 -0.04807712 -0.1174867 -0.12196872 0.04779051 -0.005470713 -0.022078188 0.07503474 -0.15363303 0.018960379 0.04392293 -0.12594593 0.16341326 0.07147256 0.06130631 -0.0860964 0.13244632 0.083067365 0.016779125 -0.035015676 -0.05440347 -0.0029324566 0.05025548 0.057087082 -0.0974328 -0.08279193 0.0505473 -0.12610638 0.009940069 0.028923072 -0.08690917 0.071970396 0.056384847 -0.05854999 -0.012809421 0.042365402 0.09309597 -0.043263018 -0.016833823 -0.008779118 0.043429222 0.0457875 0.05130886 -0.12996154 0.11734754 0.1484135 0.058737725 0.11639881 -0.0041701524 -0.0962572 -0.06426472 0.010542003 -0.013018629 0.042123698 -0.16333279 0.01883495 -0.036343977
are 0.06482001 -0.02859739 0.019821575 0.11452108 0.13956103 -0.17139363 0.007955903 0.09691276 -0.029408509 0.061294124 -0.103557095 -0.06780367 0.049681626 0.13769664 -0.055510465 -0.18136422 -0.041466158 0.044542044 0.08247258 -0.17205162 0.15839651 -0.10086195 0.020215066 0.020402746 -0.03964645 -0.06256498 -0.1112279 -0.07066002 -0.1535161 0.089952946 0.14648078 0.07866495 0.03065296 0.102915 -0.08327236 0.028822059 0.07303328 -0.11441566 -0.06836687 -0.10771901 -0.07955545 -0.023386776 -0.05448011 0.02296706 0.20712239 -0.0016563948 -0.059390884 -0.07365528 0.09820537 0.07995404 0.027817182 -0.09571358 -0.11956424 -0.08769419 -0.04378247 0.018372735 0.013341517 -0.109623685 -0.15059744 -0.011523882 -0.00311173 -0.041326065 -0.081365444 -0.118225925 -0.1708166 -0.007723823 -0.026026245 0.13480373 -0.24091907 0.08777773 -0.01605293 -0.018677963 0.13046671 0.005927287 0.013014704 0.004622516 0.036893733 -0.037523445 -0.25933394 0.08275511 0.050411664 -0.09221055 -0.16003422 0.26964876 -0.11517575 -0.056256376 -0.030503266 0.15745625 0.0005384421 -0.08097318 0.06162087 0.07847806 -0.025345149 0.07540996 0.17313045 0.17731965 0.009827724 -0.07246426 0.043953605 0.152968 -0.13484016 0.14326963 0.07137087 -0.10166719 -0.17830555 -0.057058632 0.033524096 0.1875014 -0.036787275 -0.1365533 -0.04487772 -0.15038557 0.03741775 -0.109544314 0.03154346 0.058984015 0.12284467 -0.22625183 0.03314208 -0.14063813 0.017156502 0.23988684 0.07228044 -0.17502046 -0.034570932 0.076112606 -0.13991642 -0.0888162 -0.011681062 -0.012923404 0.011956682 0.15967698 -0.06668604 -0.09133914 -0.10293148 0.12051699 -0.16445142 -0.10202108 -0.06991901 -0.14650361 0.16179492 -0.16502202 -0.030063858 -0.060169917 -0.056057725 -0.13114013 -0.13405879 0.050121687 0.0036153968 -0.02406883 0.08765649 -0.17318721 0.019744541 0.04820779 -0.13694833 0.18362527 0.08269403 0.0741125 -0.09838224 0.14696677 0.09453524 0.024310477 -0.038520016 -0.0678397 -0.0061785583 0.058107506 0.06191748 -0.11003765 -0.09530035 0.0553594 -0.14666745 0.010277521 0.040398616 -0.09636181 0.07363318 0.067053504 -0.059262626 -0.018271005 0.038482938 0.10785014 -0.057737943 -0.013525435 -0.02003547 0.058309283 0.044169396 0.052723344 -0.14760567 0.13411209 0.16531269 0.06768541 0.13274269 0.001734737 -0.10937021 -0.06909086 0.013601723 -0.017092196 0.050792806 -0.17491941 0.014510202 -0.045387
with type 0.043947972 -0.01162428 0.010342371 0.07252301 0.086652435 -0.10263517 0.01270716 0.057145428 -0.017157717 0.042822093 -0.06367705 -0.044585895 0.029709388 0.08273089 -0.03669568 -0.10916963 -0.026186274 0.031985555 0.052674633 -0.10850745 0.09504808 -0.06916058 0.009176782 0.013843654 -0.027388986 -0.03537117 -0.07149003 -0.04513241 -0.097369954 0.05395358 0.09037327 0.05041296 0.022149252 0.0625872 -0.051858146 0.02016789 0.052193675 -0.063998476 -0.04801877 -0.06415015 -0.056103546 -0.01123674 -0.033445384 0.015714588 0.13270715 -0.00725161 -0.03541513 -0.042627662 0.06454161 0.053323805 0.018891342 -0.055659153 -0.07813583 -0.05773914 -0.029963452 0.0071041314 0.0069376873 -0.06899029 -0.09299233 -0.007181782 -0.004110978 -0.028002 -0.054508846 -0.07454716 -0.10256816 -0.010200663 -0.017073669 0.08812909 -0.14985919 0.052565563 -0.009224103 -0.010696411 0.07876029 0.008526354 0.010031547 0.0008218913 0.024312086 -0.02401333 -0.1554013 0.051795315 0.029523201 -0.06133314 -0.1002203 0.16254927 -0.07336047 -0.04097018 -0.020334853 0.09898364 0.00088758714 -0.05114492 0.03366243 0.051242337 -0.014801125 0.049732286 0.11373599 0.10856343 0.012515858 -0.040121485 0.028279215 0.094348095 -0.08641004 0.08814539 0.045698095 -0.0659961 -0.11050762 -0.035775937 0.02568238 0.12000487 -0.023785945 -0.08542577 -0.031083388 -0.098095395 0.021700406 -0.0713174 0.020255981 0.039884657 0.07996932 -0.13854489 0.019931054 -0.092309944 0.005229947 0.15247132 0.046820473 -0.11022098 -0.018683963 0.054691937 -0.093302324 -0.05975346 -0.009984362 -0.006673569 0.0043740035 0.10050804 -0.03773262 -0.06033787 -0.072935745 0.07884462 -0.105149746 -0.06743804 -0.046617184 -0.09154735 0.10461469 -0.10397123 -0.01805491 -0.03149686 -0.032385297 -0.0878021 -0.08080807 0.027427312 -0.0016858049 -0.014327392 0.053202126 -0.11335165 0.016122546 0.033631053 -0.09463253 0.11247365 0.048854664 0.047075123 -0.060682498 0.090060614 0.065068744 0.013155281 -0.021975812 -0.03709243 -0.004484169 0.03876141 0.035761267 -0.06919849 -0.06292771 0.03675018 -0.09485936 0.012061275 0.02729406 -0.06482063 0.05134693 0.044461094 -0.042624984 -0.0064407005 0.023056975 0.07051305 -0.03063174 -0.008571605 -0.014499652 0.03324984 0.028964886 0.035185397 -0.08849037 0.08261026 0.09674745 0.03506186 0.08289991 0.001069092 -0.069956064 -0.044438783 0.014580042 -0.010716186 0.034452047 -0.110259406 0.006517826 -0.026280368
as 0.05125488 -0.025389109 0.01727396 0.102365844 0.12094935 -0.13819027 0.0093039945 0.07532991 -0.025978075 0.05443403 -0.089039266 -0.05628073 0.036003955 0.115507774 -0.051047444 -0.1562063 -0.039923407 0.039891902 0.0736496 -0.14334543 0.13489579 -0.09111872 0.021350358 0.016367787 -0.030170314 -0.05235894 -0.09342476 -0.059005424 -0.1262449 0.080624215 0.12803316 0.070075125 0.027030028 0.09041711 -0.06368209 0.022480698 0.06296786 -0.089900725 -0.05637753 -0.09320813 -0.0697496 -0.020169286 -0.04724561 0.02206004 0.17263955 -0.0044124154 -0.049292643 -0.06450179 0.086816 0.06688536 0.029988542 -0.0767242 -0.0982617 -0.07657199 -0.04385357 0.017744003 0.0069261813 -0.09054537 -0.13460693 -0.0041956585 -0.004255263 -0.03470024 -0.06895746 -0.10220932 -0.14451173 -0.014504518 -0.019961748 0.117008425 -0.20541422 0.0778232 -0.0154825635 -0.018128945 0.10687302 0.007393662 0.0045690867 0.0007673949 0.03349712 -0.028037023 -0.21317995 0.06828727 0.042741735 -0.08303139 -0.13102861 0.22119236 -0.102605425 -0.0506077 -0.023755671 0.12800696 0.0010958055 -0.07064024 0.050113782 0.0637177 -0.027222758 0.0672286 0.14391117 0.14964701 0.0110826995 -0.06503888 0.036444318 0.13155629 -0.11900171 0.12746204 0.05287124 -0.09048458 -0.1501128 -0.046606787 0.025604986 0.15761545 -0.035998475 -0.11389088 -0.037417922 -0.13600618 0.030078638 -0.093671344 0.028454393 0.04642317 0.11106636 -0.19760953 0.028942615 -0.11877365 0.015215564 0.20545854 0.06284925 -0.1432343 -0.032636803 0.069796786 -0.12587601 -0.08203081 -0.0048851455 -0.0157453 0.0052251755 0.13276011 -0.055787314 -0.071913496 -0.09101149 0.10847013 -0.13818756 -0.082219936 -0.06045821 -0.12360607 0.13819169 -0.14101616 -0.021042958 -0.04731788 -0.05222566 -0.112395525 -0.110657 0.041238517 -0.0030424066 -0.021443771 0.06999361 -0.14615965 0.024933392 0.049949847 -0.11590897 0.15009353 0.07054806 0.056974124 -0.08364747 0.122943304 0.08582239 0.01748347 -0.035167042 -0.051028915 -0.0020489083 0.047291733 0.052264825 -0.092858024 -0.081966795 0.05184802 -0.121566944 0.007595798 0.035118535 -0.08266762 0.062346376 0.059780076 -0.054829083 -0.007845071 0.03356951 0.08572649 -0.04747717 -0.0132775735 -0.013545413 0.04534649 0.0417091 0.05038942 -0.12561938 0.116561934 0.1365377 0.053724445 0.11245277 -0.0009914432 -0.09776502 -0.060814183 0.014788973 -0.012888866 0.03728948 -0.14938663 0.013439897 -0.035420343
diabetes 0.048688624 -0.023021793 0.014721765 0.08498945 0.11026239 -0.13452446 0.006644496 0.0674308 -0.019962693 0.04821604 -0.085671164 -0.04690124 0.031322945 0.103408195 -0.04252019 -0.1418736 -0.035812985 0.028940275 0.069107056 -0.13000572 0.12069773 -0.078347795 0.019455004 0.012044104 -0.023891972 -0.042045128 -0.08709827 -0.046765804 -0.12285612 0.071146585 0.12140914 0.06107544 0.017848626 0.0798389 -0.06253857 0.018858077 0.05709905 -0.08195965 -0.053306587 -0.08164845 -0.066621915 -0.01360447 -0.049419258 0.017109677 0.15751185 -0.0074881813 -0.049314816 -0.055832867 0.07708708 0.06387414 0.02703344 -0.07179618 -0.091685556 -0.06772432 -0.034010578 0.01884104 0.006026185 -0.085026965 -0.123327345 -0.007790544 -0.0065206797 -0.031471975 -0.066517815 -0.09413995 -0.1296362 -0.008131569 -0.023865797 0.10452518 -0.18134978 0.06915954 -0.017148815 -0.009073298 0.10298965 0.0048429538 0.00722029 -0.00492068 0.025348566 -0.028395323 -0.19528522 0.060769122 0.035335224 -0.069780774 -0.1269269 0.20994788 -0.08984917 -0.04794891 -0.022764942 0.12385943 -0.00397669 -0.06855883 0.05224211 0.062379222 -0.016648805 0.05425806 0.13408877 0.13742651 0.010373489 -0.05638536 0.03230232 0.11404818 -0.11095551 0.11794249 0.052405037 -0.08325744 -0.13024998 -0.044722512 0.026284166 0.14677373 -0.027779587 -0.10569023 -0.037236903 -0.12153336 0.034241542 -0.082677595 0.024864139 0.042723324 0.099532165 -0.175109 0.020688264 -0.11512928 0.0094158435 0.1855633 0.04925845 -0.13503586 -0.022404868 0.05912009 -0.10607008 -0.07282614 -0.009906879 -0.012978922 0.007704988 0.124960035 -0.05565697 -0.071647994 -0.08704516 0.09942105 -0.12703317 -0.07462124 -0.05240737 -0.115767926 0.12853743 -0.12826216 -0.019660382 -0.05005371 -0.049547154 -0.106578544 -0.10325174 0.03807233 -0.00047611023 -0.017175982 0.06887616 -0.1365774 0.017526718 0.041836463 -0.112995796 0.1375565 0.07009888 0.053776685 -0.07912041 0.11744825 0.08085671 0.015782967 -0.027912261 -0.051401466 -0.0051905485 0.038510915 0.04593546 -0.08842741 -0.076459706 0.04856923 -0.10752317 0.0080650775 0.029633734 -0.071581505 0.05902235 0.048189726 -0.046590164 -0.009519325 0.031017246 0.0794374 -0.0368428 -0.0064777215 -0.017106619 0.038795795 0.036790833 0.043568466 -0.11826677 0.10889601 0.122243285 0.051839486 0.1078149 0.0006769103 -0.08412563 -0.055150554 0.007649814 -0.012215429 0.03859596 -0.1444355 0.016019717 -0.034698803
be 0.05037067 -0.021734929 0.011640589 0.08131479 0.10797207 -0.12663743 0.0117501775 0.06663016 -0.01845311 0.050181888 -0.07230925 -0.043021858 0.029497325 0.09401655 -0.044356927 -0.13205262 -0.027564075 0.033050958 0.06085067 -0.1251115 0.111102715 -0.07972724 0.01932778 0.008060644 -0.02744675 -0.046051104 -0.080857955 -0.05029529 -0.111065865 0.06370812 0.11599101 0.055280816 0.022205563 0.07917529 -0.053590223 0.01590252 0.05281015 -0.08480904 -0.0474357 -0.08168404 -0.05951324 -0.017801099 -0.039549563 0.017613072 0.15142019 -0.0037535797 -0.049085338 -0.048566516 0.07077939 0.062598184 0.023552826 -0.06535876 -0.086811736 -0.05981981 -0.040526703 0.018251408 0.01162087 -0.08057864 -0.111494265 -0.0033238207 -0.0011109727 -0.03149273 -0.05920632 -0.08736154 -0.12121707 -0.004591742 -0.02201224 0.098415785 -0.1798993 0.06291717 -0.019943023 -0.011862226 0.09261093 0.003939144 0.010084195 -0.0043146024 0.027223703 -0.027927505 -0.18936093 0.0536423 0.0338135 -0.0641822 -0.1208394 0.19789885 -0.089688554 -0.04289949 -0.021848164 0.10906648 -0.0035748908 -0.06609221 0.040388096 0.056041464 -0.022297027 0.056884576 0.12817602 0.12292757 0.008714154 -0.053812005 0.030562032 0.1075215 -0.104078084 0.10340099 0.046168778 -0.078296885 -0.1258464 -0.044959527 0.02308503 0.14350446 -0.023400778 -0.10214412 -0.032229833 -0.11826549 0.028304717 -0.07804216 0.02203745 0.0484379 0.09264907 -0.16464551 0.026506014 -0.11089835 0.00690983 0.17138848 0.050366875 -0.12923706 -0.024895472 0.053937558 -0.105142586 -0.06914664 -0.003279372 -0.014408708 0.0056972234 0.11949677 -0.04458452 -0.06575616 -0.079248 0.08873247 -0.11854363 -0.07745219 -0.05311952 -0.105746515 0.12275849 -0.1195132 -0.025413983 -0.042406723 -0.04270786 -0.10080754 -0.09969217 0.04029208 -0.0047454163 -0.017799463 0.064480126 -0.12979378 0.01973053 0.043739215 -0.10138844 0.1357825 0.0661621 0.048928283 -0.06673285 0.11198058 0.0699947 0.0132151665 -0.02458152 -0.044083625 -0.007706121 0.04168749 0.046956524 -0.07902645 -0.06645981 0.038005635 -0.10197938 0.0037422238 0.03168019 -0.06727398 0.053958755 0.043652974 -0.04248504 -0.014747692 0.02700505 0.07688655 -0.042378753 -0.006015804 -0.007939376 0.040448327 0.03787674 0.045894757 -0.10573978 0.10083384 0.12131285 0.049852345 0.10075269 0.003779415 -0.08569936 -0.046032675 0.016359404 -0.007410253 0.0322518 -0.13389741 0.011894667 -0.02730098
2 diabetes 0.04132091 -0.018341608 0.01847781 0.08570097 0.097460955 -0.11547161 0.011843208 0.062619 -0.02131077 0.039111596 -0.07223197 -0.042170856 0.034071013 0.08792611 -0.041603625 -0.12215011 -0.027408717 0.02701181 0.061533134 -0.11813996 0.10287506 -0.06609857 0.012511526 0.010729429 -0.021375686 -0.04022484 -0.08288016 -0.045152742 -0.10803407 0.059623607 0.100447424 0.057559103 0.014456487 0.07545132 -0.057194408 0.020500017 0.050111417 -0.07941231 -0.044526614 -0.07887787 -0.057253048 -0.017741207 -0.043638457 0.015622296 0.14598162 -0.0055342736 -0.039467268 -0.054552 0.06876828 0.054714594 0.019789519 -0.06579567 -0.08817775 -0.062021405 -0.035561 0.012276683 0.004342117 -0.08170033 -0.104664676 -0.0051975353 0.00010836095 -0.026786024 -0.05316754 -0.08431063 -0.12085901 -0.007548673 -0.022475438 0.09572781 -0.16145167 0.06026997 -0.010307861 -0.008306925 0.09021539 0.00684489 0.01094389 -0.00022900282 0.021008374 -0.029474156 -0.17794125 0.054050535 0.040648684 -0.069792055 -0.111687474 0.18930234 -0.083677836 -0.043960217 -0.020879982 0.10409989 -0.003391855 -0.061227586 0.042418737 0.058399573 -0.017466364 0.05739523 0.12532684 0.1216156 0.00686303 -0.046171997 0.026581308 0.10217368 -0.092479266 0.105485216 0.044312134 -0.074377224 -0.11679056 -0.040466487 0.02151258 0.1357063 -0.022543259 -0.090939336 -0.034105945 -0.1032981 0.031677127 -0.07316179 0.02659252 0.038457956 0.08781553 -0.15843171 0.02486125 -0.09552552 0.012393124 0.16678007 0.051578686 -0.1155821 -0.023372635 0.051003385 -0.10084233 -0.06045407 -0.009145327 -0.008448878 0.009132658 0.106356055 -0.042626146 -0.060872935 -0.074374504 0.09053057 -0.11122016 -0.06848584 -0.050977178 -0.09554899 0.11077456 -0.110896364 -0.016814444 -0.040656157 -0.044669367 -0.088249765 -0.09462398 0.0382297 -0.002978695 -0.019322485 0.05927303 -0.12752739 0.014183062 0.031814814 -0.09617253 0.12660614 0.057756737 0.052323796 -0.068121016 0.100215815 0.07016849 0.011255425 -0.025800334 -0.039629392 -0.0030382983 0.041964956 0.045987688 -0.076691896 -0.06844608 0.043849096 -0.09929992 0.008486455 0.027280731 -0.07078334 0.054530907 0.04411387 -0.041023213 -0.012058222 0.029284036 0.07412025 -0.040369883 -0.010702153 -0.015844958 0.03826291 0.033351973 0.039990213 -0.10156498 0.093740635 0.112888426 0.043669537 0.09544144 -0.00081785186 -0.08028623 -0.05038191 0.0066178585 -0.015644504 0.03533478 -0.12223509 0.008513068 -0.032955904
in the 0.038017508 -0.014085636 0.009523653 0.07523997 0.09244437 -0.10196227 0.004161102 0.05877881 -0.023056809 0.044028435 -0.06723909 -0.041439656 0.031319775 0.08351345 -0.032122076 -0.11359258 -0.022855971 0.021468796 0.05573848 -0.108428456 0.09289507 -0.06435815 0.013429231 0.010910484 -0.024618134 -0.042070508 -0.07571706 -0.044665202 -0.09978781 0.054120723 0.099147916 0.048839718 0.01281756 0.06287471 -0.047217812 0.014414068 0.045650836 -0.07144693 -0.039670143 -0.071408644 -0.056049027 -0.0107455375 -0.040104672 0.018907757 0.12824339 0.001900413 -0.035626348 -0.043590344 0.062327012 0.05140518 0.0210366 -0.059043005 -0.072904654 -0.051008604 -0.026085434 0.011710016 0.0058398917 -0.0656329 -0.10095629 -0.0044218046 -0.005974077 -0.023198018 -0.05595569 -0.07249732 -0.10046877 -0.008768071 -0.020054962 0.079470456 -0.14672486 0.051276267 -0.009707612 -0.011876772 0.083061025 0.0035812072 0.0028365476 -0.0031672071 0.023109721 -0.025484549 -0.15583368 0.04740647 0.02939545 -0.0578305 -0.10171081 0.16193002 -0.07743807 -0.036619965 -0.019262247 0.09829753 0.0032419774 -0.049236696 0.040683936 0.04958022 -0.020358533 0.052203573 0.10875742 0.11018803 0.008621768 -0.04161807 0.03112676 0.090190805 -0.08808631 0.09138811 0.043918535 -0.067649595 -0.106135055 -0.03298199 0.021007277 0.1173925 -0.026675032 -0.08024735 -0.034533635 -0.10077156 0.026427336 -0.07315283 0.017904485 0.03650866 0.07817241 -0.14555584 0.021715697 -0.09007373 0.010778727 0.14782757 0.046913043 -0.11158424 -0.018222008 0.046775643 -0.088671334 -0.06172718 -0.0065982672 -0.01161068 0.004530908 0.10392065 -0.040935956 -0.053979557 -0.07056432 0.080613635 -0.104975864 -0.06336861 -0.045140352 -0.093804985 0.10544662 -0.10518101 -0.016194409 -0.034743402 -0.03976231 -0.08449088 -0.086302556 0.027043406 -0.0059827664 -0.014757077 0.055755097 -0.110450864 0.012590128 0.03489458 -0.088192016 0.10886008 0.05616485 0.04886172 -0.06367229 0.09314337 0.0648892 0.011871173 -0.023142302 -0.042451985 0.0011330241 0.03819583 0.04034493 -0.069754235 -0.059971474 0.03293767 -0.09541237 0.011366774 0.023567671 -0.061259184 0.050715156 0.036420316 -0.035662424 -0.0128794955 0.023656191 0.06805611 -0.03460268 -0.010302168 -0.012862424 0.031596065 0.027345061 0.03280477 -0.08729255 0.08884174 0.10075189 0.039228823 0.079969354 0.004090385 -0.072177276 -0.04041961 0.015172063 -0.00798603 0.030671963 -0.10933201 0.0141252745 -0.026760517
your blood 0.045758422 -0.015304752 0.018402403 0.08215879 0.10154161 -0.121493325 0.003927643 0.062107313 -0.025567774 0.044725865 -0.07551746 -0.045493208 0.036262736 0.09957208 -0.035286915 -0.12484633 -0.029835355 0.030655688 0.058176454 -0.12617289 0.1119241 -0.077035524 0.01825741 0.01092019 -0.030090375 -0.04244553 -0.08470557 -0.042112857 -0.11105495 0.05926164 0.109106064 0.058532123 0.021949263 0.07556409 -0.057345986 0.015329139 0.053672895 -0.07370268 -0.051378123 -0.0772143 -0.058158673 -0.013572941 -0.044688255 0.018067317 0.14364995 -0.0027976788 -0.039958183 -0.047392752 0.06431187 0.060316343 0.021103969 -0.066265345 -0.08918236 -0.06423175 -0.030211762 0.014765027 0.002847816 -0.07629619 -0.1128755 -0.0089964345 -0.00089009415 -0.027280083 -0.05771782 -0.07929286 -0.114875175 -0.011064454 -0.015995882 0.09558949 -0.16702002 0.06494853 -0.018334597 -0.014125357 0.08971352 0.0077217566 0.0057963585 0.0038045396 0.023160506 -0.030352319 -0.18315734 0.052597806 0.041213177 -0.06858329 -0.1143165 0.19141442 -0.088583656 -0.03949615 -0.019534105 0.10489111 -0.0007503317 -0.060666207 0.046408594 0.05351718 -0.02278794 0.058713112 0.12055031 0.12560241 0.0056876885 -0.047020037 0.030624442 0.10231745 -0.09871408 0.10156944 0.047103327 -0.07219827 -0.12590969 -0.04105101 0.022407148 0.13794354 -0.023094185 -0.09552558 -0.036242798 -0.10704 0.022830104 -0.077648975 0.024258753 0.041356627 0.086666174 -0.16439708 0.017970214 -0.09866308 0.011699005 0.16738977 0.05375713 -0.12489187 -0.024075523 0.05559601 -0.10478696 -0.070745185 -0.002517358 -0.011335827 0.0023148046 0.116021745 -0.05083148 -0.063686095 -0.07554331 0.08620722 -0.117454045 -0.07137352 -0.051264994 -0.10135672 0.11544175 -0.11680338 -0.018334113 -0.0428616 -0.036907416 -0.09130175 -0.09558326 0.035819568 -0.0009064712 -0.014085945 0.064994164 -0.12616257 0.016738934 0.035600625 -0.09916336 0.12497984 0.05808815 0.045689136 -0.06737272 0.106474 0.07135902 0.013225291 -0.02346885 -0.049182393 0.0029077881 0.039643593 0.045756895 -0.07380394 -0.06686151 0.040603936 -0.10099064 0.0035597745 0.025952261 -0.069917 0.048382338 0.048094466 -0.041243814 -0.011195179 0.033339515 0.07317517 -0.037423108 -0.006835625 -0.015560985 0.034901526 0.03662575 0.036113765 -0.09953522 0.09797864 0.10992789 0.048991907 0.09734141 -0.0032729788 -0.08374142 -0.053078648 0.013915596 -0.008761165 0.033771373 -0.12574977 0.008115131 -0.030443886
insulin 0.057870604 -0.026612163 0.014129212 0.09829682 0.115873955 -0.14475869 0.01249675 0.0813821 -0.031161185 0.057613432 -0.08341375 -0.05185479 0.036233597 0.11730126 -0.05132555 -0.1521441 -0.033268966 0.031421535 0.06635554 -0.14417124 0.13296536 -0.08951896 0.017193 0.017061988 -0.031610273 -0.054116707 -0.0938856 -0.057122335 -0.12685552 0.07802443 0.1312982 0.071119875 0.026810087 0.084048 -0.065810755 0.021120252 0.063137926 -0.087942675 -0.054699514 -0.09610157 -0.064799264 -0.019163191 -0.049312785 0.02664405 0.16995403 -0.0038218407 -0.050482575 -0.056649458 0.0842928 0.06684857 0.023225963 -0.07920019 -0.0962862 -0.07801281 -0.037016004 0.01573963 0.007417635 -0.087871335 -0.12541494 -0.0011867834 0.0006136255 -0.03887055 -0.06592259 -0.104439296 -0.14539066 -0.014253629 -0.019655032 0.11610731 -0.20339128 0.071129024 -0.018368676 -0.017196495 0.10574248 0.0076095047 0.0096916165 -0.0018308902 0.028481303 -0.032413743 -0.21592654 0.067870684 0.048217308 -0.0743485 -0.13756256 0.21937531 -0.10549654 -0.050907165 -0.025320126 0.12679663 0.00026383757 -0.06608154 0.052707367 0.06761546 -0.019142162 0.067483656 0.14660515 0.14188275 0.011576309 -0.05560253 0.042214245 0.124094605 -0.11173774 0.12415179 0.06012726 -0.087620586 -0.14349641 -0.04749484 0.024645139 0.16251193 -0.035631597 -0.11568501 -0.0393574 -0.12581597 0.03073338 -0.09006988 0.028944988 0.052235715 0.10288302 -0.18865894 0.021797702 -0.12394172 0.014447812 0.196081 0.061381556 -0.14478633 -0.028345708 0.06303708 -0.1235449 -0.08022279 -0.0033083723 -0.008659595 0.0037796702 0.13004392 -0.054623414 -0.07784186 -0.08698475 0.10735491 -0.140415 -0.078980975 -0.05281762 -0.1219956 0.14169884 -0.14224839 -0.020284282 -0.045527216 -0.047541726 -0.11674061 -0.111337736 0.041972414 -0.002712309 -0.018055819 0.07272867 -0.1472041 0.017408537 0.047678515 -0.121457234 0.15267666 0.07357441 0.062348507 -0.076889105 0.124151826 0.08471828 0.02106323 -0.032979492 -0.051327936 -0.0077475733 0.050957456 0.055408217 -0.08745911 -0.07735516 0.050238527 -0.12294359 0.006784556 0.030521752 -0.081411295 0.061832543 0.050994206 -0.055467688 -0.007453881 0.040729668 0.09144614 -0.047695123 -0.011878439 -0.017602334 0.04887304 0.03918675 0.051180407 -0.12598985 0.11178845 0.13725358 0.05464444 0.10830639 -0.0035966474 -0.092982516 -0.06239101 0.01718011 -0.011007502 0.040111605 -0.15339068 0.009751173 -0.034334525
you 0.055925373 -0.021156082 0.013951844 0.09753116 0.10966043 -0.13190585 0.0132899145 0.074312344 -0.0304372 0.053364206 -0.08756168 -0.054132394 0.041690968 0.103175275 -0.048414133 -0.14520016 -0.030819016 0.034401353 0.064736426 -0.14018227 0.12729894 -0.077651665 0.022962524 0.0150842955 -0.028134272 -0.047233175 -0.09109719 -0.050098877 -0.12153579 0.07239059 0.11954053 0.0603763 0.026131498 0.081012785 -0.061860505 0.019835016 0.058054052 -0.09094488 -0.05299999 -0.08989108 -0.0705301 -0.01980133 -0.04491502 0.025663756 0.16388938 -0.00020953093 -0.05279903 -0.059673466 0.07409418 0.061597228 0.029232264 -0.078777716 -0.10003177 -0.074580446 -0.03452899 0.013700078 0.008157117 -0.09123474 -0.12528557 -0.0056845997 -0.0042585 -0.035748556 -0.069064416 -0.0937876 -0.13908675 -0.009214872 -0.020403448 0.11111857 -0.19091319 0.071641035 -0.02012091 -0.018548077 0.10418634 0.0055484883 0.0049592443 -0.0011165332 0.033577062 -0.03397019 -0.20556317 0.06293771 0.041210953 -0.06979878 -0.12837389 0.20900176 -0.09923731 -0.050431367 -0.029013453 0.12046595 -0.0035500897 -0.06798115 0.048698463 0.06126452 -0.021336785 0.063230954 0.14450313 0.13596763 0.014318703 -0.053918675 0.03509221 0.11599974 -0.11291569 0.11363448 0.05813748 -0.07589436 -0.13453083 -0.049192633 0.02980729 0.15507792 -0.026585896 -0.111683354 -0.038322486 -0.12765548 0.026057646 -0.08730743 0.030406808 0.05092867 0.097663514 -0.18079285 0.023159511 -0.11117104 0.0070197335 0.19469807 0.052678917 -0.14006814 -0.027006233 0.06296549 -0.1188799 -0.07481288 -0.0071313404 -0.013977259 0.011016876 0.12805004 -0.05009067 -0.06631444 -0.089855015 0.101508826 -0.1264995 -0.07670549 -0.05086068 -0.117600486 0.13535637 -0.13197483 -0.022513503 -0.05041172 -0.046464585 -0.10358652 -0.11282713 0.045612585 0.00012871073 -0.019819252 0.06642549 -0.141922 0.02245627 0.044751506 -0.11644328 0.14922854 0.066621795 0.05348357 -0.072149664 0.12240393 0.08043282 0.020274265 -0.034122407 -0.054376148 -0.0035814175 0.042699434 0.050272577 -0.08600105 -0.080092505 0.045676295 -0.114598066 0.009308985 0.032740064 -0.0767255 0.06301604 0.051717926 -0.045643803 -0.0114523135 0.035522 0.08230044 -0.039999973 -0.00964936 -0.012192808 0.04804593 0.033152007 0.04953042 -0.117088646 0.10639193 0.12706636 0.045333218 0.10569898 0.001643727 -0.086354874 -0.050807197 0.009173707 -0.008331456 0.035355985 -0.1412794 0.017327962 -0.032773923
risk of 0.037997365 -0.02132035 0.01571098 0.07511381 0.08690921 -0.10681781 0.009377053 0.061082456 -0.0186912 0.04262122 -0.07225264 -0.039168585 0.03156608 0.082067594 -0.03751838 -0.11521876 -0.026414035 0.026975058 0.05199033 -0.11197711 0.101625666 -0.06637596 0.015687358 0.012669929 -0.02675256 -0.042131256 -0.06992248 -0.04706907 -0.099935964 0.058031637 0.09375887 0.052066766 0.021974424 0.06764368 -0.046636127 0.016130451 0.04561782 -0.072158806 -0.04536992 -0.066318266 -0.05068889 -0.0126346415 -0.04064449 0.014994184 0.13582201 -0.0021801044 -0.03601006 -0.046323728 0.06668691 0.046802472 0.025945293 -0.06407003 -0.07855329 -0.05254743 -0.037086874 0.014367398 0.002511318 -0.0758591 -0.09897416 -0.0034840473 -0.004649943 -0.022581154 -0.056998447 -0.07632483 -0.104354076 -0.00735376 -0.019897798 0.08829386 -0.15658371 0.055798106 -0.011922757 -0.008326459 0.08567562 0.001259702 0.010724359 -0.0032822185 0.026652426 -0.02766686 -0.16863069 0.050511457 0.029634185 -0.061943803 -0.103557006 0.17134908 -0.082129374 -0.04001918 -0.024392387 0.09975655 0.0018732692 -0.054583862 0.044761926 0.04945246 -0.014302205 0.05271792 0.11704341 0.11119604 0.008758695 -0.04496392 0.023958623 0.10174333 -0.09177643 0.09839245 0.044972025 -0.06348067 -0.112937085 -0.040545307 0.02257421 0.12410005 -0.028957099 -0.08816812 -0.0324263 -0.10235319 0.02757741 -0.07013289 0.023295728 0.03526536 0.07852805 -0.14463344 0.023757897 -0.09055495 0.01158482 0.15009485 0.049322557 -0.11383092 -0.025743285 0.055369183 -0.09402704 -0.064612836 -0.0070701204 -0.0055684173 0.004700727 0.104529254 -0.04389415 -0.05494893 -0.069513634 0.075558044 -0.105707474 -0.059986245 -0.04216084 -0.09677533 0.11139675 -0.10363264 -0.014073151 -0.03763662 -0.042447694 -0.08834403 -0.08481434 0.029733714 0.0037490637 -0.021334501 0.051186264 -0.11691098 0.019738046 0.03008669 -0.08808142 0.11241973 0.05642999 0.0479173 -0.062351037 0.10206555 0.06628363 0.013621613 -0.021772183 -0.037897576 -0.00020940781 0.04055807 0.04040881 -0.07381745 -0.06337421 0.03565873 -0.09678529 0.0068215337 0.02899 -0.06565551 0.051807724 0.044434894 -0.04069579 -0.008036978 0.030722354 0.06385514 -0.031833567 -0.0043130456 -0.01164948 0.031405218 0.025026264 0.031418774 -0.0937516 0.08950556 0.10780629 0.04025736 0.08671653 0.0021016076 -0.07673606 -0.049392592 0.012879768 -0.01511342 0.030238342 -0.118345425 0.013936692 -0.027847517
1 diabetes 0.05291109 -0.019084353 0.013229839 0.08302193 0.10377292 -0.124963 0.012686117 0.07107084 -0.021020092 0.0420269 -0.07916668 -0.046462204 0.032354675 0.09389579 -0.03699521 -0.12601179 -0.03198519 0.032077838 0.063856855 -0.123967536 0.115887895 -0.07537353 0.012726533 0.012579818 -0.032016825 -0.037738327 -0.08806771 -0.04832683 -0.11238105 0.06732201 0.11171336 0.053373225 0.017687447 0.07645474 -0.055007063 0.021274403 0.05360406 -0.080601044 -0.05338396 -0.07594526 -0.06410987 -0.015155552 -0.04401815 0.016291093 0.15235162 -0.0041439384 -0.048882473 -0.056742042 0.07154124 0.054281723 0.024677565 -0.06511557 -0.084681995 -0.06578465 -0.031494517 0.009350005 0.011354698 -0.08071314 -0.11283863 -0.0033442434 -0.0041715913 -0.03192181 -0.061061695 -0.08934886 -0.12204961 -0.011628912 -0.015713386 0.09230653 -0.17455956 0.057320517 -0.02008936 -0.013318077 0.08753031 0.0017584547 0.008340464 -0.00084143213 0.027749233 -0.021845898 -0.18951046 0.059740856 0.033183582 -0.06419818 -0.11124681 0.19683516 -0.09037927 -0.039813716 -0.0267741 0.11156682 -0.003290793 -0.06543045 0.046468772 0.059582066 -0.022654794 0.05160875 0.12862633 0.12287494 0.0061327065 -0.053909007 0.032393657 0.11336803 -0.10426985 0.1099413 0.05242471 -0.07543644 -0.12689865 -0.041577592 0.026391147 0.13775367 -0.027814224 -0.10232089 -0.031185813 -0.11725348 0.023433182 -0.07944015 0.02459461 0.04303348 0.09217581 -0.16320764 0.023781344 -0.100960314 0.008373054 0.16913058 0.04625948 -0.12009475 -0.02408309 0.054476593 -0.10071958 -0.0636142 -0.0024166096 -0.013396946 0.0048289616 0.113242015 -0.052190922 -0.061406482 -0.07565588 0.086781405 -0.1134822 -0.07621006 -0.04556685 -0.10741683 0.121545866 -0.121944584 -0.01867892 -0.038292658 -0.04332591 -0.09893093 -0.102489136 0.03889663 0.0012086573 -0.014762203 0.059582107 -0.13309093 0.021250224 0.03644145 -0.10117885 0.13631813 0.058662597 0.05286583 -0.071499735 0.10477235 0.06876959 0.014496241 -0.031135023 -0.04750794 -0.003898065 0.043580834 0.04646948 -0.07534141 -0.06717231 0.039812926 -0.107678205 0.013835482 0.031171726 -0.07513197 0.0574336 0.051646285 -0.040837303 -0.013879151 0.029331133 0.0770476 -0.036770064 -0.010999178 -0.013897295 0.04239124 0.036990356 0.040282555 -0.10962002 0.09497934 0.114674285 0.047547095 0.09694359 -0.0011837145 -0.08554447 -0.051071662 0.015281257 -0.008543889 0.038183466 -0.13132882 0.016281072 -0.029008552
sugar levels 0.041429337 -0.013434237 0.010575902 0.075974405 0.09317882 -0.10193445 0.009448398 0.058534615 -0.020696655 0.0346592 -0.06427146 -0.039494656 0.024667582 0.08396385 -0.032215446 -0.11407504 -0.023711974 0.030357638 0.04790888 -0.10553291 0.090899 -0.0677857 0.017858345 0.007360897 -0.024034051 -0.040658224 -0.0756519 -0.044315737 -0.09438931 0.05741084 0.0892057 0.04517294 0.015160581 0.06442289 -0.05194373 0.0136835165 0.04831513 -0.067028925 -0.039741557 -0.064375125 -0.052694794 -0.013382761 -0.03158902 0.018419247 0.12820481 -0.0027957126 -0.04200943 -0.041592754 0.062601976 0.04956712 0.024985583 -0.060050182 -0.0727344 -0.05758194 -0.035072975 0.01286249 0.008480494 -0.06607666 -0.10069878 -0.0018986266 -0.0016113684 -0.022866594 -0.05153883 -0.07058753 -0.10028669 -0.011625699 -0.020964323 0.086327195 -0.14798176 0.048455052 -0.0146259805 -0.010249862 0.08272374 0.002675979 0.004942363 -0.004175826 0.018509917 -0.021549135 -0.15804711 0.044488914 0.03233012 -0.06206667 -0.09959485 0.16667053 -0.07329974 -0.031347524 -0.015849942 0.0958671 0.0019290934 -0.049047254 0.042389333 0.05449186 -0.014850563 0.0501981 0.11143649 0.10603413 0.0061207716 -0.039700188 0.02846393 0.09020433 -0.08691199 0.08811256 0.0465549 -0.06076008 -0.10589966 -0.031160386 0.025494002 0.11543394 -0.025937995 -0.08489725 -0.031532988 -0.1008135 0.023540763 -0.073050685 0.024733162 0.035161965 0.07548633 -0.14488883 0.017891148 -0.09442194 0.009141316 0.15007018 0.041522972 -0.1016711 -0.022226699 0.045209743 -0.090175964 -0.05940831 -0.009431844 -0.013632775 0.0042878916 0.097082354 -0.039471973 -0.058951214 -0.069735214 0.07795104 -0.10071713 -0.060114115 -0.042090546 -0.08736859 0.10728734 -0.10669021 -0.014925397 -0.03353888 -0.03619906 -0.079642065 -0.08686221 0.029257586 -0.0045407815 -0.010496621 0.048254848 -0.111365885 0.015575916 0.030451262 -0.08364945 0.109043464 0.047879826 0.04934888 -0.063678585 0.097764075 0.05879009 0.014991512 -0.023518354 -0.04150278 -0.0054942165 0.031194448 0.04295465 -0.06339583 -0.058663707 0.038277805 -0.08754427 0.009215568 0.025422864 -0.06503057 0.051618967 0.03644271 -0.040090054 -0.0077211983 0.028880838 0.05999501 -0.031718224 -0.005176775 -0.01439526 0.038290225 0.026078936 0.03927428 -0.09457406 0.086728565 0.10428782 0.03454819 0.08281774 -0.0032934584 -0.06490418 -0.037869364 0.007357976 -0.009637514 0.029597957 -0.1151801 0.010442226 -0.029703919
sugar 0.04765128 -0.022527443 0.018390477 0.08725895 0.100524195 -0.12140985 0.0037757722 0.06786358 -0.021600462 0.04960975 -0.07256256 -0.047433253 0.034538094 0.09978179 -0.034960885 -0.12267964 -0.03305341 0.026289083 0.063607305 -0.12697385 0.110751666 -0.06981511 0.014499822 0.016200805 -0.031178167 -0.039187197 -0.07900212 -0.04530489 -0.112534255 0.06880724 0.11166035 0.055099852 0.021833122 0.07813915 -0.057333022 0.020678459 0.05143899 -0.078893 -0.049145464 -0.07910272 -0.059544 -0.020513298 -0.040183105 0.024661027 0.14869536 -0.00010252187 -0.04595209 -0.04834986 0.06627351 0.054798976 0.027671615 -0.062021557 -0.08771463 -0.06422131 -0.031160878 0.015014563 0.010180783 -0.08222983 -0.1103571 -0.005543932 -0.002986466 -0.027671346 -0.06170799 -0.081553966 -0.120957784 -0.0046878317 -0.018193929 0.09981901 -0.16933742 0.06424062 -0.018771615 -0.017769571 0.08959156 0.0036027692 0.011095915 0.002678252 0.023061765 -0.021992976 -0.18060593 0.050707065 0.03960468 -0.067837544 -0.11785597 0.19214088 -0.08089376 -0.036046643 -0.022656383 0.11323791 0.002093621 -0.06367156 0.048014652 0.05428294 -0.02505047 0.058802597 0.12173173 0.12647328 0.0063359514 -0.046084154 0.029893687 0.10860813 -0.09393123 0.10581621 0.047699165 -0.074228354 -0.12796636 -0.037635043 0.02784739 0.13291727 -0.022864947 -0.09182299 -0.03892019 -0.10900421 0.024095444 -0.081002735 0.023072446 0.038532607 0.08756217 -0.16593164 0.018412707 -0.10656414 0.015078309 0.17311715 0.049170002 -0.12236926 -0.021565251 0.05673937 -0.10592833 -0.0696327 -0.0054260516 -0.0056430497 0.008487331 0.11764159 -0.044650227 -0.061860994 -0.072234556 0.0930125 -0.11038087 -0.065880604 -0.052446872 -0.10145653 0.11454326 -0.12116294 -0.023923209 -0.040125333 -0.04221034 -0.09793389 -0.09325477 0.040794738 0.00066335854 -0.01363302 0.0582151 -0.12894967 0.01949971 0.035943635 -0.10448797 0.13112068 0.05759817 0.048457664 -0.06670138 0.10954821 0.07343881 0.014743331 -0.022347441 -0.044526435 0.0011974259 0.038929474 0.046142448 -0.07330204 -0.07219713 0.042701285 -0.10255789 0.011502298 0.026079934 -0.0705671 0.050544787 0.045221638 -0.045623176 -0.01193085 0.030536024 0.07878686 -0.035138175 -0.01377228 -0.014285807 0.03685104 0.034927476 0.035075802 -0.101277225 0.09720974 0.1134194 0.04914663 0.098522805 0.00069440494 -0.07749798 -0.053595793 0.007633169 -0.013247198 0.039751478 -0.12533538 0.014210413 -0.031644017
not 0.04748195 -0.017588718 0.015471148 0.07980103 0.10233317 -0.12202319 0.011279737 0.0673894 -0.02375155 0.04227392 -0.07707177 -0.04860501 0.029154962 0.095181204 -0.041222494 -0.12536502 -0.033611696 0.027891766 0.05811037 -0.12474494 0.108710386 -0.06724177 0.018225817 0.013490302 -0.029769449 -0.042153146 -0.079905845 -0.045487527 -0.10255828 0.06249788 0.10889948 0.0586292 0.021211155 0.07752395 -0.05764042 0.015182068 0.055943035 -0.07259711 -0.046094604 -0.07690973 -0.055022877 -0.015002025 -0.04119246 0.024667796 0.1457606 -0.0014970833 -0.042280577 -0.054380383 0.066576086 0.057789285 0.019281657 -0.061004646 -0.080073975 -0.06526243 -0.037148666 0.010395544 0.0065609766 -0.07804071 -0.10960641 -0.0058836374 -0.0009064905 -0.023442114 -0.060056057 -0.08733461 -0.114969686 -0.01234749 -0.0139612835 0.09483787 -0.17053823 0.056508474 -0.019268364 -0.011873363 0.08946047 0.0057630637 0.006427582 0.0006155569 0.027555473 -0.026361655 -0.181899 0.054551143 0.038351435 -0.06658126 -0.112334915 0.1843251 -0.08006181 -0.041382622 -0.017498001 0.106406026 -0.005403522 -0.062452115 0.039955474 0.05599916 -0.016032033 0.054539356 0.12708396 0.121729024 0.013084082 -0.04959528 0.031028964 0.10851599 -0.096487 0.10638754 0.04336738 -0.075419165 -0.121266514 -0.039713018 0.022333404 0.13312961 -0.02799902 -0.0981015 -0.028757911 -0.110247105 0.026005363 -0.07831332 0.02151333 0.037456695 0.08743149 -0.15994185 0.026492693 -0.105745636 0.007644895 0.16531388 0.050059345 -0.122517526 -0.02658903 0.051176935 -0.09747166 -0.06972464 -0.0077879485 -0.009193254 0.0075665945 0.1061928 -0.042789984 -0.06293743 -0.0755897 0.082270026 -0.11715501 -0.06729748 -0.044835646 -0.09970015 0.11977744 -0.11974261 -0.019855347 -0.0427363 -0.042161185 -0.0911746 -0.09340575 0.032396574 -9.079043e-05 -0.013990644 0.05617405 -0.12202037 0.0147822015 0.041402977 -0.09718767 0.12832357 0.057609152 0.045216586 -0.06294807 0.10376405 0.07312386 0.016146563 -0.030169534 -0.04508635 -0.00037651273 0.037804965 0.04979841 -0.078374445 -0.06975219 0.040953618 -0.10328492 0.005254049 0.027794879 -0.06588233 0.049768157 0.043891083 -0.046778366 -0.0086287 0.027285492 0.07800136 -0.03685208 -0.008402501 -0.012611772 0.041778885 0.03216156 0.03448416 -0.10638192 0.094734594 0.11682506 0.045336787 0.090447254 -0.0029086922 -0.08334245 -0.045932844 0.0070905485 -0.010525792 0.03532962 -0.12568629 0.006723955 -0.024516813
can 0.04761179 -0.024403555 0.012309959 0.08951949 0.105406195 -0.12786588 0.008235667 0.06970813 -0.028256124 0.042889144 -0.077338144 -0.05212559 0.03383283 0.09853762 -0.03599131 -0.13016187 -0.028987696 0.032841057 0.059559967 -0.12318914 0.11241819 -0.075982146 0.012098035 0.013439504 -0.024975047 -0.042434137 -0.08860085 -0.049886446 -0.11507679 0.06928621 0.107471734 0.06099687 0.017179202 0.07340415 -0.06161705 0.020629823 0.050285306 -0.08366876 -0.053732503 -0.081079826 -0.063337 -0.01606307 -0.039564233 0.020527652 0.14790456 -0.0025992896 -0.041409884 -0.055469252 0.06868134 0.06229956 0.026794773 -0.07153125 -0.084055364 -0.06864336 -0.039700963 0.011452585 0.007887448 -0.080964066 -0.111980885 -0.0014654719 -0.0004518959 -0.031323608 -0.06349058 -0.09061336 -0.122624606 -0.0039578658 -0.021758562 0.10029391 -0.17216933 0.060634688 -0.018786259 -0.01618335 0.09034482 0.00062755734 0.009607409 -0.0040348256 0.024854422 -0.025251804 -0.18614158 0.053647723 0.035159536 -0.06633908 -0.11556428 0.19306295 -0.087734155 -0.040458616 -0.023283346 0.11241983 0.0021813374 -0.0656065 0.04799663 0.05345723 -0.021508433 0.059470356 0.1261721 0.12975247 0.013526704 -0.05536518 0.033589207 0.10773792 -0.105385356 0.10653436 0.053234775 -0.06960111 -0.12999615 -0.042663805 0.02183742 0.14033237 -0.025098283 -0.10327246 -0.034234636 -0.11836827 0.028219558 -0.07910199 0.020958338 0.04377322 0.0909914 -0.17081472 0.021909501 -0.10427831 0.005932935 0.17151114 0.050393663 -0.12089583 -0.024864273 0.062679455 -0.10830065 -0.06420845 -0.008860476 -0.013158171 0.0031331894 0.11730152 -0.050400313 -0.060264222 -0.079303265 0.092225045 -0.11531704 -0.07719769 -0.050498668 -0.10868724 0.1184244 -0.11933382 -0.019328948 -0.044650957 -0.044036403 -0.101268515 -0.100981094 0.03858944 0.0026524186 -0.015096956 0.060550474 -0.1281881 0.016730806 0.036328632 -0.10631376 0.1302411 0.06313369 0.048102375 -0.073869035 0.107271135 0.07603406 0.01634474 -0.02467825 -0.042885307 -0.005707394 0.038051143 0.050519455 -0.075946994 -0.06725076 0.045424495 -0.10218835 0.007265632 0.028494114 -0.06900271 0.06009711 0.053376846 -0.049548138 -0.012226086 0.03314084 0.077939205 -0.038528115 -0.0064819423 -0.008103101 0.03625105 0.032313652 0.036590938 -0.104192555 0.10038271 0.117240205 0.047058478 0.101438 0.0045401044 -0.07845668 -0.048877396 0.013618478 -0.0077887136 0.037159406 -0.13071573 0.007894614 -0.02760732
will 0.0491262 -0.018229613 0.015424313 0.09372447 0.11645275 -0.13805053 0.005685047 0.07670118 -0.029862134 0.046735425 -0.08346131 -0.05265463 0.040383395 0.105380364 -0.04502574 -0.1451193 -0.030565968 0.028939923 0.071691334 -0.14518362 0.12104956 -0.08336071 0.017236553 0.013090915 -0.034125086 -0.046158534 -0.09874074 -0.05272589 -0.12262609 0.07316241 0.12224214 0.06861305 0.01763129 0.0812926 -0.062058162 0.024894262 0.0563162 -0.09339386 -0.055958144 -0.09267917 -0.06673873 -0.014065123 -0.051679064 0.020150203 0.17174006 -0.004185714 -0.051049374 -0.059602175 0.07456426 0.063603185 0.023693258 -0.07518695 -0.09794144 -0.06701627 -0.036870737 0.014831346 0.0034460616 -0.08861377 -0.12915777 -0.00066918635 -0.0013475216 -0.033674788 -0.06379163 -0.09806664 -0.13809846 -0.010265159 -0.015870767 0.111869544 -0.1929591 0.072183624 -0.018394887 -0.009929757 0.099378064 0.003452855 0.004828112 0.0043979706 0.02793356 -0.030937457 -0.20360093 0.05857314 0.040840413 -0.07470637 -0.1322762 0.22009161 -0.09663823 -0.049201846 -0.023159858 0.13033408 -0.0001972494 -0.06467775 0.046190083 0.06290844 -0.01724632 0.0645356 0.14320195 0.1388398 0.014190019 -0.056681413 0.04113531 0.12296231 -0.1090116 0.11605755 0.051387224 -0.083372325 -0.13966356 -0.04625041 0.030796336 0.15053158 -0.034489676 -0.10545775 -0.036085885 -0.12797727 0.029174091 -0.09216472 0.02643983 0.05358002 0.10274422 -0.18627776 0.023877889 -0.11875422 0.0071944315 0.1970565 0.051713992 -0.14052601 -0.031242857 0.06899681 -0.113410436 -0.07696893 -0.005492982 -0.012287712 0.013378837 0.1275289 -0.05245691 -0.07343618 -0.08313945 0.10628861 -0.12843874 -0.08104164 -0.055416703 -0.12155813 0.14111494 -0.13912487 -0.025673399 -0.045077246 -0.04967614 -0.1046783 -0.113975264 0.046703853 -0.00052245 -0.024439739 0.07143861 -0.14728095 0.023299992 0.046040636 -0.12102782 0.15174162 0.071019895 0.061429664 -0.08149131 0.1182965 0.07626966 0.019557139 -0.03251508 -0.04963223 7.9799735e-05 0.04925415 0.053069193 -0.08808432 -0.07662299 0.04744383 -0.12278846 0.0073427805 0.03063147 -0.07675404 0.06111081 0.04846988 -0.050283175 -0.007448115 0.03795385 0.08718868 -0.045590322 -0.013812048 -0.013622392 0.040676404 0.033454277 0.045088276 -0.119232036 0.111745484 0.13350932 0.05511184 0.10510574 0.005314487 -0.093381345 -0.055702183 0.011585768 -0.015867535 0.039613016 -0.1496771 0.01755387 -0.030046783
you have 0.052711025 -0.021174453 0.022380883 0.09330343 0.11893326 -0.13838373 0.011199768 0.07452552 -0.03157014 0.05504752 -0.08629442 -0.057211265 0.038475964 0.10758655 -0.042622205 -0.15056102 -0.034170765 0.03436852 0.06744364 -0.14481314 0.13034725 -0.0841906 0.014363101 0.01444351 -0.03616483 -0.050943036 -0.092344604 -0.05228859 -0.12840001 0.07539984 0.12683454 0.0614062 0.021125961 0.08558657 -0.06973036 0.02210094 0.06514182 -0.08972742 -0.05559264 -0.08910334 -0.069053985 -0.022700641 -0.048104856 0.0263451 0.1711804 -0.0036127134 -0.045908377 -0.05729591 0.076739036 0.069743246 0.031332847 -0.08058537 -0.095158525 -0.07568512 -0.04096836 0.01818801 0.004943618 -0.0953713 -0.13090976 -0.010829561 -0.0072175325 -0.027989512 -0.06710879 -0.102606006 -0.13357268 -0.0062875883 -0.016628891 0.11539741 -0.20039126 0.069835365 -0.016201593 -0.013881672 0.106832676 0.00090067514 0.010111777 0.0048909727 0.025151374 -0.025847778 -0.2082309 0.062395554 0.04205324 -0.081922136 -0.13469972 0.22122772 -0.09971515 -0.041545454 -0.030524405 0.12360265 0.0023185732 -0.06507448 0.05270196 0.06946278 -0.020085452 0.06050136 0.14849871 0.13906416 0.010360907 -0.061680682 0.04072639 0.12142202 -0.11236007 0.11966833 0.056029033 -0.086255245 -0.14643352 -0.0477509 0.028593902 0.15737998 -0.031859893 -0.109406106 -0.042534817 -0.12245503 0.031052262 -0.095263496 0.025362222 0.052995462 0.10308381 -0.19042616 0.02138067 -0.12254578 0.009689145 0.20005777 0.05310601 -0.13909885 -0.028574945 0.067311175 -0.12208462 -0.0725714 -0.008920258 -0.008077433 0.0029309404 0.13312204 -0.059611358 -0.07351948 -0.08978503 0.09992529 -0.13278505 -0.082362875 -0.052719362 -0.11993541 0.13536498 -0.14027666 -0.018209158 -0.046134986 -0.043886736 -0.10694146 -0.11382334 0.04603083 -0.004408408 -0.018812738 0.0685997 -0.14599556 0.022999875 0.042161025 -0.11918759 0.1483921 0.06882115 0.06268896 -0.08187644 0.1256699 0.07921478 0.013216862 -0.034531854 -0.05185832 0.0020775325 0.049450852 0.05708427 -0.08493636 -0.0794417 0.045200214 -0.11465557 0.013238521 0.03490477 -0.07678198 0.062393185 0.0552624 -0.05525485 -0.0072069564 0.039607085 0.0826618 -0.043219272 -0.0073172525 -0.011375332 0.048425414 0.041552793 0.045084465 -0.11693556 0.113828495 0.1320659 0.05179186 0.11471974 0.0028643608 -0.095323406 -0.05852789 0.012038223 -0.012042665 0.041646894 -0.15185615 0.014768293 -0.027860109
my 0.04492699 -0.015698262 0.015973905 0.08225498 0.099669605 -0.110839486 0.0067904876 0.063481934 -0.025559282 0.04609337 -0.0718309 -0.037821315 0.025386117 0.0879988 -0.032542437 -0.121194 -0.028197315 0.030754581 0.061139368 -0.115607895 0.099134736 -0.06403407 0.010468784 0.012149891 -0.022507168 -0.043391682 -0.07973658 -0.048637 -0.10239939 0.06261455 0.09642991 0.05182138 0.023080265 0.06773579 -0.051518306 0.018857442 0.04817942 -0.07623272 -0.041590232 -0.07347786 -0.051401354 -0.016512128 -0.037555687 0.02170703 0.1377659 -0.0010367257 -0.043944877 -0.043407865 0.06397737 0.051871654 0.023856372 -0.056774404 -0.08282415 -0.057889383 -0.030454457 0.010886433 0.006801145 -0.06924438 -0.09950173 -0.007964921 -0.0042451494 -0.02266987 -0.05532257 -0.08384261 -0.11248963 -0.011460207 -0.016050851 0.090143554 -0.16131902 0.055343978 -0.00926082 -0.00984064 0.08576887 0.005309208 0.010172604 -0.0028571538 0.027316194 -0.024992988 -0.1742178 0.04730648 0.03405165 -0.05865584 -0.10533568 0.17271993 -0.07942594 -0.040249012 -0.023180287 0.10698025 0.0018964828 -0.056309048 0.04264547 0.05358563 -0.023898987 0.05245892 0.12043806 0.117429495 0.010802698 -0.04933788 0.032249954 0.09586375 -0.091085084 0.09854986 0.045486495 -0.067950994 -0.11438525 -0.036222983 0.024027152 0.13185684 -0.0228192 -0.08890141 -0.033635143 -0.10717606 0.021299692 -0.07588896 0.023282839 0.043622594 0.0848182 -0.15438439 0.022934895 -0.098959565 0.009129364 0.1635649 0.050688263 -0.1137869 -0.02580556 0.054861985 -0.09055341 -0.05779708 -0.0069143055 -0.005437532 0.011012624 0.10116457 -0.041104075 -0.05863215 -0.07512649 0.08485412 -0.10397591 -0.070227206 -0.041212402 -0.09966079 0.107440636 -0.10795487 -0.02107749 -0.036919776 -0.035529252 -0.08452943 -0.087351054 0.030296348 0.00081709516 -0.021396885 0.05696264 -0.113883674 0.01418508 0.03744626 -0.097869515 0.11721442 0.06007937 0.04962581 -0.060277455 0.10193493 0.06600903 0.015597288 -0.029516108 -0.039783467 -0.0045249434 0.03951168 0.039862495 -0.0710474 -0.061299905 0.036100484 -0.10044297 0.0052014645 0.020163443 -0.060194314 0.04748493 0.04362365 -0.046096925 -0.011086282 0.02605118 0.0716203 -0.033000395 -0.007278989 -0.005441098 0.037463903 0.035971817 0.0414572 -0.096424274 0.09113998 0.104385994 0.04096409 0.09213329 -0.004335573 -0.07367259 -0.04983836 0.0161125 -0.010491372 0.033777766 -0.1221552 0.014547804 -0.030507209
I 0.041158747 -0.014846858 0.013230442 0.08142024 0.101677865 -0.11483784 0.01129446 0.06740796 -0.019668633 0.039530035 -0.07010353 -0.04057415 0.029785896 0.09388692 -0.040032323 -0.12603667 -0.023941733 0.029439667 0.060637448 -0.12359848 0.10992234 -0.073663004 0.013560948 0.013069825 -0.021487942 -0.04451059 -0.07862564 -0.04654438 -0.1097641 0.060832843 0.10042105 0.057992235 0.018368741 0.07073301 -0.054587148 0.020239897 0.05761784 -0.08158128 -0.04788022 -0.07561809 -0.05956559 -0.016969716 -0.03646223 0.018924972 0.14810538 -0.0029410303 -0.042985123 -0.046651173 0.07171314 0.05672772 0.022343244 -0.060968533 -0.08559368 -0.05860239 -0.03427651 0.010073254 0.009915773 -0.0791878 -0.10699127 -0.008087495 -0.001939956 -0.02512853 -0.054695647 -0.08646421 -0.11945313 -0.0046423227 -0.015989905 0.09410204 -0.16921458 0.059730574 -0.01934342 -0.012327751 0.08587253 0.004429539 0.00872993 0.001316176 0.022046305 -0.02489881 -0.1806876 0.052308355 0.037328307 -0.061617605 -0.11397778 0.18566939 -0.07877508 -0.035044488 -0.019122455 0.10348246 0.0017983364 -0.05433865 0.044638652 0.05672247 -0.020361027 0.055450495 0.123750396 0.124821946 0.007854164 -0.0541087 0.035142094 0.10152652 -0.09728502 0.10216567 0.046993446 -0.072453916 -0.1204911 -0.043949436 0.024373734 0.1306865 -0.0283997 -0.09122651 -0.03270115 -0.10658387 0.027409391 -0.082113236 0.027546324 0.039746463 0.08669168 -0.15489867 0.02160268 -0.09931844 0.010896831 0.16683847 0.05181516 -0.11393735 -0.024331085 0.053313404 -0.09728024 -0.06894755 -0.0020772228 -0.007967173 0.009880344 0.11154822 -0.047482427 -0.06070726 -0.077670425 0.09129469 -0.10987863 -0.06747473 -0.049162373 -0.10506151 0.12020722 -0.11327982 -0.021795152 -0.044970986 -0.042701665 -0.092238046 -0.09876245 0.035836607 0.00032100553 -0.022561546 0.059395634 -0.1265517 0.015633458 0.036235947 -0.1039541 0.1246404 0.054543126 0.04617152 -0.06564907 0.105348065 0.07303652 0.018903036 -0.02985917 -0.049131826 0.0017949974 0.041382335 0.04791759 -0.076337084 -0.06853687 0.03747606 -0.10510141 0.011140287 0.024899121 -0.06381496 0.049562264 0.050614476 -0.045631602 -0.0052322433 0.026659595 0.06915903 -0.033139125 -0.014439819 -0.015663737 0.040114015 0.027152326 0.041839726 -0.10019798 0.09009994 0.113762915 0.044613145 0.09721137 0.0013413677 -0.08058162 -0.04936023 0.015421541 -0.014673867 0.0388706 -0.12668444 0.0092308605 -0.03032199
diabetes is 0.043230027 -0.021968363 0.015598158 0.07124749 0.095254146 -0.1084645 0.0032244197 0.059626162 -0.015167567 0.0411198 -0.06736594 -0.038673677 0.024222761 0.081850715 -0.037842512 -0.11159731 -0.028990518 0.022855112 0.049907677 -0.106579855 0.098536804 -0.060729377 0.015842883 0.013821957 -0.021448629 -0.03509558 -0.0746187 -0.04074255 -0.09689948 0.059777424 0.09209306 0.049089108 0.019474052 0.06374365 -0.053478755 0.018768404 0.04649838 -0.069970235 -0.046373304 -0.063263424 -0.052064158 -0.013659994 -0.03741258 0.018094392 0.13248928 -0.008046732 -0.036865912 -0.04780724 0.066411145 0.0521324 0.017582966 -0.05864243 -0.078103 -0.05006063 -0.02632723 0.013429046 0.010969371 -0.0717968 -0.095784575 -0.0072294394 -0.0064910906 -0.027737163 -0.052957907 -0.07781814 -0.10840169 -0.007204933 -0.016063184 0.07969942 -0.14647695 0.054515865 -0.018396482 -0.01149209 0.076625526 0.007721604 0.005438012 0.0037869914 0.025049232 -0.02465487 -0.16562086 0.046777602 0.03665145 -0.05954972 -0.10039692 0.16725996 -0.07930359 -0.033959676 -0.023935396 0.10181791 -0.004588919 -0.049145237 0.0377805 0.04914052 -0.01936202 0.04861794 0.111282855 0.10933288 0.008781655 -0.041033544 0.025159009 0.09062723 -0.091346644 0.095427394 0.042308826 -0.066367894 -0.10714966 -0.038976744 0.022921309 0.12483511 -0.019881925 -0.08640584 -0.029477187 -0.09539598 0.02906514 -0.071215846 0.020530213 0.035338763 0.07819754 -0.14320442 0.021240769 -0.09390201 0.011003672 0.14745289 0.041488558 -0.11199692 -0.017470663 0.051538527 -0.091269046 -0.05444516 -0.0039560534 -0.014218901 0.0023555593 0.097802654 -0.0460991 -0.051261123 -0.06518756 0.07951583 -0.10207174 -0.06645147 -0.0391166 -0.09393668 0.1034153 -0.10752787 -0.018562894 -0.04171001 -0.03579593 -0.08762195 -0.08233406 0.028667457 -0.0041575287 -0.015358719 0.050126057 -0.108867794 0.01345947 0.033683833 -0.085791156 0.11617901 0.05298443 0.049319014 -0.06054459 0.09710897 0.06490442 0.008926084 -0.022012306 -0.04557064 -0.002566188 0.03881377 0.039248563 -0.07089497 -0.058711804 0.038925786 -0.08814124 0.004573518 0.027978083 -0.057312068 0.04464415 0.040708568 -0.039937247 -0.013313554 0.025359906 0.07123255 -0.034577254 -0.012603382 -0.012004357 0.029265275 0.029719105 0.038288034 -0.092869185 0.083046935 0.10697634 0.035516053 0.081498675 -0.0045339167 -0.06566681 -0.044631165 0.007941316 -0.014947084 0.035470314 -0.11458503 0.0077937767 -0.02345123
by 0.046828955 -0.015306441 0.021011015 0.08735043 0.10866442 -0.12861598 0.004684142 0.072852366 -0.022914216 0.051898036 -0.08539362 -0.05063594 0.031621944 0.1060933 -0.038198944 -0.1385411 -0.035417736 0.035644546 0.064811304 -0.13195987 0.11551209 -0.07989604 0.015858183 0.017584916 -0.033812042 -0.04741676 -0.08919289 -0.052551217 -0.114207804 0.069597684 0.11504892 0.056466933 0.016591724 0.08209729 -0.06072803 0.014665147 0.061864093 -0.08134055 -0.049843572 -0.08456578 -0.0646515 -0.014194287 -0.048221968 0.018000687 0.15445039 -0.0016494401 -0.050625272 -0.05488268 0.07931448 0.062460545 0.02043678 -0.06718716 -0.08912552 -0.07155119 -0.035412695 0.019292254 0.010946217 -0.08753284 -0.11538458 -0.0073161703 -0.007243299 -0.029318666 -0.06584455 -0.09231575 -0.13170771 -0.012853245 -0.020751763 0.10357741 -0.18352002 0.0702239 -0.01417726 -0.019777631 0.09310231 0.0036712529 0.0057859165 -0.0037215026 0.032476455 -0.025839109 -0.20002809 0.0632431 0.039628632 -0.07573384 -0.12313144 0.20821768 -0.09460561 -0.045971435 -0.026089326 0.121710904 0.0018971696 -0.06882412 0.042492345 0.060338985 -0.019651767 0.06023755 0.13620277 0.13281582 0.010014787 -0.05324932 0.03500382 0.11917234 -0.1070626 0.117201015 0.04969649 -0.07608874 -0.13230576 -0.046229873 0.030690407 0.14930177 -0.025937855 -0.103841186 -0.032314118 -0.11722964 0.028775234 -0.08320991 0.027160767 0.05018745 0.09769051 -0.17402159 0.02214915 -0.114521146 0.0068455725 0.18227981 0.052199055 -0.13041148 -0.025890695 0.062045913 -0.10777545 -0.0749917 -0.0027152908 -0.006510102 0.010447614 0.12302377 -0.0527134 -0.06769239 -0.08731338 0.092672475 -0.12304818 -0.07639436 -0.049617264 -0.113918096 0.13093445 -0.12934287 -0.017519152 -0.04675968 -0.047515716 -0.10241055 -0.104167126 0.03826336 -0.0033272207 -0.01486063 0.06059078 -0.13386674 0.017375624 0.04585971 -0.107363075 0.14066228 0.06275719 0.05424091 -0.077019095 0.11414239 0.07983289 0.010662985 -0.027393904 -0.04673297 0.0014063155 0.041061044 0.05165469 -0.08785335 -0.07340642 0.047687132 -0.10989077 0.00661835 0.027619744 -0.07998492 0.058987014 0.053143002 -0.052069496 -0.007733486 0.03088787 0.08321 -0.037433308 -0.00921994 -0.01253177 0.037341796 0.032821916 0.042948097 -0.11897763 0.10879836 0.1261373 0.048222568 0.10716952 -0.0013949942 -0.085505925 -0.05242143 0.016683556 -0.011712692 0.036499493 -0.13986403 0.008342907 -0.027386187
more 0.051500227 -0.016350927 0.019929582 0.08259565 0.11206882 -0.13001464 0.0099804215 0.06857538 -0.02055222 0.04263473 -0.07613925 -0.051508475 0.03423903 0.10405428 -0.047117315 -0.12871695 -0.034814987 0.034264687 0.05890553 -0.13281249 0.11113786 -0.074221686 0.01593795 0.013888584 -0.032996982 -0.039560206 -0.08470737 -0.05141033 -0.115924455 0.071649216 0.11469388 0.054231547 0.022061575 0.07581654 -0.058102235 0.022966152 0.054929905 -0.08264281 -0.048522614 -0.0841485 -0.06080434 -0.015612299 -0.048805587 0.01981244 0.1579631 -0.0030354946 -0.0407778 -0.054457027 0.07752559 0.056124385 0.026081499 -0.07354319 -0.089015305 -0.060863085 -0.038506906 0.017609203 0.0028940244 -0.08318564 -0.11377908 -0.0077849077 0.0005699137 -0.034359843 -0.062303994 -0.08478567 -0.1215916 -0.008123523 -0.013452242 0.095649965 -0.18018267 0.065839104 -0.016582383 -0.011003959 0.09894814 0.002488841 0.0058715018 0.004676145 0.023942646 -0.032038353 -0.19146487 0.054272402 0.0389543 -0.0689543 -0.12321657 0.19855478 -0.09187623 -0.04382963 -0.022728749 0.11763791 -0.002147167 -0.058917314 0.04601259 0.06333128 -0.01961802 0.059954315 0.13581684 0.12738287 0.010853033 -0.055244725 0.036723465 0.10940622 -0.10509937 0.11334984 0.04928713 -0.0739948 -0.12948596 -0.04146162 0.025274064 0.13780212 -0.022712955 -0.09651122 -0.04076646 -0.11979029 0.029830245 -0.08292883 0.022351809 0.049266055 0.08994273 -0.17192794 0.027000526 -0.109052494 0.008101527 0.18233764 0.055891298 -0.13002002 -0.029563595 0.05919464 -0.102945074 -0.070952915 -0.0044159936 -0.010959648 0.009526025 0.117975 -0.047490362 -0.060878225 -0.08517159 0.09574052 -0.12449578 -0.07957575 -0.047228374 -0.106690586 0.12796576 -0.12883408 -0.016464306 -0.04829306 -0.047481876 -0.09880538 -0.1029391 0.03961217 -0.004128326 -0.021722635 0.06745409 -0.13413997 0.022094226 0.038440425 -0.10680313 0.1384952 0.06672626 0.05340604 -0.07675563 0.11092876 0.07779778 0.018628526 -0.031328827 -0.04649879 0.0019715421 0.037979152 0.04771916 -0.079475276 -0.073870055 0.039601278 -0.10534204 0.006532267 0.026064001 -0.07169337 0.061308384 0.053348288 -0.04953647 -0.011352154 0.03590608 0.078785166 -0.042686123 -0.014921893 -0.013920885 0.04322457 0.036415495 0.038461782 -0.10696575 0.09931297 0.120934434 0.044715766 0.101802275 0.0005045357 -0.08270137 -0.053401325 0.011296699 -0.012597013 0.035264734 -0.13420664 0.016057782 -0.02863787
The 0.04849354 -0.016576543 0.016355457 0.08088956 0.102984466 -0.113313735 0.0038753846 0.067707516 -0.024746167 0.042975407 -0.07671639 -0.049460933 0.029008206 0.09528785 -0.037647296 -0.1227498 -0.031168994 0.03167145 0.062060248 -0.11557178 0.105184466 -0.07562242 0.019884242 0.011290077 -0.024841623 -0.038564086 -0.07412486 -0.045829352 -0.1073457 0.062008433 0.10546092 0.05385735 0.018028121 0.07745694 -0.053459376 0.014990067 0.056531724 -0.07952626 -0.04866687 -0.07150099 -0.060165912 -0.012701641 -0.043726854 0.014664912 0.13711515 -0.002184018 -0.038837194 -0.045858394 0.06878949 0.057933807 0.021906441 -0.066973045 -0.07696087 -0.06280106 -0.029775478 0.012885641 0.005910317 -0.077683486 -0.102106825 -0.008135736 -0.0019279203 -0.027575083 -0.056208726 -0.08466085 -0.11984508 -0.012870241 -0.018848019 0.09163312 -0.16655736 0.063837945 -0.012837883 -0.015391097 0.08447402 0.0015495144 0.0025032316 -7.8064775e-05 0.02424195 -0.020207034 -0.1731079 0.05332634 0.040101543 -0.06687952 -0.11391613 0.18288802 -0.0850967 -0.040798 -0.02057818 0.10234572 -0.0017996174 -0.056862976 0.042524792 0.054149497 -0.02005532 0.057788733 0.12182226 0.117290445 0.0073280786 -0.05236197 0.030233804 0.101197004 -0.10088647 0.100404404 0.044836372 -0.07183247 -0.12061421 -0.039435104 0.027053647 0.13323672 -0.02070255 -0.08970823 -0.031072233 -0.10607312 0.02859243 -0.07640183 0.02658763 0.036849696 0.08789982 -0.15527423 0.026666734 -0.10256045 0.014328771 0.16622797 0.044824537 -0.112954095 -0.025732994 0.05755667 -0.102800995 -0.06630405 -0.0031506065 -0.009912001 0.0034211632 0.1083288 -0.050325837 -0.057711348 -0.070248775 0.08459611 -0.108170226 -0.06977329 -0.043820046 -0.09912617 0.10999766 -0.11375615 -0.021746874 -0.037047137 -0.043815505 -0.087261185 -0.09312698 0.03930805 0.0012971469 -0.011666517 0.05838959 -0.120682724 0.018053995 0.03577895 -0.09916652 0.12701692 0.062475603 0.05335397 -0.06461156 0.10502544 0.06737715 0.014680676 -0.028259268 -0.047934026 -0.0058137993 0.04032448 0.040663783 -0.06995763 -0.06803513 0.03828814 -0.10314328 0.011890125 0.028870374 -0.06599033 0.05123061 0.0429042 -0.04621135 -0.0047496455 0.025117913 0.07508771 -0.034423452 -0.0046539796 -0.009321562 0.03836825 0.03420737 0.04081431 -0.10627757 0.09034353 0.11116 0.043424997 0.09401774 -0.0010968039 -0.0777189 -0.045341782 0.013272245 -0.0069821114 0.03867262 -0.12300994 0.012050569 -0.032127935
